digraph Tree {
node [shape=box] ;
0 [label="numchild <= 0.5\ngini = 0.646\nsamples = 1473\nvalue = [629, 333, 511]"] ;
1 [label="wifeage <= 17.5\ngini = 0.04\nsamples = 97\nvalue = [95, 0, 2]"] ;
0 -> 1 [labeldistance=2.5, labelangle=45, headlabel="True"] ;
2 [label="gini = 0.0\nsamples = 1\nvalue = [0, 0, 1]"] ;
1 -> 2 ;
3 [label="husjob <= 3.5\ngini = 0.021\nsamples = 96\nvalue = [95, 0, 1]"] ;
1 -> 3 ;
4 [label="gini = 0.0\nsamples = 92\nvalue = [92, 0, 0]"] ;
3 -> 4 ;
5 [label="gini = 0.375\nsamples = 4\nvalue = [3, 0, 1]"] ;
3 -> 5 ;
6 [label="wifeage <= 37.5\ngini = 0.654\nsamples = 1376\nvalue = [534, 333, 509]"] ;
0 -> 6 [labeldistance=2.5, labelangle=-45, headlabel="False"] ;
7 [label="wifeedu <= 3.5\ngini = 0.641\nsamples = 968\nvalue = [317, 217, 434]"] ;
6 -> 7 ;
8 [label="numchild <= 2.5\ngini = 0.613\nsamples = 599\nvalue = [227, 91, 281]"] ;
7 -> 8 ;
9 [label="wifeage <= 30.5\ngini = 0.596\nsamples = 260\nvalue = [132, 35, 93]"] ;
8 -> 9 ;
10 [label="husedu <= 1.5\ngini = 0.604\nsamples = 226\nvalue = [105, 30, 91]"] ;
9 -> 10 ;
11 [label="gini = 0.0\nsamples = 4\nvalue = [0, 4, 0]"] ;
10 -> 11 ;
12 [label="wifeedu <= 2.5\ngini = 0.595\nsamples = 222\nvalue = [105, 26, 91]"] ;
10 -> 12 ;
13 [label="wifework <= 0.5\ngini = 0.548\nsamples = 103\nvalue = [58, 8, 37]"] ;
12 -> 13 ;
14 [label="wifeage <= 23.5\ngini = 0.421\nsamples = 19\nvalue = [14, 3, 2]"] ;
13 -> 14 ;
15 [label="gini = 0.444\nsamples = 3\nvalue = [1, 0, 2]"] ;
14 -> 15 ;
16 [label="husjob <= 3.5\ngini = 0.305\nsamples = 16\nvalue = [13, 3, 0]"] ;
14 -> 16 ;
17 [label="wifeage <= 29.0\ngini = 0.165\nsamples = 11\nvalue = [10, 1, 0]"] ;
16 -> 17 ;
18 [label="gini = 0.0\nsamples = 9\nvalue = [9, 0, 0]"] ;
17 -> 18 ;
19 [label="gini = 0.5\nsamples = 2\nvalue = [1, 1, 0]"] ;
17 -> 19 ;
20 [label="gini = 0.48\nsamples = 5\nvalue = [3, 2, 0]"] ;
16 -> 20 ;
21 [label="husedu <= 2.5\ngini = 0.548\nsamples = 84\nvalue = [44, 5, 35]"] ;
13 -> 21 ;
22 [label="living <= 1.5\ngini = 0.525\nsamples = 25\nvalue = [10, 1, 14]"] ;
21 -> 22 ;
23 [label="gini = 0.408\nsamples = 7\nvalue = [5, 0, 2]"] ;
22 -> 23 ;
24 [label="wifeage <= 28.5\ngini = 0.475\nsamples = 18\nvalue = [5, 1, 12]"] ;
22 -> 24 ;
25 [label="wifeage <= 26.5\ngini = 0.508\nsamples = 16\nvalue = [5, 1, 10]"] ;
24 -> 25 ;
26 [label="living <= 3.5\ngini = 0.439\nsamples = 14\nvalue = [3, 1, 10]"] ;
25 -> 26 ;
27 [label="numchild <= 1.5\ngini = 0.512\nsamples = 11\nvalue = [3, 1, 7]"] ;
26 -> 27 ;
28 [label="gini = 0.449\nsamples = 7\nvalue = [1, 1, 5]"] ;
27 -> 28 ;
29 [label="gini = 0.5\nsamples = 4\nvalue = [2, 0, 2]"] ;
27 -> 29 ;
30 [label="gini = 0.0\nsamples = 3\nvalue = [0, 0, 3]"] ;
26 -> 30 ;
31 [label="gini = 0.0\nsamples = 2\nvalue = [2, 0, 0]"] ;
25 -> 31 ;
32 [label="gini = 0.0\nsamples = 2\nvalue = [0, 0, 2]"] ;
24 -> 32 ;
33 [label="numchild <= 1.5\ngini = 0.537\nsamples = 59\nvalue = [34, 4, 21]"] ;
21 -> 33 ;
34 [label="media <= 0.5\ngini = 0.383\nsamples = 31\nvalue = [23, 0, 8]"] ;
33 -> 34 ;
35 [label="wifeage <= 27.5\ngini = 0.358\nsamples = 30\nvalue = [23, 0, 7]"] ;
34 -> 35 ;
36 [label="wifeage <= 26.5\ngini = 0.403\nsamples = 25\nvalue = [18, 0, 7]"] ;
35 -> 36 ;
37 [label="living <= 1.5\ngini = 0.34\nsamples = 23\nvalue = [18, 0, 5]"] ;
36 -> 37 ;
38 [label="gini = 0.49\nsamples = 7\nvalue = [4, 0, 3]"] ;
37 -> 38 ;
39 [label="husedu <= 3.5\ngini = 0.219\nsamples = 16\nvalue = [14, 0, 2]"] ;
37 -> 39 ;
40 [label="gini = 0.0\nsamples = 9\nvalue = [9, 0, 0]"] ;
39 -> 40 ;
41 [label="gini = 0.408\nsamples = 7\nvalue = [5, 0, 2]"] ;
39 -> 41 ;
42 [label="gini = 0.0\nsamples = 2\nvalue = [0, 0, 2]"] ;
36 -> 42 ;
43 [label="gini = 0.0\nsamples = 5\nvalue = [5, 0, 0]"] ;
35 -> 43 ;
44 [label="gini = 0.0\nsamples = 1\nvalue = [0, 0, 1]"] ;
34 -> 44 ;
45 [label="wifeedu <= 1.5\ngini = 0.61\nsamples = 28\nvalue = [11, 4, 13]"] ;
33 -> 45 ;
46 [label="gini = 0.0\nsamples = 3\nvalue = [0, 0, 3]"] ;
45 -> 46 ;
47 [label="husjob <= 2.5\ngini = 0.621\nsamples = 25\nvalue = [11, 4, 10]"] ;
45 -> 47 ;
48 [label="gini = 0.531\nsamples = 8\nvalue = [1, 2, 5]"] ;
47 -> 48 ;
49 [label="living <= 2.5\ngini = 0.554\nsamples = 17\nvalue = [10, 2, 5]"] ;
47 -> 49 ;
50 [label="gini = 0.494\nsamples = 9\nvalue = [5, 0, 4]"] ;
49 -> 50 ;
51 [label="gini = 0.531\nsamples = 8\nvalue = [5, 2, 1]"] ;
49 -> 51 ;
52 [label="wifeage <= 25.5\ngini = 0.615\nsamples = 119\nvalue = [47, 18, 54]"] ;
12 -> 52 ;
53 [label="religion <= 0.5\ngini = 0.573\nsamples = 83\nvalue = [36, 7, 40]"] ;
52 -> 53 ;
54 [label="gini = 0.0\nsamples = 4\nvalue = [0, 0, 4]"] ;
53 -> 54 ;
55 [label="husjob <= 3.5\ngini = 0.577\nsamples = 79\nvalue = [36, 7, 36]"] ;
53 -> 55 ;
56 [label="media <= 0.5\ngini = 0.568\nsamples = 78\nvalue = [36, 6, 36]"] ;
55 -> 56 ;
57 [label="husjob <= 1.5\ngini = 0.569\nsamples = 76\nvalue = [36, 6, 34]"] ;
56 -> 57 ;
58 [label="gini = 0.0\nsamples = 2\nvalue = [0, 0, 2]"] ;
57 -> 58 ;
59 [label="wifeage <= 20.5\ngini = 0.57\nsamples = 74\nvalue = [36, 6, 32]"] ;
57 -> 59 ;
60 [label="husjob <= 2.5\ngini = 0.585\nsamples = 20\nvalue = [11, 3, 6]"] ;
59 -> 60 ;
61 [label="gini = 0.568\nsamples = 9\nvalue = [3, 1, 5]"] ;
60 -> 61 ;
62 [label="living <= 3.5\ngini = 0.43\nsamples = 11\nvalue = [8, 2, 1]"] ;
60 -> 62 ;
63 [label="wifeage <= 17.5\ngini = 0.34\nsamples = 10\nvalue = [8, 1, 1]"] ;
62 -> 63 ;
64 [label="gini = 0.5\nsamples = 2\nvalue = [1, 0, 1]"] ;
63 -> 64 ;
65 [label="gini = 0.219\nsamples = 8\nvalue = [7, 1, 0]"] ;
63 -> 65 ;
66 [label="gini = 0.0\nsamples = 1\nvalue = [0, 1, 0]"] ;
62 -> 66 ;
67 [label="wifeage <= 21.5\ngini = 0.551\nsamples = 54\nvalue = [25, 3, 26]"] ;
59 -> 67 ;
68 [label="husjob <= 2.5\ngini = 0.375\nsamples = 12\nvalue = [3, 0, 9]"] ;
67 -> 68 ;
69 [label="gini = 0.5\nsamples = 4\nvalue = [2, 0, 2]"] ;
68 -> 69 ;
70 [label="gini = 0.219\nsamples = 8\nvalue = [1, 0, 7]"] ;
68 -> 70 ;
71 [label="wifework <= 0.5\ngini = 0.557\nsamples = 42\nvalue = [22, 3, 17]"] ;
67 -> 71 ;
72 [label="gini = 0.494\nsamples = 9\nvalue = [6, 1, 2]"] ;
71 -> 72 ;
73 [label="living <= 3.5\ngini = 0.555\nsamples = 33\nvalue = [16, 2, 15]"] ;
71 -> 73 ;
74 [label="wifeage <= 24.5\ngini = 0.565\nsamples = 26\nvalue = [11, 2, 13]"] ;
73 -> 74 ;
75 [label="numchild <= 1.5\ngini = 0.526\nsamples = 17\nvalue = [6, 1, 10]"] ;
74 -> 75 ;
76 [label="gini = 0.0\nsamples = 6\nvalue = [0, 0, 6]"] ;
75 -> 76 ;
77 [label="living <= 1.5\ngini = 0.562\nsamples = 11\nvalue = [6, 1, 4]"] ;
75 -> 77 ;
78 [label="gini = 0.0\nsamples = 2\nvalue = [0, 0, 2]"] ;
77 -> 78 ;
79 [label="gini = 0.494\nsamples = 9\nvalue = [6, 1, 2]"] ;
77 -> 79 ;
80 [label="gini = 0.568\nsamples = 9\nvalue = [5, 1, 3]"] ;
74 -> 80 ;
81 [label="gini = 0.408\nsamples = 7\nvalue = [5, 0, 2]"] ;
73 -> 81 ;
82 [label="gini = 0.0\nsamples = 2\nvalue = [0, 0, 2]"] ;
56 -> 82 ;
83 [label="gini = 0.0\nsamples = 1\nvalue = [0, 1, 0]"] ;
55 -> 83 ;
84 [label="husedu <= 3.5\ngini = 0.662\nsamples = 36\nvalue = [11, 11, 14]"] ;
52 -> 84 ;
85 [label="wifeage <= 27.5\ngini = 0.5\nsamples = 12\nvalue = [0, 6, 6]"] ;
84 -> 85 ;
86 [label="gini = 0.408\nsamples = 7\nvalue = [0, 5, 2]"] ;
85 -> 86 ;
87 [label="gini = 0.32\nsamples = 5\nvalue = [0, 1, 4]"] ;
85 -> 87 ;
88 [label="numchild <= 1.5\ngini = 0.635\nsamples = 24\nvalue = [11, 5, 8]"] ;
84 -> 88 ;
89 [label="gini = 0.0\nsamples = 6\nvalue = [6, 0, 0]"] ;
88 -> 89 ;
90 [label="religion <= 0.5\ngini = 0.648\nsamples = 18\nvalue = [5, 5, 8]"] ;
88 -> 90 ;
91 [label="gini = 0.0\nsamples = 2\nvalue = [0, 2, 0]"] ;
90 -> 91 ;
92 [label="wifeage <= 28.5\ngini = 0.617\nsamples = 16\nvalue = [5, 3, 8]"] ;
90 -> 92 ;
93 [label="living <= 3.5\ngini = 0.512\nsamples = 11\nvalue = [3, 1, 7]"] ;
92 -> 93 ;
94 [label="gini = 0.568\nsamples = 9\nvalue = [3, 1, 5]"] ;
93 -> 94 ;
95 [label="gini = 0.0\nsamples = 2\nvalue = [0, 0, 2]"] ;
93 -> 95 ;
96 [label="gini = 0.64\nsamples = 5\nvalue = [2, 2, 1]"] ;
92 -> 96 ;
97 [label="wifeage <= 34.5\ngini = 0.344\nsamples = 34\nvalue = [27, 5, 2]"] ;
9 -> 97 ;
98 [label="wifeage <= 33.5\ngini = 0.461\nsamples = 23\nvalue = [16, 5, 2]"] ;
97 -> 98 ;
99 [label="wifework <= 0.5\ngini = 0.335\nsamples = 20\nvalue = [16, 3, 1]"] ;
98 -> 99 ;
100 [label="gini = 0.48\nsamples = 5\nvalue = [3, 2, 0]"] ;
99 -> 100 ;
101 [label="wifeage <= 32.5\ngini = 0.24\nsamples = 15\nvalue = [13, 1, 1]"] ;
99 -> 101 ;
102 [label="gini = 0.0\nsamples = 10\nvalue = [10, 0, 0]"] ;
101 -> 102 ;
103 [label="gini = 0.56\nsamples = 5\nvalue = [3, 1, 1]"] ;
101 -> 103 ;
104 [label="gini = 0.444\nsamples = 3\nvalue = [0, 2, 1]"] ;
98 -> 104 ;
105 [label="gini = 0.0\nsamples = 11\nvalue = [11, 0, 0]"] ;
97 -> 105 ;
106 [label="husjob <= 1.5\ngini = 0.587\nsamples = 339\nvalue = [95, 56, 188]"] ;
8 -> 106 ;
107 [label="numchild <= 3.5\ngini = 0.639\nsamples = 44\nvalue = [9, 16, 19]"] ;
106 -> 107 ;
108 [label="living <= 1.5\ngini = 0.5\nsamples = 14\nvalue = [1, 9, 4]"] ;
107 -> 108 ;
109 [label="gini = 0.0\nsamples = 1\nvalue = [1, 0, 0]"] ;
108 -> 109 ;
110 [label="wifeage <= 28.5\ngini = 0.426\nsamples = 13\nvalue = [0, 9, 4]"] ;
108 -> 110 ;
111 [label="gini = 0.494\nsamples = 9\nvalue = [0, 5, 4]"] ;
110 -> 111 ;
112 [label="gini = 0.0\nsamples = 4\nvalue = [0, 4, 0]"] ;
110 -> 112 ;
113 [label="living <= 3.5\ngini = 0.624\nsamples = 30\nvalue = [8, 7, 15]"] ;
107 -> 113 ;
114 [label="wifeage <= 30.0\ngini = 0.602\nsamples = 14\nvalue = [2, 7, 5]"] ;
113 -> 114 ;
115 [label="gini = 0.56\nsamples = 5\nvalue = [1, 1, 3]"] ;
114 -> 115 ;
116 [label="gini = 0.494\nsamples = 9\nvalue = [1, 6, 2]"] ;
114 -> 116 ;
117 [label="wifeage <= 30.5\ngini = 0.469\nsamples = 16\nvalue = [6, 0, 10]"] ;
113 -> 117 ;
118 [label="gini = 0.0\nsamples = 5\nvalue = [5, 0, 0]"] ;
117 -> 118 ;
119 [label="wifeage <= 33.0\ngini = 0.165\nsamples = 11\nvalue = [1, 0, 10]"] ;
117 -> 119 ;
120 [label="gini = 0.444\nsamples = 3\nvalue = [1, 0, 2]"] ;
119 -> 120 ;
121 [label="gini = 0.0\nsamples = 8\nvalue = [0, 0, 8]"] ;
119 -> 121 ;
122 [label="wifeage <= 32.5\ngini = 0.568\nsamples = 295\nvalue = [86, 40, 169]"] ;
106 -> 122 ;
123 [label="husedu <= 1.5\ngini = 0.507\nsamples = 190\nvalue = [54, 15, 121]"] ;
122 -> 123 ;
124 [label="gini = 0.593\nsamples = 9\nvalue = [5, 2, 2]"] ;
123 -> 124 ;
125 [label="wifeage <= 21.5\ngini = 0.489\nsamples = 181\nvalue = [49, 13, 119]"] ;
123 -> 125 ;
126 [label="gini = 0.408\nsamples = 7\nvalue = [5, 0, 2]"] ;
125 -> 126 ;
127 [label="living <= 2.5\ngini = 0.478\nsamples = 174\nvalue = [44, 13, 117]"] ;
125 -> 127 ;
128 [label="media <= 0.5\ngini = 0.478\nsamples = 62\nvalue = [22, 1, 39]"] ;
127 -> 128 ;
129 [label="husjob <= 3.5\ngini = 0.435\nsamples = 50\nvalue = [16, 0, 34]"] ;
128 -> 129 ;
130 [label="numchild <= 3.5\ngini = 0.425\nsamples = 49\nvalue = [15, 0, 34]"] ;
129 -> 130 ;
131 [label="wifeedu <= 1.5\ngini = 0.486\nsamples = 24\nvalue = [10, 0, 14]"] ;
130 -> 131 ;
132 [label="gini = 0.0\nsamples = 3\nvalue = [0, 0, 3]"] ;
131 -> 132 ;
133 [label="husedu <= 2.5\ngini = 0.499\nsamples = 21\nvalue = [10, 0, 11]"] ;
131 -> 133 ;
134 [label="gini = 0.0\nsamples = 4\nvalue = [4, 0, 0]"] ;
133 -> 134 ;
135 [label="wifeage <= 25.5\ngini = 0.457\nsamples = 17\nvalue = [6, 0, 11]"] ;
133 -> 135 ;
136 [label="gini = 0.0\nsamples = 4\nvalue = [0, 0, 4]"] ;
135 -> 136 ;
137 [label="wifeedu <= 2.5\ngini = 0.497\nsamples = 13\nvalue = [6, 0, 7]"] ;
135 -> 137 ;
138 [label="gini = 0.375\nsamples = 4\nvalue = [3, 0, 1]"] ;
137 -> 138 ;
139 [label="gini = 0.444\nsamples = 9\nvalue = [3, 0, 6]"] ;
137 -> 139 ;
140 [label="husedu <= 2.5\ngini = 0.32\nsamples = 25\nvalue = [5, 0, 20]"] ;
130 -> 140 ;
141 [label="gini = 0.0\nsamples = 5\nvalue = [0, 0, 5]"] ;
140 -> 141 ;
142 [label="numchild <= 4.5\ngini = 0.375\nsamples = 20\nvalue = [5, 0, 15]"] ;
140 -> 142 ;
143 [label="husjob <= 2.5\ngini = 0.305\nsamples = 16\nvalue = [3, 0, 13]"] ;
142 -> 143 ;
144 [label="gini = 0.0\nsamples = 5\nvalue = [0, 0, 5]"] ;
143 -> 144 ;
145 [label="wifeedu <= 1.5\ngini = 0.397\nsamples = 11\nvalue = [3, 0, 8]"] ;
143 -> 145 ;
146 [label="gini = 0.0\nsamples = 1\nvalue = [0, 0, 1]"] ;
145 -> 146 ;
147 [label="wifeage <= 29.5\ngini = 0.42\nsamples = 10\nvalue = [3, 0, 7]"] ;
145 -> 147 ;
148 [label="gini = 0.32\nsamples = 5\nvalue = [1, 0, 4]"] ;
147 -> 148 ;
149 [label="gini = 0.48\nsamples = 5\nvalue = [2, 0, 3]"] ;
147 -> 149 ;
150 [label="gini = 0.5\nsamples = 4\nvalue = [2, 0, 2]"] ;
142 -> 150 ;
151 [label="gini = 0.0\nsamples = 1\nvalue = [1, 0, 0]"] ;
129 -> 151 ;
152 [label="numchild <= 3.5\ngini = 0.569\nsamples = 12\nvalue = [6, 1, 5]"] ;
128 -> 152 ;
153 [label="gini = 0.0\nsamples = 5\nvalue = [0, 0, 5]"] ;
152 -> 153 ;
154 [label="gini = 0.245\nsamples = 7\nvalue = [6, 1, 0]"] ;
152 -> 154 ;
155 [label="wifeage <= 24.5\ngini = 0.465\nsamples = 112\nvalue = [22, 12, 78]"] ;
127 -> 155 ;
156 [label="living <= 3.5\ngini = 0.49\nsamples = 14\nvalue = [6, 0, 8]"] ;
155 -> 156 ;
157 [label="numchild <= 5.5\ngini = 0.397\nsamples = 11\nvalue = [3, 0, 8]"] ;
156 -> 157 ;
158 [label="wifeage <= 22.5\ngini = 0.32\nsamples = 10\nvalue = [2, 0, 8]"] ;
157 -> 158 ;
159 [label="gini = 0.0\nsamples = 3\nvalue = [0, 0, 3]"] ;
158 -> 159 ;
160 [label="gini = 0.408\nsamples = 7\nvalue = [2, 0, 5]"] ;
158 -> 160 ;
161 [label="gini = 0.0\nsamples = 1\nvalue = [1, 0, 0]"] ;
157 -> 161 ;
162 [label="gini = 0.0\nsamples = 3\nvalue = [3, 0, 0]"] ;
156 -> 162 ;
163 [label="religion <= 0.5\ngini = 0.448\nsamples = 98\nvalue = [16, 12, 70]"] ;
155 -> 163 ;
164 [label="gini = 0.5\nsamples = 6\nvalue = [3, 0, 3]"] ;
163 -> 164 ;
165 [label="numchild <= 5.5\ngini = 0.433\nsamples = 92\nvalue = [13, 12, 67]"] ;
163 -> 165 ;
166 [label="wifeedu <= 1.5\ngini = 0.397\nsamples = 78\nvalue = [11, 8, 59]"] ;
165 -> 166 ;
167 [label="gini = 0.0\nsamples = 8\nvalue = [0, 0, 8]"] ;
166 -> 167 ;
168 [label="media <= 0.5\ngini = 0.431\nsamples = 70\nvalue = [11, 8, 51]"] ;
166 -> 168 ;
169 [label="husedu <= 3.5\ngini = 0.418\nsamples = 69\nvalue = [11, 7, 51]"] ;
168 -> 169 ;
170 [label="living <= 3.5\ngini = 0.478\nsamples = 37\nvalue = [9, 3, 25]"] ;
169 -> 170 ;
171 [label="wifework <= 0.5\ngini = 0.364\nsamples = 18\nvalue = [3, 1, 14]"] ;
170 -> 171 ;
172 [label="gini = 0.5\nsamples = 2\nvalue = [0, 1, 1]"] ;
171 -> 172 ;
173 [label="husedu <= 2.5\ngini = 0.305\nsamples = 16\nvalue = [3, 0, 13]"] ;
171 -> 173 ;
174 [label="gini = 0.444\nsamples = 6\nvalue = [2, 0, 4]"] ;
173 -> 174 ;
175 [label="numchild <= 4.5\ngini = 0.18\nsamples = 10\nvalue = [1, 0, 9]"] ;
173 -> 175 ;
176 [label="gini = 0.0\nsamples = 8\nvalue = [0, 0, 8]"] ;
175 -> 176 ;
177 [label="gini = 0.5\nsamples = 2\nvalue = [1, 0, 1]"] ;
175 -> 177 ;
178 [label="wifeage <= 27.5\ngini = 0.554\nsamples = 19\nvalue = [6, 2, 11]"] ;
170 -> 178 ;
179 [label="gini = 0.625\nsamples = 8\nvalue = [4, 2, 2]"] ;
178 -> 179 ;
180 [label="wifework <= 0.5\ngini = 0.298\nsamples = 11\nvalue = [2, 0, 9]"] ;
178 -> 180 ;
181 [label="gini = 0.48\nsamples = 5\nvalue = [2, 0, 3]"] ;
180 -> 181 ;
182 [label="gini = 0.0\nsamples = 6\nvalue = [0, 0, 6]"] ;
180 -> 182 ;
183 [label="numchild <= 3.5\ngini = 0.32\nsamples = 32\nvalue = [2, 4, 26]"] ;
169 -> 183 ;
184 [label="husjob <= 2.5\ngini = 0.41\nsamples = 19\nvalue = [1, 4, 14]"] ;
183 -> 184 ;
185 [label="gini = 0.5\nsamples = 4\nvalue = [0, 2, 2]"] ;
184 -> 185 ;
186 [label="living <= 3.5\ngini = 0.338\nsamples = 15\nvalue = [1, 2, 12]"] ;
184 -> 186 ;
187 [label="gini = 0.0\nsamples = 5\nvalue = [0, 0, 5]"] ;
186 -> 187 ;
188 [label="wifeage <= 25.5\ngini = 0.46\nsamples = 10\nvalue = [1, 2, 7]"] ;
186 -> 188 ;
189 [label="gini = 0.0\nsamples = 2\nvalue = [0, 0, 2]"] ;
188 -> 189 ;
190 [label="gini = 0.531\nsamples = 8\nvalue = [1, 2, 5]"] ;
188 -> 190 ;
191 [label="wifeage <= 31.5\ngini = 0.142\nsamples = 13\nvalue = [1, 0, 12]"] ;
183 -> 191 ;
192 [label="gini = 0.0\nsamples = 11\nvalue = [0, 0, 11]"] ;
191 -> 192 ;
193 [label="gini = 0.5\nsamples = 2\nvalue = [1, 0, 1]"] ;
191 -> 193 ;
194 [label="gini = 0.0\nsamples = 1\nvalue = [0, 1, 0]"] ;
168 -> 194 ;
195 [label="wifeedu <= 1.5\ngini = 0.571\nsamples = 14\nvalue = [2, 4, 8]"] ;
165 -> 195 ;
196 [label="gini = 0.0\nsamples = 1\nvalue = [1, 0, 0]"] ;
195 -> 196 ;
197 [label="living <= 3.5\ngini = 0.521\nsamples = 13\nvalue = [1, 4, 8]"] ;
195 -> 197 ;
198 [label="gini = 0.406\nsamples = 8\nvalue = [1, 1, 6]"] ;
197 -> 198 ;
199 [label="gini = 0.48\nsamples = 5\nvalue = [0, 3, 2]"] ;
197 -> 199 ;
200 [label="wifeage <= 33.5\ngini = 0.641\nsamples = 105\nvalue = [32, 25, 48]"] ;
122 -> 200 ;
201 [label="religion <= 0.5\ngini = 0.571\nsamples = 23\nvalue = [3, 7, 13]"] ;
200 -> 201 ;
202 [label="gini = 0.444\nsamples = 3\nvalue = [1, 2, 0]"] ;
201 -> 202 ;
203 [label="husedu <= 3.5\ngini = 0.505\nsamples = 20\nvalue = [2, 5, 13]"] ;
201 -> 203 ;
204 [label="numchild <= 6.5\ngini = 0.602\nsamples = 14\nvalue = [2, 5, 7]"] ;
203 -> 204 ;
205 [label="numchild <= 4.5\ngini = 0.628\nsamples = 11\nvalue = [2, 5, 4]"] ;
204 -> 205 ;
206 [label="gini = 0.5\nsamples = 6\nvalue = [1, 1, 4]"] ;
205 -> 206 ;
207 [label="gini = 0.32\nsamples = 5\nvalue = [1, 4, 0]"] ;
205 -> 207 ;
208 [label="gini = 0.0\nsamples = 3\nvalue = [0, 0, 3]"] ;
204 -> 208 ;
209 [label="gini = 0.0\nsamples = 6\nvalue = [0, 0, 6]"] ;
203 -> 209 ;
210 [label="wifeedu <= 2.5\ngini = 0.645\nsamples = 82\nvalue = [29, 18, 35]"] ;
200 -> 210 ;
211 [label="numchild <= 7.5\ngini = 0.604\nsamples = 54\nvalue = [17, 9, 28]"] ;
210 -> 211 ;
212 [label="wifework <= 0.5\ngini = 0.571\nsamples = 47\nvalue = [13, 7, 27]"] ;
211 -> 212 ;
213 [label="wifeage <= 34.5\ngini = 0.604\nsamples = 15\nvalue = [7, 2, 6]"] ;
212 -> 213 ;
214 [label="gini = 0.0\nsamples = 4\nvalue = [4, 0, 0]"] ;
213 -> 214 ;
215 [label="numchild <= 3.5\ngini = 0.595\nsamples = 11\nvalue = [3, 2, 6]"] ;
213 -> 215 ;
216 [label="gini = 0.0\nsamples = 1\nvalue = [0, 1, 0]"] ;
215 -> 216 ;
217 [label="religion <= 0.5\ngini = 0.54\nsamples = 10\nvalue = [3, 1, 6]"] ;
215 -> 217 ;
218 [label="gini = 0.0\nsamples = 1\nvalue = [1, 0, 0]"] ;
217 -> 218 ;
219 [label="gini = 0.494\nsamples = 9\nvalue = [2, 1, 6]"] ;
217 -> 219 ;
220 [label="wifeage <= 35.5\ngini = 0.51\nsamples = 32\nvalue = [6, 5, 21]"] ;
212 -> 220 ;
221 [label="living <= 3.5\ngini = 0.32\nsamples = 15\nvalue = [0, 3, 12]"] ;
220 -> 221 ;
222 [label="religion <= 0.5\ngini = 0.165\nsamples = 11\nvalue = [0, 1, 10]"] ;
221 -> 222 ;
223 [label="gini = 0.444\nsamples = 3\nvalue = [0, 1, 2]"] ;
222 -> 223 ;
224 [label="gini = 0.0\nsamples = 8\nvalue = [0, 0, 8]"] ;
222 -> 224 ;
225 [label="gini = 0.5\nsamples = 4\nvalue = [0, 2, 2]"] ;
221 -> 225 ;
226 [label="husjob <= 2.5\ngini = 0.581\nsamples = 17\nvalue = [6, 2, 9]"] ;
220 -> 226 ;
227 [label="gini = 0.531\nsamples = 8\nvalue = [5, 1, 2]"] ;
226 -> 227 ;
228 [label="gini = 0.37\nsamples = 9\nvalue = [1, 1, 7]"] ;
226 -> 228 ;
229 [label="gini = 0.571\nsamples = 7\nvalue = [4, 2, 1]"] ;
211 -> 229 ;
230 [label="living <= 3.5\ngini = 0.651\nsamples = 28\nvalue = [12, 9, 7]"] ;
210 -> 230 ;
231 [label="wifework <= 0.5\ngini = 0.539\nsamples = 16\nvalue = [9, 6, 1]"] ;
230 -> 231 ;
232 [label="gini = 0.0\nsamples = 4\nvalue = [4, 0, 0]"] ;
231 -> 232 ;
233 [label="wifeage <= 36.5\ngini = 0.569\nsamples = 12\nvalue = [5, 6, 1]"] ;
231 -> 233 ;
234 [label="gini = 0.444\nsamples = 9\nvalue = [3, 6, 0]"] ;
233 -> 234 ;
235 [label="gini = 0.444\nsamples = 3\nvalue = [2, 0, 1]"] ;
233 -> 235 ;
236 [label="numchild <= 8.0\ngini = 0.625\nsamples = 12\nvalue = [3, 3, 6]"] ;
230 -> 236 ;
237 [label="wifeage <= 36.5\ngini = 0.66\nsamples = 10\nvalue = [3, 3, 4]"] ;
236 -> 237 ;
238 [label="gini = 0.56\nsamples = 5\nvalue = [1, 3, 1]"] ;
237 -> 238 ;
239 [label="gini = 0.48\nsamples = 5\nvalue = [2, 0, 3]"] ;
237 -> 239 ;
240 [label="gini = 0.0\nsamples = 2\nvalue = [0, 0, 2]"] ;
236 -> 240 ;
241 [label="numchild <= 2.5\ngini = 0.652\nsamples = 369\nvalue = [90, 126, 153]"] ;
7 -> 241 ;
242 [label="husjob <= 1.5\ngini = 0.657\nsamples = 211\nvalue = [63, 61, 87]"] ;
241 -> 242 ;
243 [label="wifeage <= 32.5\ngini = 0.666\nsamples = 107\nvalue = [37, 37, 33]"] ;
242 -> 243 ;
244 [label="wifeage <= 20.5\ngini = 0.661\nsamples = 86\nvalue = [27, 34, 25]"] ;
243 -> 244 ;
245 [label="gini = 0.48\nsamples = 5\nvalue = [2, 0, 3]"] ;
244 -> 245 ;
246 [label="wifeage <= 23.5\ngini = 0.655\nsamples = 81\nvalue = [25, 34, 22]"] ;
244 -> 246 ;
247 [label="numchild <= 1.5\ngini = 0.397\nsamples = 11\nvalue = [3, 8, 0]"] ;
246 -> 247 ;
248 [label="gini = 0.198\nsamples = 9\nvalue = [1, 8, 0]"] ;
247 -> 248 ;
249 [label="gini = 0.0\nsamples = 2\nvalue = [2, 0, 0]"] ;
247 -> 249 ;
250 [label="numchild <= 1.5\ngini = 0.664\nsamples = 70\nvalue = [22, 26, 22]"] ;
246 -> 250 ;
251 [label="wifeage <= 25.5\ngini = 0.649\nsamples = 37\nvalue = [16, 9, 12]"] ;
250 -> 251 ;
252 [label="living <= 3.5\ngini = 0.631\nsamples = 15\nvalue = [3, 5, 7]"] ;
251 -> 252 ;
253 [label="gini = 0.5\nsamples = 4\nvalue = [2, 0, 2]"] ;
252 -> 253 ;
254 [label="religion <= 0.5\ngini = 0.579\nsamples = 11\nvalue = [1, 5, 5]"] ;
252 -> 254 ;
255 [label="gini = 0.0\nsamples = 1\nvalue = [0, 0, 1]"] ;
254 -> 255 ;
256 [label="wifeage <= 24.5\ngini = 0.58\nsamples = 10\nvalue = [1, 5, 4]"] ;
254 -> 256 ;
257 [label="gini = 0.48\nsamples = 5\nvalue = [0, 3, 2]"] ;
256 -> 257 ;
258 [label="gini = 0.64\nsamples = 5\nvalue = [1, 2, 2]"] ;
256 -> 258 ;
259 [label="wifeage <= 26.5\ngini = 0.566\nsamples = 22\nvalue = [13, 4, 5]"] ;
251 -> 259 ;
260 [label="gini = 0.278\nsamples = 6\nvalue = [5, 1, 0]"] ;
259 -> 260 ;
261 [label="wifeage <= 31.5\ngini = 0.617\nsamples = 16\nvalue = [8, 3, 5]"] ;
259 -> 261 ;
262 [label="living <= 3.5\ngini = 0.651\nsamples = 13\nvalue = [5, 3, 5]"] ;
261 -> 262 ;
263 [label="gini = 0.444\nsamples = 6\nvalue = [4, 0, 2]"] ;
262 -> 263 ;
264 [label="gini = 0.612\nsamples = 7\nvalue = [1, 3, 3]"] ;
262 -> 264 ;
265 [label="gini = 0.0\nsamples = 3\nvalue = [3, 0, 0]"] ;
261 -> 265 ;
266 [label="wifework <= 0.5\ngini = 0.61\nsamples = 33\nvalue = [6, 17, 10]"] ;
250 -> 266 ;
267 [label="wifeage <= 31.0\ngini = 0.462\nsamples = 13\nvalue = [1, 9, 3]"] ;
266 -> 267 ;
268 [label="gini = 0.37\nsamples = 9\nvalue = [1, 7, 1]"] ;
267 -> 268 ;
269 [label="gini = 0.5\nsamples = 4\nvalue = [0, 2, 2]"] ;
267 -> 269 ;
270 [label="religion <= 0.5\ngini = 0.655\nsamples = 20\nvalue = [5, 8, 7]"] ;
266 -> 270 ;
271 [label="gini = 0.32\nsamples = 5\nvalue = [0, 4, 1]"] ;
270 -> 271 ;
272 [label="wifeage <= 25.5\ngini = 0.658\nsamples = 15\nvalue = [5, 4, 6]"] ;
270 -> 272 ;
273 [label="gini = 0.0\nsamples = 3\nvalue = [0, 0, 3]"] ;
272 -> 273 ;
274 [label="living <= 3.5\ngini = 0.653\nsamples = 12\nvalue = [5, 4, 3]"] ;
272 -> 274 ;
275 [label="gini = 0.48\nsamples = 5\nvalue = [3, 2, 0]"] ;
274 -> 275 ;
276 [label="gini = 0.653\nsamples = 7\nvalue = [2, 2, 3]"] ;
274 -> 276 ;
277 [label="wifework <= 0.5\ngini = 0.608\nsamples = 21\nvalue = [10, 3, 8]"] ;
243 -> 277 ;
278 [label="gini = 0.625\nsamples = 8\nvalue = [2, 2, 4]"] ;
277 -> 278 ;
279 [label="wifeage <= 33.5\ngini = 0.521\nsamples = 13\nvalue = [8, 1, 4]"] ;
277 -> 279 ;
280 [label="gini = 0.0\nsamples = 3\nvalue = [3, 0, 0]"] ;
279 -> 280 ;
281 [label="wifeage <= 34.5\ngini = 0.58\nsamples = 10\nvalue = [5, 1, 4]"] ;
279 -> 281 ;
282 [label="gini = 0.625\nsamples = 4\nvalue = [1, 1, 2]"] ;
281 -> 282 ;
283 [label="gini = 0.444\nsamples = 6\nvalue = [4, 0, 2]"] ;
281 -> 283 ;
284 [label="husedu <= 3.5\ngini = 0.615\nsamples = 104\nvalue = [26, 24, 54]"] ;
242 -> 284 ;
285 [label="gini = 0.0\nsamples = 7\nvalue = [0, 0, 7]"] ;
284 -> 285 ;
286 [label="wifeage <= 22.5\ngini = 0.632\nsamples = 97\nvalue = [26, 24, 47]"] ;
284 -> 286 ;
287 [label="wifeage <= 18.0\ngini = 0.46\nsamples = 20\nvalue = [2, 4, 14]"] ;
286 -> 287 ;
288 [label="gini = 0.0\nsamples = 1\nvalue = [0, 1, 0]"] ;
287 -> 288 ;
289 [label="husjob <= 2.5\ngini = 0.421\nsamples = 19\nvalue = [2, 3, 14]"] ;
287 -> 289 ;
290 [label="living <= 2.5\ngini = 0.397\nsamples = 11\nvalue = [0, 3, 8]"] ;
289 -> 290 ;
291 [label="gini = 0.0\nsamples = 2\nvalue = [0, 2, 0]"] ;
290 -> 291 ;
292 [label="gini = 0.198\nsamples = 9\nvalue = [0, 1, 8]"] ;
290 -> 292 ;
293 [label="gini = 0.375\nsamples = 8\nvalue = [2, 0, 6]"] ;
289 -> 293 ;
294 [label="numchild <= 1.5\ngini = 0.652\nsamples = 77\nvalue = [24, 20, 33]"] ;
286 -> 294 ;
295 [label="wifeage <= 31.5\ngini = 0.665\nsamples = 36\nvalue = [13, 12, 11]"] ;
294 -> 295 ;
296 [label="wifeage <= 25.5\ngini = 0.666\nsamples = 34\nvalue = [11, 12, 11]"] ;
295 -> 296 ;
297 [label="wifeage <= 24.5\ngini = 0.623\nsamples = 18\nvalue = [8, 7, 3]"] ;
296 -> 297 ;
298 [label="living <= 3.5\ngini = 0.602\nsamples = 14\nvalue = [5, 7, 2]"] ;
297 -> 298 ;
299 [label="gini = 0.642\nsamples = 9\nvalue = [4, 3, 2]"] ;
298 -> 299 ;
300 [label="gini = 0.32\nsamples = 5\nvalue = [1, 4, 0]"] ;
298 -> 300 ;
301 [label="gini = 0.375\nsamples = 4\nvalue = [3, 0, 1]"] ;
297 -> 301 ;
302 [label="religion <= 0.5\ngini = 0.617\nsamples = 16\nvalue = [3, 5, 8]"] ;
296 -> 302 ;
303 [label="gini = 0.656\nsamples = 8\nvalue = [3, 2, 3]"] ;
302 -> 303 ;
304 [label="gini = 0.469\nsamples = 8\nvalue = [0, 3, 5]"] ;
302 -> 304 ;
305 [label="gini = 0.0\nsamples = 2\nvalue = [2, 0, 0]"] ;
295 -> 305 ;
306 [label="wifeage <= 34.5\ngini = 0.602\nsamples = 41\nvalue = [11, 8, 22]"] ;
294 -> 306 ;
307 [label="living <= 2.5\ngini = 0.545\nsamples = 34\nvalue = [7, 6, 21]"] ;
306 -> 307 ;
308 [label="gini = 0.56\nsamples = 5\nvalue = [3, 1, 1]"] ;
307 -> 308 ;
309 [label="wifeage <= 24.5\ngini = 0.476\nsamples = 29\nvalue = [4, 5, 20]"] ;
307 -> 309 ;
310 [label="gini = 0.594\nsamples = 8\nvalue = [3, 1, 4]"] ;
309 -> 310 ;
311 [label="living <= 3.5\ngini = 0.381\nsamples = 21\nvalue = [1, 4, 16]"] ;
309 -> 311 ;
312 [label="gini = 0.219\nsamples = 8\nvalue = [1, 0, 7]"] ;
311 -> 312 ;
313 [label="wifeage <= 32.5\ngini = 0.426\nsamples = 13\nvalue = [0, 4, 9]"] ;
311 -> 313 ;
314 [label="wifeage <= 28.5\ngini = 0.48\nsamples = 10\nvalue = [0, 4, 6]"] ;
313 -> 314 ;
315 [label="gini = 0.32\nsamples = 5\nvalue = [0, 1, 4]"] ;
314 -> 315 ;
316 [label="gini = 0.48\nsamples = 5\nvalue = [0, 3, 2]"] ;
314 -> 316 ;
317 [label="gini = 0.0\nsamples = 3\nvalue = [0, 0, 3]"] ;
313 -> 317 ;
318 [label="gini = 0.571\nsamples = 7\nvalue = [4, 2, 1]"] ;
306 -> 318 ;
319 [label="wifeage <= 28.5\ngini = 0.627\nsamples = 158\nvalue = [27, 65, 66]"] ;
241 -> 319 ;
320 [label="husjob <= 2.5\ngini = 0.595\nsamples = 29\nvalue = [10, 4, 15]"] ;
319 -> 320 ;
321 [label="media <= 0.5\ngini = 0.586\nsamples = 16\nvalue = [9, 3, 4]"] ;
320 -> 321 ;
322 [label="husjob <= 1.5\ngini = 0.56\nsamples = 15\nvalue = [9, 3, 3]"] ;
321 -> 322 ;
323 [label="living <= 3.5\ngini = 0.512\nsamples = 11\nvalue = [7, 3, 1]"] ;
322 -> 323 ;
324 [label="gini = 0.444\nsamples = 3\nvalue = [1, 2, 0]"] ;
323 -> 324 ;
325 [label="gini = 0.406\nsamples = 8\nvalue = [6, 1, 1]"] ;
323 -> 325 ;
326 [label="gini = 0.5\nsamples = 4\nvalue = [2, 0, 2]"] ;
322 -> 326 ;
327 [label="gini = 0.0\nsamples = 1\nvalue = [0, 0, 1]"] ;
321 -> 327 ;
328 [label="numchild <= 4.5\ngini = 0.272\nsamples = 13\nvalue = [1, 1, 11]"] ;
320 -> 328 ;
329 [label="husedu <= 3.5\ngini = 0.153\nsamples = 12\nvalue = [0, 1, 11]"] ;
328 -> 329 ;
330 [label="gini = 0.5\nsamples = 2\nvalue = [0, 1, 1]"] ;
329 -> 330 ;
331 [label="gini = 0.0\nsamples = 10\nvalue = [0, 0, 10]"] ;
329 -> 331 ;
332 [label="gini = 0.0\nsamples = 1\nvalue = [1, 0, 0]"] ;
328 -> 332 ;
333 [label="living <= 3.5\ngini = 0.603\nsamples = 129\nvalue = [17, 61, 51]"] ;
319 -> 333 ;
334 [label="wifework <= 0.5\ngini = 0.617\nsamples = 33\nvalue = [8, 17, 8]"] ;
333 -> 334 ;
335 [label="gini = 0.494\nsamples = 9\nvalue = [5, 4, 0]"] ;
334 -> 335 ;
336 [label="numchild <= 3.5\ngini = 0.58\nsamples = 24\nvalue = [3, 13, 8]"] ;
334 -> 336 ;
337 [label="gini = 0.219\nsamples = 8\nvalue = [1, 7, 0]"] ;
336 -> 337 ;
338 [label="wifeage <= 35.5\ngini = 0.594\nsamples = 16\nvalue = [2, 6, 8]"] ;
336 -> 338 ;
339 [label="numchild <= 4.5\ngini = 0.615\nsamples = 13\nvalue = [2, 6, 5]"] ;
338 -> 339 ;
340 [label="wifeage <= 33.5\ngini = 0.54\nsamples = 10\nvalue = [1, 6, 3]"] ;
339 -> 340 ;
341 [label="gini = 0.49\nsamples = 7\nvalue = [0, 4, 3]"] ;
340 -> 341 ;
342 [label="gini = 0.444\nsamples = 3\nvalue = [1, 2, 0]"] ;
340 -> 342 ;
343 [label="gini = 0.444\nsamples = 3\nvalue = [1, 0, 2]"] ;
339 -> 343 ;
344 [label="gini = 0.0\nsamples = 3\nvalue = [0, 0, 3]"] ;
338 -> 344 ;
345 [label="wifeage <= 32.5\ngini = 0.581\nsamples = 96\nvalue = [9, 44, 43]"] ;
333 -> 345 ;
346 [label="husjob <= 1.5\ngini = 0.506\nsamples = 26\nvalue = [3, 6, 17]"] ;
345 -> 346 ;
347 [label="wifework <= 0.5\ngini = 0.338\nsamples = 15\nvalue = [1, 2, 12]"] ;
346 -> 347 ;
348 [label="gini = 0.0\nsamples = 7\nvalue = [0, 0, 7]"] ;
347 -> 348 ;
349 [label="gini = 0.531\nsamples = 8\nvalue = [1, 2, 5]"] ;
347 -> 349 ;
350 [label="wifeage <= 30.5\ngini = 0.628\nsamples = 11\nvalue = [2, 4, 5]"] ;
346 -> 350 ;
351 [label="gini = 0.5\nsamples = 4\nvalue = [2, 0, 2]"] ;
350 -> 351 ;
352 [label="gini = 0.49\nsamples = 7\nvalue = [0, 4, 3]"] ;
350 -> 352 ;
353 [label="religion <= 0.5\ngini = 0.56\nsamples = 70\nvalue = [6, 38, 26]"] ;
345 -> 353 ;
354 [label="numchild <= 3.5\ngini = 0.541\nsamples = 22\nvalue = [1, 10, 11]"] ;
353 -> 354 ;
355 [label="husjob <= 1.5\ngini = 0.521\nsamples = 13\nvalue = [1, 4, 8]"] ;
354 -> 355 ;
356 [label="gini = 0.0\nsamples = 1\nvalue = [1, 0, 0]"] ;
355 -> 356 ;
357 [label="husedu <= 3.5\ngini = 0.444\nsamples = 12\nvalue = [0, 4, 8]"] ;
355 -> 357 ;
358 [label="gini = 0.0\nsamples = 1\nvalue = [0, 0, 1]"] ;
357 -> 358 ;
359 [label="wifeage <= 35.5\ngini = 0.463\nsamples = 11\nvalue = [0, 4, 7]"] ;
357 -> 359 ;
360 [label="gini = 0.5\nsamples = 4\nvalue = [0, 2, 2]"] ;
359 -> 360 ;
361 [label="gini = 0.408\nsamples = 7\nvalue = [0, 2, 5]"] ;
359 -> 361 ;
362 [label="gini = 0.444\nsamples = 9\nvalue = [0, 6, 3]"] ;
354 -> 362 ;
363 [label="husjob <= 2.5\ngini = 0.551\nsamples = 48\nvalue = [5, 28, 15]"] ;
353 -> 363 ;
364 [label="numchild <= 6.5\ngini = 0.565\nsamples = 40\nvalue = [4, 22, 14]"] ;
363 -> 364 ;
365 [label="numchild <= 5.5\ngini = 0.576\nsamples = 38\nvalue = [4, 20, 14]"] ;
364 -> 365 ;
366 [label="numchild <= 4.5\ngini = 0.568\nsamples = 36\nvalue = [4, 20, 12]"] ;
365 -> 366 ;
367 [label="husjob <= 1.5\ngini = 0.578\nsamples = 29\nvalue = [3, 15, 11]"] ;
366 -> 367 ;
368 [label="wifeage <= 36.5\ngini = 0.58\nsamples = 24\nvalue = [3, 13, 8]"] ;
367 -> 368 ;
369 [label="wifework <= 0.5\ngini = 0.615\nsamples = 19\nvalue = [3, 9, 7]"] ;
368 -> 369 ;
370 [label="gini = 0.0\nsamples = 1\nvalue = [0, 1, 0]"] ;
369 -> 370 ;
371 [label="numchild <= 3.5\ngini = 0.623\nsamples = 18\nvalue = [3, 8, 7]"] ;
369 -> 371 ;
372 [label="wifeage <= 35.5\ngini = 0.611\nsamples = 12\nvalue = [2, 6, 4]"] ;
371 -> 372 ;
373 [label="gini = 0.656\nsamples = 8\nvalue = [2, 3, 3]"] ;
372 -> 373 ;
374 [label="gini = 0.375\nsamples = 4\nvalue = [0, 3, 1]"] ;
372 -> 374 ;
375 [label="gini = 0.611\nsamples = 6\nvalue = [1, 2, 3]"] ;
371 -> 375 ;
376 [label="gini = 0.32\nsamples = 5\nvalue = [0, 4, 1]"] ;
368 -> 376 ;
377 [label="gini = 0.48\nsamples = 5\nvalue = [0, 2, 3]"] ;
367 -> 377 ;
378 [label="gini = 0.449\nsamples = 7\nvalue = [1, 5, 1]"] ;
366 -> 378 ;
379 [label="gini = 0.0\nsamples = 2\nvalue = [0, 0, 2]"] ;
365 -> 379 ;
380 [label="gini = 0.0\nsamples = 2\nvalue = [0, 2, 0]"] ;
364 -> 380 ;
381 [label="gini = 0.406\nsamples = 8\nvalue = [1, 6, 1]"] ;
363 -> 381 ;
382 [label="wifeedu <= 3.5\ngini = 0.602\nsamples = 408\nvalue = [217, 116, 75]"] ;
6 -> 382 ;
383 [label="husedu <= 2.5\ngini = 0.452\nsamples = 236\nvalue = [168, 35, 33]"] ;
382 -> 383 ;
384 [label="living <= 3.5\ngini = 0.232\nsamples = 78\nvalue = [68, 5, 5]"] ;
383 -> 384 ;
385 [label="numchild <= 8.5\ngini = 0.135\nsamples = 56\nvalue = [52, 3, 1]"] ;
384 -> 385 ;
386 [label="wifeage <= 38.5\ngini = 0.081\nsamples = 48\nvalue = [46, 1, 1]"] ;
385 -> 386 ;
387 [label="gini = 0.375\nsamples = 4\nvalue = [3, 1, 0]"] ;
386 -> 387 ;
388 [label="wifeage <= 41.5\ngini = 0.044\nsamples = 44\nvalue = [43, 0, 1]"] ;
386 -> 388 ;
389 [label="wifeage <= 40.5\ngini = 0.165\nsamples = 11\nvalue = [10, 0, 1]"] ;
388 -> 389 ;
390 [label="gini = 0.0\nsamples = 9\nvalue = [9, 0, 0]"] ;
389 -> 390 ;
391 [label="gini = 0.5\nsamples = 2\nvalue = [1, 0, 1]"] ;
389 -> 391 ;
392 [label="gini = 0.0\nsamples = 33\nvalue = [33, 0, 0]"] ;
388 -> 392 ;
393 [label="gini = 0.375\nsamples = 8\nvalue = [6, 2, 0]"] ;
385 -> 393 ;
394 [label="wifework <= 0.5\ngini = 0.43\nsamples = 22\nvalue = [16, 2, 4]"] ;
384 -> 394 ;
395 [label="gini = 0.48\nsamples = 5\nvalue = [2, 0, 3]"] ;
394 -> 395 ;
396 [label="numchild <= 6.5\ngini = 0.304\nsamples = 17\nvalue = [14, 2, 1]"] ;
394 -> 396 ;
397 [label="numchild <= 4.0\ngini = 0.153\nsamples = 12\nvalue = [11, 0, 1]"] ;
396 -> 397 ;
398 [label="gini = 0.0\nsamples = 7\nvalue = [7, 0, 0]"] ;
397 -> 398 ;
399 [label="gini = 0.32\nsamples = 5\nvalue = [4, 0, 1]"] ;
397 -> 399 ;
400 [label="gini = 0.48\nsamples = 5\nvalue = [3, 2, 0]"] ;
396 -> 400 ;
401 [label="media <= 0.5\ngini = 0.532\nsamples = 158\nvalue = [100, 30, 28]"] ;
383 -> 401 ;
402 [label="wifework <= 0.5\ngini = 0.563\nsamples = 141\nvalue = [84, 29, 28]"] ;
401 -> 402 ;
403 [label="living <= 3.5\ngini = 0.59\nsamples = 27\nvalue = [13, 3, 11]"] ;
402 -> 403 ;
404 [label="wifeage <= 46.0\ngini = 0.473\nsamples = 13\nvalue = [9, 2, 2]"] ;
403 -> 404 ;
405 [label="wifeedu <= 2.5\ngini = 0.314\nsamples = 11\nvalue = [9, 1, 1]"] ;
404 -> 405 ;
406 [label="gini = 0.0\nsamples = 6\nvalue = [6, 0, 0]"] ;
405 -> 406 ;
407 [label="gini = 0.56\nsamples = 5\nvalue = [3, 1, 1]"] ;
405 -> 407 ;
408 [label="gini = 0.5\nsamples = 2\nvalue = [0, 1, 1]"] ;
404 -> 408 ;
409 [label="numchild <= 4.5\ngini = 0.5\nsamples = 14\nvalue = [4, 1, 9]"] ;
403 -> 409 ;
410 [label="gini = 0.593\nsamples = 9\nvalue = [4, 1, 4]"] ;
409 -> 410 ;
411 [label="gini = 0.0\nsamples = 5\nvalue = [0, 0, 5]"] ;
409 -> 411 ;
412 [label="wifeage <= 46.5\ngini = 0.538\nsamples = 114\nvalue = [71, 26, 17]"] ;
402 -> 412 ;
413 [label="numchild <= 9.5\ngini = 0.592\nsamples = 89\nvalue = [49, 24, 16]"] ;
412 -> 413 ;
414 [label="numchild <= 3.5\ngini = 0.611\nsamples = 81\nvalue = [42, 23, 16]"] ;
413 -> 414 ;
415 [label="wifeedu <= 1.5\ngini = 0.527\nsamples = 30\nvalue = [19, 4, 7]"] ;
414 -> 415 ;
416 [label="gini = 0.5\nsamples = 2\nvalue = [0, 1, 1]"] ;
415 -> 416 ;
417 [label="wifeage <= 38.5\ngini = 0.482\nsamples = 28\nvalue = [19, 3, 6]"] ;
415 -> 417 ;
418 [label="gini = 0.5\nsamples = 6\nvalue = [3, 0, 3]"] ;
417 -> 418 ;
419 [label="religion <= 0.5\ngini = 0.434\nsamples = 22\nvalue = [16, 3, 3]"] ;
417 -> 419 ;
420 [label="wifeage <= 39.5\ngini = 0.544\nsamples = 13\nvalue = [8, 3, 2]"] ;
419 -> 420 ;
421 [label="gini = 0.0\nsamples = 2\nvalue = [2, 0, 0]"] ;
420 -> 421 ;
422 [label="husjob <= 2.5\ngini = 0.595\nsamples = 11\nvalue = [6, 3, 2]"] ;
420 -> 422 ;
423 [label="gini = 0.48\nsamples = 5\nvalue = [3, 2, 0]"] ;
422 -> 423 ;
424 [label="gini = 0.611\nsamples = 6\nvalue = [3, 1, 2]"] ;
422 -> 424 ;
425 [label="gini = 0.198\nsamples = 9\nvalue = [8, 0, 1]"] ;
419 -> 425 ;
426 [label="religion <= 0.5\ngini = 0.627\nsamples = 51\nvalue = [23, 19, 9]"] ;
414 -> 426 ;
427 [label="gini = 0.449\nsamples = 7\nvalue = [1, 5, 1]"] ;
426 -> 427 ;
428 [label="husjob <= 1.5\ngini = 0.616\nsamples = 44\nvalue = [22, 14, 8]"] ;
426 -> 428 ;
429 [label="husedu <= 3.5\ngini = 0.631\nsamples = 15\nvalue = [5, 7, 3]"] ;
428 -> 429 ;
430 [label="gini = 0.449\nsamples = 7\nvalue = [1, 5, 1]"] ;
429 -> 430 ;
431 [label="gini = 0.625\nsamples = 8\nvalue = [4, 2, 2]"] ;
429 -> 431 ;
432 [label="numchild <= 8.5\ngini = 0.568\nsamples = 29\nvalue = [17, 7, 5]"] ;
428 -> 432 ;
433 [label="wifeage <= 43.5\ngini = 0.524\nsamples = 27\nvalue = [17, 7, 3]"] ;
432 -> 433 ;
434 [label="living <= 3.5\ngini = 0.465\nsamples = 20\nvalue = [14, 3, 3]"] ;
433 -> 434 ;
435 [label="numchild <= 7.5\ngini = 0.26\nsamples = 13\nvalue = [11, 0, 2]"] ;
434 -> 435 ;
436 [label="gini = 0.346\nsamples = 9\nvalue = [7, 0, 2]"] ;
435 -> 436 ;
437 [label="gini = 0.0\nsamples = 4\nvalue = [4, 0, 0]"] ;
435 -> 437 ;
438 [label="gini = 0.612\nsamples = 7\nvalue = [3, 3, 1]"] ;
434 -> 438 ;
439 [label="gini = 0.49\nsamples = 7\nvalue = [3, 4, 0]"] ;
433 -> 439 ;
440 [label="gini = 0.0\nsamples = 2\nvalue = [0, 0, 2]"] ;
432 -> 440 ;
441 [label="gini = 0.219\nsamples = 8\nvalue = [7, 1, 0]"] ;
413 -> 441 ;
442 [label="wifeage <= 48.5\ngini = 0.218\nsamples = 25\nvalue = [22, 2, 1]"] ;
412 -> 442 ;
443 [label="numchild <= 3.5\ngini = 0.111\nsamples = 17\nvalue = [16, 0, 1]"] ;
442 -> 443 ;
444 [label="gini = 0.32\nsamples = 5\nvalue = [4, 0, 1]"] ;
443 -> 444 ;
445 [label="gini = 0.0\nsamples = 12\nvalue = [12, 0, 0]"] ;
443 -> 445 ;
446 [label="gini = 0.375\nsamples = 8\nvalue = [6, 2, 0]"] ;
442 -> 446 ;
447 [label="wifeedu <= 2.5\ngini = 0.111\nsamples = 17\nvalue = [16, 1, 0]"] ;
401 -> 447 ;
448 [label="gini = 0.0\nsamples = 13\nvalue = [13, 0, 0]"] ;
447 -> 448 ;
449 [label="gini = 0.375\nsamples = 4\nvalue = [3, 1, 0]"] ;
447 -> 449 ;
450 [label="numchild <= 1.5\ngini = 0.637\nsamples = 172\nvalue = [49, 81, 42]"] ;
382 -> 450 ;
451 [label="husedu <= 3.5\ngini = 0.188\nsamples = 19\nvalue = [17, 0, 2]"] ;
450 -> 451 ;
452 [label="gini = 0.0\nsamples = 1\nvalue = [0, 0, 1]"] ;
451 -> 452 ;
453 [label="husjob <= 2.5\ngini = 0.105\nsamples = 18\nvalue = [17, 0, 1]"] ;
451 -> 453 ;
454 [label="gini = 0.0\nsamples = 15\nvalue = [15, 0, 0]"] ;
453 -> 454 ;
455 [label="gini = 0.444\nsamples = 3\nvalue = [2, 0, 1]"] ;
453 -> 455 ;
456 [label="wifeage <= 48.5\ngini = 0.608\nsamples = 153\nvalue = [32, 81, 40]"] ;
450 -> 456 ;
457 [label="numchild <= 2.5\ngini = 0.591\nsamples = 145\nvalue = [26, 80, 39]"] ;
456 -> 457 ;
458 [label="wifeage <= 39.5\ngini = 0.615\nsamples = 13\nvalue = [5, 2, 6]"] ;
457 -> 458 ;
459 [label="gini = 0.5\nsamples = 6\nvalue = [1, 1, 4]"] ;
458 -> 459 ;
460 [label="gini = 0.571\nsamples = 7\nvalue = [4, 1, 2]"] ;
458 -> 460 ;
461 [label="wifeage <= 42.5\ngini = 0.563\nsamples = 132\nvalue = [21, 78, 33]"] ;
457 -> 461 ;
462 [label="husedu <= 3.5\ngini = 0.461\nsamples = 67\nvalue = [4, 46, 17]"] ;
461 -> 462 ;
463 [label="gini = 0.375\nsamples = 4\nvalue = [0, 1, 3]"] ;
462 -> 463 ;
464 [label="media <= 0.5\ngini = 0.436\nsamples = 63\nvalue = [4, 45, 14]"] ;
462 -> 464 ;
465 [label="numchild <= 3.5\ngini = 0.425\nsamples = 62\nvalue = [4, 45, 13]"] ;
464 -> 465 ;
466 [label="husjob <= 2.5\ngini = 0.549\nsamples = 18\nvalue = [4, 11, 3]"] ;
465 -> 466 ;
467 [label="wifeage <= 41.5\ngini = 0.477\nsamples = 16\nvalue = [2, 11, 3]"] ;
466 -> 467 ;
468 [label="religion <= 0.5\ngini = 0.298\nsamples = 11\nvalue = [0, 9, 2]"] ;
467 -> 468 ;
469 [label="gini = 0.0\nsamples = 4\nvalue = [0, 4, 0]"] ;
468 -> 469 ;
470 [label="gini = 0.408\nsamples = 7\nvalue = [0, 5, 2]"] ;
468 -> 470 ;
471 [label="gini = 0.64\nsamples = 5\nvalue = [2, 2, 1]"] ;
467 -> 471 ;
472 [label="gini = 0.0\nsamples = 2\nvalue = [2, 0, 0]"] ;
466 -> 472 ;
473 [label="religion <= 0.5\ngini = 0.351\nsamples = 44\nvalue = [0, 34, 10]"] ;
465 -> 473 ;
474 [label="wifeage <= 41.5\ngini = 0.142\nsamples = 13\nvalue = [0, 12, 1]"] ;
473 -> 474 ;
475 [label="gini = 0.0\nsamples = 10\nvalue = [0, 10, 0]"] ;
474 -> 475 ;
476 [label="gini = 0.444\nsamples = 3\nvalue = [0, 2, 1]"] ;
474 -> 476 ;
477 [label="living <= 3.5\ngini = 0.412\nsamples = 31\nvalue = [0, 22, 9]"] ;
473 -> 477 ;
478 [label="gini = 0.198\nsamples = 9\nvalue = [0, 8, 1]"] ;
477 -> 478 ;
479 [label="numchild <= 4.5\ngini = 0.463\nsamples = 22\nvalue = [0, 14, 8]"] ;
477 -> 479 ;
480 [label="gini = 0.346\nsamples = 9\nvalue = [0, 7, 2]"] ;
479 -> 480 ;
481 [label="wifeage <= 40.0\ngini = 0.497\nsamples = 13\nvalue = [0, 7, 6]"] ;
479 -> 481 ;
482 [label="gini = 0.375\nsamples = 4\nvalue = [0, 3, 1]"] ;
481 -> 482 ;
483 [label="gini = 0.494\nsamples = 9\nvalue = [0, 4, 5]"] ;
481 -> 483 ;
484 [label="gini = 0.0\nsamples = 1\nvalue = [0, 0, 1]"] ;
464 -> 484 ;
485 [label="numchild <= 10.5\ngini = 0.629\nsamples = 65\nvalue = [17, 32, 16]"] ;
461 -> 485 ;
486 [label="living <= 3.5\ngini = 0.62\nsamples = 63\nvalue = [17, 32, 14]"] ;
485 -> 486 ;
487 [label="wifeage <= 46.5\ngini = 0.653\nsamples = 12\nvalue = [5, 3, 4]"] ;
486 -> 487 ;
488 [label="gini = 0.568\nsamples = 9\nvalue = [5, 3, 1]"] ;
487 -> 488 ;
489 [label="gini = 0.0\nsamples = 3\nvalue = [0, 0, 3]"] ;
487 -> 489 ;
490 [label="wifeage <= 43.5\ngini = 0.583\nsamples = 51\nvalue = [12, 29, 10]"] ;
486 -> 490 ;
491 [label="husjob <= 1.5\ngini = 0.66\nsamples = 10\nvalue = [3, 3, 4]"] ;
490 -> 491 ;
492 [label="gini = 0.642\nsamples = 9\nvalue = [2, 3, 4]"] ;
491 -> 492 ;
493 [label="gini = 0.0\nsamples = 1\nvalue = [1, 0, 0]"] ;
491 -> 493 ;
494 [label="husjob <= 2.5\ngini = 0.528\nsamples = 41\nvalue = [9, 26, 6]"] ;
490 -> 494 ;
495 [label="media <= 0.5\ngini = 0.511\nsamples = 40\nvalue = [9, 26, 5]"] ;
494 -> 495 ;
496 [label="wifework <= 0.5\ngini = 0.497\nsamples = 39\nvalue = [8, 26, 5]"] ;
495 -> 496 ;
497 [label="gini = 0.219\nsamples = 8\nvalue = [0, 7, 1]"] ;
496 -> 497 ;
498 [label="wifeage <= 46.5\ngini = 0.541\nsamples = 31\nvalue = [8, 19, 4]"] ;
496 -> 498 ;
499 [label="numchild <= 7.5\ngini = 0.515\nsamples = 20\nvalue = [3, 13, 4]"] ;
498 -> 499 ;
500 [label="husjob <= 1.5\ngini = 0.482\nsamples = 19\nvalue = [3, 13, 3]"] ;
499 -> 500 ;
501 [label="religion <= 0.5\ngini = 0.418\nsamples = 15\nvalue = [1, 11, 3]"] ;
500 -> 501 ;
502 [label="gini = 0.0\nsamples = 1\nvalue = [0, 0, 1]"] ;
501 -> 502 ;
503 [label="numchild <= 5.5\ngini = 0.357\nsamples = 14\nvalue = [1, 11, 2]"] ;
501 -> 503 ;
504 [label="wifeage <= 44.5\ngini = 0.278\nsamples = 12\nvalue = [0, 10, 2]"] ;
503 -> 504 ;
505 [label="gini = 0.0\nsamples = 4\nvalue = [0, 4, 0]"] ;
504 -> 505 ;
506 [label="gini = 0.375\nsamples = 8\nvalue = [0, 6, 2]"] ;
504 -> 506 ;
507 [label="gini = 0.5\nsamples = 2\nvalue = [1, 1, 0]"] ;
503 -> 507 ;
508 [label="gini = 0.5\nsamples = 4\nvalue = [2, 2, 0]"] ;
500 -> 508 ;
509 [label="gini = 0.0\nsamples = 1\nvalue = [0, 0, 1]"] ;
499 -> 509 ;
510 [label="religion <= 0.5\ngini = 0.496\nsamples = 11\nvalue = [5, 6, 0]"] ;
498 -> 510 ;
511 [label="gini = 0.278\nsamples = 6\nvalue = [1, 5, 0]"] ;
510 -> 511 ;
512 [label="gini = 0.32\nsamples = 5\nvalue = [4, 1, 0]"] ;
510 -> 512 ;
513 [label="gini = 0.0\nsamples = 1\nvalue = [1, 0, 0]"] ;
495 -> 513 ;
514 [label="gini = 0.0\nsamples = 1\nvalue = [0, 0, 1]"] ;
494 -> 514 ;
515 [label="gini = 0.0\nsamples = 2\nvalue = [0, 0, 2]"] ;
485 -> 515 ;
516 [label="gini = 0.406\nsamples = 8\nvalue = [6, 1, 1]"] ;
456 -> 516 ;
}