digraph Tree {
node [shape=box] ;
0 [label="X[3] <= 0.5\ngini = 0.646\nsamples = 1473\nvalue = [629, 333, 511]"] ;
1 [label="X[0] <= 17.5\ngini = 0.04\nsamples = 97\nvalue = [95, 0, 2]"] ;
0 -> 1 [labeldistance=2.5, labelangle=45, headlabel="True"] ;
2 [label="gini = 0.0\nsamples = 1\nvalue = [0, 0, 1]"] ;
1 -> 2 ;
3 [label="X[6] <= 3.5\ngini = 0.021\nsamples = 96\nvalue = [95, 0, 1]"] ;
1 -> 3 ;
4 [label="gini = 0.0\nsamples = 92\nvalue = [92, 0, 0]"] ;
3 -> 4 ;
5 [label="X[4] <= 0.5\ngini = 0.375\nsamples = 4\nvalue = [3, 0, 1]"] ;
3 -> 5 ;
6 [label="gini = 0.0\nsamples = 1\nvalue = [0, 0, 1]"] ;
5 -> 6 ;
7 [label="gini = 0.0\nsamples = 3\nvalue = [3, 0, 0]"] ;
5 -> 7 ;
8 [label="X[0] <= 37.5\ngini = 0.654\nsamples = 1376\nvalue = [534, 333, 509]"] ;
0 -> 8 [labeldistance=2.5, labelangle=-45, headlabel="False"] ;
9 [label="X[1] <= 3.5\ngini = 0.641\nsamples = 968\nvalue = [317, 217, 434]"] ;
8 -> 9 ;
10 [label="X[3] <= 2.5\ngini = 0.613\nsamples = 599\nvalue = [227, 91, 281]"] ;
9 -> 10 ;
11 [label="X[0] <= 30.5\ngini = 0.596\nsamples = 260\nvalue = [132, 35, 93]"] ;
10 -> 11 ;
12 [label="X[2] <= 1.5\ngini = 0.604\nsamples = 226\nvalue = [105, 30, 91]"] ;
11 -> 12 ;
13 [label="gini = 0.0\nsamples = 4\nvalue = [0, 4, 0]"] ;
12 -> 13 ;
14 [label="X[1] <= 2.5\ngini = 0.595\nsamples = 222\nvalue = [105, 26, 91]"] ;
12 -> 14 ;
15 [label="X[5] <= 0.5\ngini = 0.548\nsamples = 103\nvalue = [58, 8, 37]"] ;
14 -> 15 ;
16 [label="X[0] <= 23.5\ngini = 0.421\nsamples = 19\nvalue = [14, 3, 2]"] ;
15 -> 16 ;
17 [label="X[2] <= 2.5\ngini = 0.444\nsamples = 3\nvalue = [1, 0, 2]"] ;
16 -> 17 ;
18 [label="gini = 0.0\nsamples = 1\nvalue = [1, 0, 0]"] ;
17 -> 18 ;
19 [label="gini = 0.0\nsamples = 2\nvalue = [0, 0, 2]"] ;
17 -> 19 ;
20 [label="X[0] <= 25.5\ngini = 0.305\nsamples = 16\nvalue = [13, 3, 0]"] ;
16 -> 20 ;
21 [label="X[6] <= 3.5\ngini = 0.48\nsamples = 5\nvalue = [3, 2, 0]"] ;
20 -> 21 ;
22 [label="gini = 0.0\nsamples = 2\nvalue = [2, 0, 0]"] ;
21 -> 22 ;
23 [label="X[1] <= 1.5\ngini = 0.444\nsamples = 3\nvalue = [1, 2, 0]"] ;
21 -> 23 ;
24 [label="gini = 0.0\nsamples = 1\nvalue = [0, 1, 0]"] ;
23 -> 24 ;
25 [label="X[2] <= 3.5\ngini = 0.5\nsamples = 2\nvalue = [1, 1, 0]"] ;
23 -> 25 ;
26 [label="gini = 0.0\nsamples = 1\nvalue = [0, 1, 0]"] ;
25 -> 26 ;
27 [label="gini = 0.0\nsamples = 1\nvalue = [1, 0, 0]"] ;
25 -> 27 ;
28 [label="X[0] <= 29.5\ngini = 0.165\nsamples = 11\nvalue = [10, 1, 0]"] ;
20 -> 28 ;
29 [label="gini = 0.0\nsamples = 9\nvalue = [9, 0, 0]"] ;
28 -> 29 ;
30 [label="X[3] <= 1.5\ngini = 0.5\nsamples = 2\nvalue = [1, 1, 0]"] ;
28 -> 30 ;
31 [label="gini = 0.0\nsamples = 1\nvalue = [0, 1, 0]"] ;
30 -> 31 ;
32 [label="gini = 0.0\nsamples = 1\nvalue = [1, 0, 0]"] ;
30 -> 32 ;
33 [label="X[2] <= 2.5\ngini = 0.548\nsamples = 84\nvalue = [44, 5, 35]"] ;
15 -> 33 ;
34 [label="X[7] <= 1.5\ngini = 0.525\nsamples = 25\nvalue = [10, 1, 14]"] ;
33 -> 34 ;
35 [label="X[0] <= 24.5\ngini = 0.408\nsamples = 7\nvalue = [5, 0, 2]"] ;
34 -> 35 ;
36 [label="gini = 0.0\nsamples = 4\nvalue = [4, 0, 0]"] ;
35 -> 36 ;
37 [label="X[6] <= 2.5\ngini = 0.444\nsamples = 3\nvalue = [1, 0, 2]"] ;
35 -> 37 ;
38 [label="gini = 0.0\nsamples = 1\nvalue = [0, 0, 1]"] ;
37 -> 38 ;
39 [label="X[3] <= 1.5\ngini = 0.5\nsamples = 2\nvalue = [1, 0, 1]"] ;
37 -> 39 ;
40 [label="gini = 0.0\nsamples = 1\nvalue = [0, 0, 1]"] ;
39 -> 40 ;
41 [label="gini = 0.0\nsamples = 1\nvalue = [1, 0, 0]"] ;
39 -> 41 ;
42 [label="X[1] <= 1.5\ngini = 0.475\nsamples = 18\nvalue = [5, 1, 12]"] ;
34 -> 42 ;
43 [label="gini = 0.0\nsamples = 2\nvalue = [0, 0, 2]"] ;
42 -> 43 ;
44 [label="X[0] <= 26.5\ngini = 0.508\nsamples = 16\nvalue = [5, 1, 10]"] ;
42 -> 44 ;
45 [label="X[0] <= 23.5\ngini = 0.462\nsamples = 13\nvalue = [3, 1, 9]"] ;
44 -> 45 ;
46 [label="X[3] <= 1.5\ngini = 0.512\nsamples = 11\nvalue = [3, 1, 7]"] ;
45 -> 46 ;
47 [label="X[7] <= 2.5\ngini = 0.449\nsamples = 7\nvalue = [1, 1, 5]"] ;
46 -> 47 ;
48 [label="X[0] <= 20.5\ngini = 0.56\nsamples = 5\nvalue = [1, 1, 3]"] ;
47 -> 48 ;
49 [label="gini = 0.0\nsamples = 2\nvalue = [0, 0, 2]"] ;
48 -> 49 ;
50 [label="gini = 0.667\nsamples = 3\nvalue = [1, 1, 1]"] ;
48 -> 50 ;
51 [label="gini = 0.0\nsamples = 2\nvalue = [0, 0, 2]"] ;
47 -> 51 ;
52 [label="X[0] <= 22.5\ngini = 0.5\nsamples = 4\nvalue = [2, 0, 2]"] ;
46 -> 52 ;
53 [label="X[0] <= 21.0\ngini = 0.444\nsamples = 3\nvalue = [1, 0, 2]"] ;
52 -> 53 ;
54 [label="X[6] <= 2.5\ngini = 0.5\nsamples = 2\nvalue = [1, 0, 1]"] ;
53 -> 54 ;
55 [label="gini = 0.0\nsamples = 1\nvalue = [1, 0, 0]"] ;
54 -> 55 ;
56 [label="gini = 0.0\nsamples = 1\nvalue = [0, 0, 1]"] ;
54 -> 56 ;
57 [label="gini = 0.0\nsamples = 1\nvalue = [0, 0, 1]"] ;
53 -> 57 ;
58 [label="gini = 0.0\nsamples = 1\nvalue = [1, 0, 0]"] ;
52 -> 58 ;
59 [label="gini = 0.0\nsamples = 2\nvalue = [0, 0, 2]"] ;
45 -> 59 ;
60 [label="X[3] <= 1.5\ngini = 0.444\nsamples = 3\nvalue = [2, 0, 1]"] ;
44 -> 60 ;
61 [label="gini = 0.0\nsamples = 2\nvalue = [2, 0, 0]"] ;
60 -> 61 ;
62 [label="gini = 0.0\nsamples = 1\nvalue = [0, 0, 1]"] ;
60 -> 62 ;
63 [label="X[3] <= 1.5\ngini = 0.537\nsamples = 59\nvalue = [34, 4, 21]"] ;
33 -> 63 ;
64 [label="X[8] <= 0.5\ngini = 0.383\nsamples = 31\nvalue = [23, 0, 8]"] ;
63 -> 64 ;
65 [label="X[0] <= 27.5\ngini = 0.358\nsamples = 30\nvalue = [23, 0, 7]"] ;
64 -> 65 ;
66 [label="X[0] <= 26.5\ngini = 0.403\nsamples = 25\nvalue = [18, 0, 7]"] ;
65 -> 66 ;
67 [label="X[7] <= 1.5\ngini = 0.34\nsamples = 23\nvalue = [18, 0, 5]"] ;
66 -> 67 ;
68 [label="X[0] <= 21.0\ngini = 0.49\nsamples = 7\nvalue = [4, 0, 3]"] ;
67 -> 68 ;
69 [label="gini = 0.0\nsamples = 2\nvalue = [0, 0, 2]"] ;
68 -> 69 ;
70 [label="X[1] <= 1.5\ngini = 0.32\nsamples = 5\nvalue = [4, 0, 1]"] ;
68 -> 70 ;
71 [label="gini = 0.0\nsamples = 2\nvalue = [2, 0, 0]"] ;
70 -> 71 ;
72 [label="X[0] <= 24.5\ngini = 0.444\nsamples = 3\nvalue = [2, 0, 1]"] ;
70 -> 72 ;
73 [label="gini = 0.0\nsamples = 2\nvalue = [2, 0, 0]"] ;
72 -> 73 ;
74 [label="gini = 0.0\nsamples = 1\nvalue = [0, 0, 1]"] ;
72 -> 74 ;
75 [label="X[2] <= 3.5\ngini = 0.219\nsamples = 16\nvalue = [14, 0, 2]"] ;
67 -> 75 ;
76 [label="gini = 0.0\nsamples = 9\nvalue = [9, 0, 0]"] ;
75 -> 76 ;
77 [label="X[7] <= 3.5\ngini = 0.408\nsamples = 7\nvalue = [5, 0, 2]"] ;
75 -> 77 ;
78 [label="X[0] <= 23.5\ngini = 0.5\nsamples = 4\nvalue = [2, 0, 2]"] ;
77 -> 78 ;
79 [label="gini = 0.0\nsamples = 2\nvalue = [0, 0, 2]"] ;
78 -> 79 ;
80 [label="gini = 0.0\nsamples = 2\nvalue = [2, 0, 0]"] ;
78 -> 80 ;
81 [label="gini = 0.0\nsamples = 3\nvalue = [3, 0, 0]"] ;
77 -> 81 ;
82 [label="gini = 0.0\nsamples = 2\nvalue = [0, 0, 2]"] ;
66 -> 82 ;
83 [label="gini = 0.0\nsamples = 5\nvalue = [5, 0, 0]"] ;
65 -> 83 ;
84 [label="gini = 0.0\nsamples = 1\nvalue = [0, 0, 1]"] ;
64 -> 84 ;
85 [label="X[1] <= 1.5\ngini = 0.61\nsamples = 28\nvalue = [11, 4, 13]"] ;
63 -> 85 ;
86 [label="gini = 0.0\nsamples = 3\nvalue = [0, 0, 3]"] ;
85 -> 86 ;
87 [label="X[6] <= 2.5\ngini = 0.621\nsamples = 25\nvalue = [11, 4, 10]"] ;
85 -> 87 ;
88 [label="X[6] <= 1.5\ngini = 0.531\nsamples = 8\nvalue = [1, 2, 5]"] ;
87 -> 88 ;
89 [label="X[0] <= 25.0\ngini = 0.625\nsamples = 4\nvalue = [1, 2, 1]"] ;
88 -> 89 ;
90 [label="X[0] <= 23.5\ngini = 0.5\nsamples = 2\nvalue = [1, 0, 1]"] ;
89 -> 90 ;
91 [label="gini = 0.0\nsamples = 1\nvalue = [1, 0, 0]"] ;
90 -> 91 ;
92 [label="gini = 0.0\nsamples = 1\nvalue = [0, 0, 1]"] ;
90 -> 92 ;
93 [label="gini = 0.0\nsamples = 2\nvalue = [0, 2, 0]"] ;
89 -> 93 ;
94 [label="gini = 0.0\nsamples = 4\nvalue = [0, 0, 4]"] ;
88 -> 94 ;
95 [label="X[7] <= 2.5\ngini = 0.554\nsamples = 17\nvalue = [10, 2, 5]"] ;
87 -> 95 ;
96 [label="X[2] <= 3.5\ngini = 0.494\nsamples = 9\nvalue = [5, 0, 4]"] ;
95 -> 96 ;
97 [label="X[7] <= 1.5\ngini = 0.444\nsamples = 6\nvalue = [4, 0, 2]"] ;
96 -> 97 ;
98 [label="X[0] <= 22.5\ngini = 0.48\nsamples = 5\nvalue = [3, 0, 2]"] ;
97 -> 98 ;
99 [label="gini = 0.0\nsamples = 1\nvalue = [1, 0, 0]"] ;
98 -> 99 ;
100 [label="X[0] <= 23.5\ngini = 0.5\nsamples = 4\nvalue = [2, 0, 2]"] ;
98 -> 100 ;
101 [label="gini = 0.0\nsamples = 1\nvalue = [0, 0, 1]"] ;
100 -> 101 ;
102 [label="X[0] <= 24.5\ngini = 0.444\nsamples = 3\nvalue = [2, 0, 1]"] ;
100 -> 102 ;
103 [label="gini = 0.0\nsamples = 1\nvalue = [1, 0, 0]"] ;
102 -> 103 ;
104 [label="X[0] <= 27.0\ngini = 0.5\nsamples = 2\nvalue = [1, 0, 1]"] ;
102 -> 104 ;
105 [label="gini = 0.0\nsamples = 1\nvalue = [0, 0, 1]"] ;
104 -> 105 ;
106 [label="gini = 0.0\nsamples = 1\nvalue = [1, 0, 0]"] ;
104 -> 106 ;
107 [label="gini = 0.0\nsamples = 1\nvalue = [1, 0, 0]"] ;
97 -> 107 ;
108 [label="X[0] <= 21.5\ngini = 0.444\nsamples = 3\nvalue = [1, 0, 2]"] ;
96 -> 108 ;
109 [label="gini = 0.0\nsamples = 1\nvalue = [1, 0, 0]"] ;
108 -> 109 ;
110 [label="gini = 0.0\nsamples = 2\nvalue = [0, 0, 2]"] ;
108 -> 110 ;
111 [label="X[7] <= 3.5\ngini = 0.531\nsamples = 8\nvalue = [5, 2, 1]"] ;
95 -> 111 ;
112 [label="X[0] <= 27.5\ngini = 0.611\nsamples = 6\nvalue = [3, 2, 1]"] ;
111 -> 112 ;
113 [label="X[0] <= 25.0\ngini = 0.56\nsamples = 5\nvalue = [3, 1, 1]"] ;
112 -> 113 ;
114 [label="X[0] <= 23.5\ngini = 0.5\nsamples = 2\nvalue = [1, 1, 0]"] ;
113 -> 114 ;
115 [label="gini = 0.0\nsamples = 1\nvalue = [1, 0, 0]"] ;
114 -> 115 ;
116 [label="gini = 0.0\nsamples = 1\nvalue = [0, 1, 0]"] ;
114 -> 116 ;
117 [label="X[0] <= 26.5\ngini = 0.444\nsamples = 3\nvalue = [2, 0, 1]"] ;
113 -> 117 ;
118 [label="gini = 0.5\nsamples = 2\nvalue = [1, 0, 1]"] ;
117 -> 118 ;
119 [label="gini = 0.0\nsamples = 1\nvalue = [1, 0, 0]"] ;
117 -> 119 ;
120 [label="gini = 0.0\nsamples = 1\nvalue = [0, 1, 0]"] ;
112 -> 120 ;
121 [label="gini = 0.0\nsamples = 2\nvalue = [2, 0, 0]"] ;
111 -> 121 ;
122 [label="X[0] <= 25.5\ngini = 0.615\nsamples = 119\nvalue = [47, 18, 54]"] ;
14 -> 122 ;
123 [label="X[4] <= 0.5\ngini = 0.573\nsamples = 83\nvalue = [36, 7, 40]"] ;
122 -> 123 ;
124 [label="gini = 0.0\nsamples = 4\nvalue = [0, 0, 4]"] ;
123 -> 124 ;
125 [label="X[6] <= 3.5\ngini = 0.577\nsamples = 79\nvalue = [36, 7, 36]"] ;
123 -> 125 ;
126 [label="X[6] <= 1.5\ngini = 0.568\nsamples = 78\nvalue = [36, 6, 36]"] ;
125 -> 126 ;
127 [label="gini = 0.0\nsamples = 2\nvalue = [0, 0, 2]"] ;
126 -> 127 ;
128 [label="X[8] <= 0.5\ngini = 0.569\nsamples = 76\nvalue = [36, 6, 34]"] ;
126 -> 128 ;
129 [label="X[0] <= 20.5\ngini = 0.57\nsamples = 74\nvalue = [36, 6, 32]"] ;
128 -> 129 ;
130 [label="X[6] <= 2.5\ngini = 0.585\nsamples = 20\nvalue = [11, 3, 6]"] ;
129 -> 130 ;
131 [label="X[0] <= 18.5\ngini = 0.568\nsamples = 9\nvalue = [3, 1, 5]"] ;
130 -> 131 ;
132 [label="gini = 0.0\nsamples = 3\nvalue = [0, 0, 3]"] ;
131 -> 132 ;
133 [label="X[3] <= 1.5\ngini = 0.611\nsamples = 6\nvalue = [3, 1, 2]"] ;
131 -> 133 ;
134 [label="X[7] <= 2.0\ngini = 0.56\nsamples = 5\nvalue = [3, 1, 1]"] ;
133 -> 134 ;
135 [label="gini = 0.0\nsamples = 1\nvalue = [0, 0, 1]"] ;
134 -> 135 ;
136 [label="X[0] <= 19.5\ngini = 0.375\nsamples = 4\nvalue = [3, 1, 0]"] ;
134 -> 136 ;
137 [label="gini = 0.0\nsamples = 2\nvalue = [2, 0, 0]"] ;
136 -> 137 ;
138 [label="X[7] <= 3.5\ngini = 0.5\nsamples = 2\nvalue = [1, 1, 0]"] ;
136 -> 138 ;
139 [label="gini = 0.0\nsamples = 1\nvalue = [1, 0, 0]"] ;
138 -> 139 ;
140 [label="gini = 0.0\nsamples = 1\nvalue = [0, 1, 0]"] ;
138 -> 140 ;
141 [label="gini = 0.0\nsamples = 1\nvalue = [0, 0, 1]"] ;
133 -> 141 ;
142 [label="X[7] <= 3.5\ngini = 0.43\nsamples = 11\nvalue = [8, 2, 1]"] ;
130 -> 142 ;
143 [label="X[0] <= 17.5\ngini = 0.34\nsamples = 10\nvalue = [8, 1, 1]"] ;
142 -> 143 ;
144 [label="X[0] <= 16.5\ngini = 0.5\nsamples = 2\nvalue = [1, 0, 1]"] ;
143 -> 144 ;
145 [label="gini = 0.0\nsamples = 1\nvalue = [1, 0, 0]"] ;
144 -> 145 ;
146 [label="gini = 0.0\nsamples = 1\nvalue = [0, 0, 1]"] ;
144 -> 146 ;
147 [label="X[0] <= 19.5\ngini = 0.219\nsamples = 8\nvalue = [7, 1, 0]"] ;
143 -> 147 ;
148 [label="gini = 0.0\nsamples = 4\nvalue = [4, 0, 0]"] ;
147 -> 148 ;
149 [label="X[3] <= 1.5\ngini = 0.375\nsamples = 4\nvalue = [3, 1, 0]"] ;
147 -> 149 ;
150 [label="gini = 0.5\nsamples = 2\nvalue = [1, 1, 0]"] ;
149 -> 150 ;
151 [label="gini = 0.0\nsamples = 2\nvalue = [2, 0, 0]"] ;
149 -> 151 ;
152 [label="gini = 0.0\nsamples = 1\nvalue = [0, 1, 0]"] ;
142 -> 152 ;
153 [label="X[0] <= 21.5\ngini = 0.551\nsamples = 54\nvalue = [25, 3, 26]"] ;
129 -> 153 ;
154 [label="X[6] <= 2.5\ngini = 0.375\nsamples = 12\nvalue = [3, 0, 9]"] ;
153 -> 154 ;
155 [label="X[2] <= 3.5\ngini = 0.5\nsamples = 4\nvalue = [2, 0, 2]"] ;
154 -> 155 ;
156 [label="X[7] <= 2.5\ngini = 0.444\nsamples = 3\nvalue = [1, 0, 2]"] ;
155 -> 156 ;
157 [label="X[3] <= 1.5\ngini = 0.5\nsamples = 2\nvalue = [1, 0, 1]"] ;
156 -> 157 ;
158 [label="gini = 0.0\nsamples = 1\nvalue = [0, 0, 1]"] ;
157 -> 158 ;
159 [label="gini = 0.0\nsamples = 1\nvalue = [1, 0, 0]"] ;
157 -> 159 ;
160 [label="gini = 0.0\nsamples = 1\nvalue = [0, 0, 1]"] ;
156 -> 160 ;
161 [label="gini = 0.0\nsamples = 1\nvalue = [1, 0, 0]"] ;
155 -> 161 ;
162 [label="X[5] <= 0.5\ngini = 0.219\nsamples = 8\nvalue = [1, 0, 7]"] ;
154 -> 162 ;
163 [label="X[2] <= 3.5\ngini = 0.5\nsamples = 2\nvalue = [1, 0, 1]"] ;
162 -> 163 ;
164 [label="gini = 0.0\nsamples = 1\nvalue = [1, 0, 0]"] ;
163 -> 164 ;
165 [label="gini = 0.0\nsamples = 1\nvalue = [0, 0, 1]"] ;
163 -> 165 ;
166 [label="gini = 0.0\nsamples = 6\nvalue = [0, 0, 6]"] ;
162 -> 166 ;
167 [label="X[5] <= 0.5\ngini = 0.557\nsamples = 42\nvalue = [22, 3, 17]"] ;
153 -> 167 ;
168 [label="X[3] <= 1.5\ngini = 0.494\nsamples = 9\nvalue = [6, 1, 2]"] ;
167 -> 168 ;
169 [label="gini = 0.0\nsamples = 4\nvalue = [4, 0, 0]"] ;
168 -> 169 ;
170 [label="X[7] <= 3.5\ngini = 0.64\nsamples = 5\nvalue = [2, 1, 2]"] ;
168 -> 170 ;
171 [label="X[2] <= 2.5\ngini = 0.444\nsamples = 3\nvalue = [2, 0, 1]"] ;
170 -> 171 ;
172 [label="gini = 0.0\nsamples = 1\nvalue = [0, 0, 1]"] ;
171 -> 172 ;
173 [label="gini = 0.0\nsamples = 2\nvalue = [2, 0, 0]"] ;
171 -> 173 ;
174 [label="X[2] <= 3.5\ngini = 0.5\nsamples = 2\nvalue = [0, 1, 1]"] ;
170 -> 174 ;
175 [label="gini = 0.0\nsamples = 1\nvalue = [0, 1, 0]"] ;
174 -> 175 ;
176 [label="gini = 0.0\nsamples = 1\nvalue = [0, 0, 1]"] ;
174 -> 176 ;
177 [label="X[7] <= 3.5\ngini = 0.555\nsamples = 33\nvalue = [16, 2, 15]"] ;
167 -> 177 ;
178 [label="X[0] <= 24.5\ngini = 0.565\nsamples = 26\nvalue = [11, 2, 13]"] ;
177 -> 178 ;
179 [label="X[3] <= 1.5\ngini = 0.526\nsamples = 17\nvalue = [6, 1, 10]"] ;
178 -> 179 ;
180 [label="gini = 0.0\nsamples = 6\nvalue = [0, 0, 6]"] ;
179 -> 180 ;
181 [label="X[7] <= 1.5\ngini = 0.562\nsamples = 11\nvalue = [6, 1, 4]"] ;
179 -> 181 ;
182 [label="gini = 0.0\nsamples = 2\nvalue = [0, 0, 2]"] ;
181 -> 182 ;
183 [label="X[0] <= 23.5\ngini = 0.494\nsamples = 9\nvalue = [6, 1, 2]"] ;
181 -> 183 ;
184 [label="X[6] <= 2.5\ngini = 0.32\nsamples = 5\nvalue = [4, 1, 0]"] ;
183 -> 184 ;
185 [label="gini = 0.0\nsamples = 2\nvalue = [2, 0, 0]"] ;
184 -> 185 ;
186 [label="X[0] <= 22.5\ngini = 0.444\nsamples = 3\nvalue = [2, 1, 0]"] ;
184 -> 186 ;
187 [label="X[2] <= 3.5\ngini = 0.5\nsamples = 2\nvalue = [1, 1, 0]"] ;
186 -> 187 ;
188 [label="gini = 0.0\nsamples = 1\nvalue = [0, 1, 0]"] ;
187 -> 188 ;
189 [label="gini = 0.0\nsamples = 1\nvalue = [1, 0, 0]"] ;
187 -> 189 ;
190 [label="gini = 0.0\nsamples = 1\nvalue = [1, 0, 0]"] ;
186 -> 190 ;
191 [label="X[6] <= 2.5\ngini = 0.5\nsamples = 4\nvalue = [2, 0, 2]"] ;
183 -> 191 ;
192 [label="gini = 0.0\nsamples = 1\nvalue = [1, 0, 0]"] ;
191 -> 192 ;
193 [label="X[2] <= 3.5\ngini = 0.444\nsamples = 3\nvalue = [1, 0, 2]"] ;
191 -> 193 ;
194 [label="gini = 0.5\nsamples = 2\nvalue = [1, 0, 1]"] ;
193 -> 194 ;
195 [label="gini = 0.0\nsamples = 1\nvalue = [0, 0, 1]"] ;
193 -> 195 ;
196 [label="X[7] <= 2.5\ngini = 0.568\nsamples = 9\nvalue = [5, 1, 3]"] ;
178 -> 196 ;
197 [label="X[7] <= 1.5\ngini = 0.449\nsamples = 7\nvalue = [5, 1, 1]"] ;
196 -> 197 ;
198 [label="X[2] <= 3.5\ngini = 0.625\nsamples = 4\nvalue = [2, 1, 1]"] ;
197 -> 198 ;
199 [label="X[6] <= 2.5\ngini = 0.667\nsamples = 3\nvalue = [1, 1, 1]"] ;
198 -> 199 ;
200 [label="gini = 0.0\nsamples = 1\nvalue = [0, 0, 1]"] ;
199 -> 200 ;
201 [label="gini = 0.5\nsamples = 2\nvalue = [1, 1, 0]"] ;
199 -> 201 ;
202 [label="gini = 0.0\nsamples = 1\nvalue = [1, 0, 0]"] ;
198 -> 202 ;
203 [label="gini = 0.0\nsamples = 3\nvalue = [3, 0, 0]"] ;
197 -> 203 ;
204 [label="gini = 0.0\nsamples = 2\nvalue = [0, 0, 2]"] ;
196 -> 204 ;
205 [label="X[2] <= 3.5\ngini = 0.408\nsamples = 7\nvalue = [5, 0, 2]"] ;
177 -> 205 ;
206 [label="gini = 0.0\nsamples = 3\nvalue = [3, 0, 0]"] ;
205 -> 206 ;
207 [label="X[0] <= 22.5\ngini = 0.5\nsamples = 4\nvalue = [2, 0, 2]"] ;
205 -> 207 ;
208 [label="gini = 0.0\nsamples = 1\nvalue = [0, 0, 1]"] ;
207 -> 208 ;
209 [label="X[3] <= 1.5\ngini = 0.444\nsamples = 3\nvalue = [2, 0, 1]"] ;
207 -> 209 ;
210 [label="gini = 0.0\nsamples = 1\nvalue = [0, 0, 1]"] ;
209 -> 210 ;
211 [label="gini = 0.0\nsamples = 2\nvalue = [2, 0, 0]"] ;
209 -> 211 ;
212 [label="gini = 0.0\nsamples = 2\nvalue = [0, 0, 2]"] ;
128 -> 212 ;
213 [label="gini = 0.0\nsamples = 1\nvalue = [0, 1, 0]"] ;
125 -> 213 ;
214 [label="X[2] <= 3.5\ngini = 0.662\nsamples = 36\nvalue = [11, 11, 14]"] ;
122 -> 214 ;
215 [label="X[0] <= 27.5\ngini = 0.5\nsamples = 12\nvalue = [0, 6, 6]"] ;
214 -> 215 ;
216 [label="X[5] <= 0.5\ngini = 0.408\nsamples = 7\nvalue = [0, 5, 2]"] ;
215 -> 216 ;
217 [label="X[7] <= 3.5\ngini = 0.5\nsamples = 4\nvalue = [0, 2, 2]"] ;
216 -> 217 ;
218 [label="gini = 0.0\nsamples = 2\nvalue = [0, 0, 2]"] ;
217 -> 218 ;
219 [label="gini = 0.0\nsamples = 2\nvalue = [0, 2, 0]"] ;
217 -> 219 ;
220 [label="gini = 0.0\nsamples = 3\nvalue = [0, 3, 0]"] ;
216 -> 220 ;
221 [label="X[0] <= 29.5\ngini = 0.32\nsamples = 5\nvalue = [0, 1, 4]"] ;
215 -> 221 ;
222 [label="gini = 0.0\nsamples = 4\nvalue = [0, 0, 4]"] ;
221 -> 222 ;
223 [label="gini = 0.0\nsamples = 1\nvalue = [0, 1, 0]"] ;
221 -> 223 ;
224 [label="X[3] <= 1.5\ngini = 0.635\nsamples = 24\nvalue = [11, 5, 8]"] ;
214 -> 224 ;
225 [label="gini = 0.0\nsamples = 6\nvalue = [6, 0, 0]"] ;
224 -> 225 ;
226 [label="X[4] <= 0.5\ngini = 0.648\nsamples = 18\nvalue = [5, 5, 8]"] ;
224 -> 226 ;
227 [label="gini = 0.0\nsamples = 2\nvalue = [0, 2, 0]"] ;
226 -> 227 ;
228 [label="X[0] <= 28.5\ngini = 0.617\nsamples = 16\nvalue = [5, 3, 8]"] ;
226 -> 228 ;
229 [label="X[0] <= 27.5\ngini = 0.512\nsamples = 11\nvalue = [3, 1, 7]"] ;
228 -> 229 ;
230 [label="X[7] <= 3.5\ngini = 0.568\nsamples = 9\nvalue = [3, 1, 5]"] ;
229 -> 230 ;
231 [label="X[5] <= 0.5\ngini = 0.594\nsamples = 8\nvalue = [3, 1, 4]"] ;
230 -> 231 ;
232 [label="gini = 0.0\nsamples = 1\nvalue = [1, 0, 0]"] ;
231 -> 232 ;
233 [label="X[7] <= 2.5\ngini = 0.571\nsamples = 7\nvalue = [2, 1, 4]"] ;
231 -> 233 ;
234 [label="gini = 0.0\nsamples = 1\nvalue = [0, 0, 1]"] ;
233 -> 234 ;
235 [label="X[6] <= 2.0\ngini = 0.611\nsamples = 6\nvalue = [2, 1, 3]"] ;
233 -> 235 ;
236 [label="X[0] <= 26.5\ngini = 0.444\nsamples = 3\nvalue = [1, 0, 2]"] ;
235 -> 236 ;
237 [label="gini = 0.0\nsamples = 1\nvalue = [0, 0, 1]"] ;
236 -> 237 ;
238 [label="gini = 0.5\nsamples = 2\nvalue = [1, 0, 1]"] ;
236 -> 238 ;
239 [label="gini = 0.667\nsamples = 3\nvalue = [1, 1, 1]"] ;
235 -> 239 ;
240 [label="gini = 0.0\nsamples = 1\nvalue = [0, 0, 1]"] ;
230 -> 240 ;
241 [label="gini = 0.0\nsamples = 2\nvalue = [0, 0, 2]"] ;
229 -> 241 ;
242 [label="X[7] <= 2.5\ngini = 0.64\nsamples = 5\nvalue = [2, 2, 1]"] ;
228 -> 242 ;
243 [label="gini = 0.0\nsamples = 1\nvalue = [0, 0, 1]"] ;
242 -> 243 ;
244 [label="X[7] <= 3.5\ngini = 0.5\nsamples = 4\nvalue = [2, 2, 0]"] ;
242 -> 244 ;
245 [label="gini = 0.0\nsamples = 1\nvalue = [1, 0, 0]"] ;
244 -> 245 ;
246 [label="X[6] <= 2.0\ngini = 0.444\nsamples = 3\nvalue = [1, 2, 0]"] ;
244 -> 246 ;
247 [label="gini = 0.0\nsamples = 2\nvalue = [0, 2, 0]"] ;
246 -> 247 ;
248 [label="gini = 0.0\nsamples = 1\nvalue = [1, 0, 0]"] ;
246 -> 248 ;
249 [label="X[0] <= 34.5\ngini = 0.344\nsamples = 34\nvalue = [27, 5, 2]"] ;
11 -> 249 ;
250 [label="X[0] <= 33.5\ngini = 0.461\nsamples = 23\nvalue = [16, 5, 2]"] ;
249 -> 250 ;
251 [label="X[5] <= 0.5\ngini = 0.335\nsamples = 20\nvalue = [16, 3, 1]"] ;
250 -> 251 ;
252 [label="X[0] <= 31.5\ngini = 0.48\nsamples = 5\nvalue = [3, 2, 0]"] ;
251 -> 252 ;
253 [label="X[7] <= 3.5\ngini = 0.375\nsamples = 4\nvalue = [3, 1, 0]"] ;
252 -> 253 ;
254 [label="X[6] <= 2.5\ngini = 0.444\nsamples = 3\nvalue = [2, 1, 0]"] ;
253 -> 254 ;
255 [label="gini = 0.0\nsamples = 1\nvalue = [1, 0, 0]"] ;
254 -> 255 ;
256 [label="gini = 0.5\nsamples = 2\nvalue = [1, 1, 0]"] ;
254 -> 256 ;
257 [label="gini = 0.0\nsamples = 1\nvalue = [1, 0, 0]"] ;
253 -> 257 ;
258 [label="gini = 0.0\nsamples = 1\nvalue = [0, 1, 0]"] ;
252 -> 258 ;
259 [label="X[0] <= 32.5\ngini = 0.24\nsamples = 15\nvalue = [13, 1, 1]"] ;
251 -> 259 ;
260 [label="gini = 0.0\nsamples = 10\nvalue = [10, 0, 0]"] ;
259 -> 260 ;
261 [label="X[1] <= 2.5\ngini = 0.56\nsamples = 5\nvalue = [3, 1, 1]"] ;
259 -> 261 ;
262 [label="X[7] <= 3.0\ngini = 0.375\nsamples = 4\nvalue = [3, 0, 1]"] ;
261 -> 262 ;
263 [label="gini = 0.0\nsamples = 2\nvalue = [2, 0, 0]"] ;
262 -> 263 ;
264 [label="X[2] <= 2.5\ngini = 0.5\nsamples = 2\nvalue = [1, 0, 1]"] ;
262 -> 264 ;
265 [label="gini = 0.0\nsamples = 1\nvalue = [0, 0, 1]"] ;
264 -> 265 ;
266 [label="gini = 0.0\nsamples = 1\nvalue = [1, 0, 0]"] ;
264 -> 266 ;
267 [label="gini = 0.0\nsamples = 1\nvalue = [0, 1, 0]"] ;
261 -> 267 ;
268 [label="X[4] <= 0.5\ngini = 0.444\nsamples = 3\nvalue = [0, 2, 1]"] ;
250 -> 268 ;
269 [label="gini = 0.0\nsamples = 1\nvalue = [0, 1, 0]"] ;
268 -> 269 ;
270 [label="X[6] <= 2.5\ngini = 0.5\nsamples = 2\nvalue = [0, 1, 1]"] ;
268 -> 270 ;
271 [label="gini = 0.0\nsamples = 1\nvalue = [0, 0, 1]"] ;
270 -> 271 ;
272 [label="gini = 0.0\nsamples = 1\nvalue = [0, 1, 0]"] ;
270 -> 272 ;
273 [label="gini = 0.0\nsamples = 11\nvalue = [11, 0, 0]"] ;
249 -> 273 ;
274 [label="X[6] <= 1.5\ngini = 0.587\nsamples = 339\nvalue = [95, 56, 188]"] ;
10 -> 274 ;
275 [label="X[3] <= 3.5\ngini = 0.639\nsamples = 44\nvalue = [9, 16, 19]"] ;
274 -> 275 ;
276 [label="X[7] <= 1.5\ngini = 0.5\nsamples = 14\nvalue = [1, 9, 4]"] ;
275 -> 276 ;
277 [label="gini = 0.0\nsamples = 1\nvalue = [1, 0, 0]"] ;
276 -> 277 ;
278 [label="X[0] <= 28.5\ngini = 0.426\nsamples = 13\nvalue = [0, 9, 4]"] ;
276 -> 278 ;
279 [label="X[7] <= 2.5\ngini = 0.494\nsamples = 9\nvalue = [0, 5, 4]"] ;
278 -> 279 ;
280 [label="gini = 0.0\nsamples = 1\nvalue = [0, 1, 0]"] ;
279 -> 280 ;
281 [label="X[7] <= 3.5\ngini = 0.5\nsamples = 8\nvalue = [0, 4, 4]"] ;
279 -> 281 ;
282 [label="gini = 0.0\nsamples = 2\nvalue = [0, 0, 2]"] ;
281 -> 282 ;
283 [label="X[0] <= 22.5\ngini = 0.444\nsamples = 6\nvalue = [0, 4, 2]"] ;
281 -> 283 ;
284 [label="gini = 0.0\nsamples = 1\nvalue = [0, 1, 0]"] ;
283 -> 284 ;
285 [label="X[0] <= 24.5\ngini = 0.48\nsamples = 5\nvalue = [0, 3, 2]"] ;
283 -> 285 ;
286 [label="gini = 0.0\nsamples = 1\nvalue = [0, 0, 1]"] ;
285 -> 286 ;
287 [label="X[0] <= 27.0\ngini = 0.375\nsamples = 4\nvalue = [0, 3, 1]"] ;
285 -> 287 ;
288 [label="gini = 0.0\nsamples = 2\nvalue = [0, 2, 0]"] ;
287 -> 288 ;
289 [label="gini = 0.5\nsamples = 2\nvalue = [0, 1, 1]"] ;
287 -> 289 ;
290 [label="gini = 0.0\nsamples = 4\nvalue = [0, 4, 0]"] ;
278 -> 290 ;
291 [label="X[7] <= 3.5\ngini = 0.624\nsamples = 30\nvalue = [8, 7, 15]"] ;
275 -> 291 ;
292 [label="X[0] <= 30.0\ngini = 0.602\nsamples = 14\nvalue = [2, 7, 5]"] ;
291 -> 292 ;
293 [label="X[8] <= 0.5\ngini = 0.56\nsamples = 5\nvalue = [1, 1, 3]"] ;
292 -> 293 ;
294 [label="X[3] <= 4.5\ngini = 0.375\nsamples = 4\nvalue = [1, 0, 3]"] ;
293 -> 294 ;
295 [label="gini = 0.5\nsamples = 2\nvalue = [1, 0, 1]"] ;
294 -> 295 ;
296 [label="gini = 0.0\nsamples = 2\nvalue = [0, 0, 2]"] ;
294 -> 296 ;
297 [label="gini = 0.0\nsamples = 1\nvalue = [0, 1, 0]"] ;
293 -> 297 ;
298 [label="X[0] <= 36.5\ngini = 0.494\nsamples = 9\nvalue = [1, 6, 2]"] ;
292 -> 298 ;
299 [label="X[3] <= 4.5\ngini = 0.406\nsamples = 8\nvalue = [1, 6, 1]"] ;
298 -> 299 ;
300 [label="X[2] <= 3.5\ngini = 0.625\nsamples = 4\nvalue = [1, 2, 1]"] ;
299 -> 300 ;
301 [label="gini = 0.0\nsamples = 1\nvalue = [0, 1, 0]"] ;
300 -> 301 ;
302 [label="X[0] <= 32.5\ngini = 0.667\nsamples = 3\nvalue = [1, 1, 1]"] ;
300 -> 302 ;
303 [label="gini = 0.0\nsamples = 1\nvalue = [0, 1, 0]"] ;
302 -> 303 ;
304 [label="gini = 0.5\nsamples = 2\nvalue = [1, 0, 1]"] ;
302 -> 304 ;
305 [label="gini = 0.0\nsamples = 4\nvalue = [0, 4, 0]"] ;
299 -> 305 ;
306 [label="gini = 0.0\nsamples = 1\nvalue = [0, 0, 1]"] ;
298 -> 306 ;
307 [label="X[0] <= 30.5\ngini = 0.469\nsamples = 16\nvalue = [6, 0, 10]"] ;
291 -> 307 ;
308 [label="gini = 0.0\nsamples = 5\nvalue = [5, 0, 0]"] ;
307 -> 308 ;
309 [label="X[0] <= 33.0\ngini = 0.165\nsamples = 11\nvalue = [1, 0, 10]"] ;
307 -> 309 ;
310 [label="X[3] <= 4.5\ngini = 0.444\nsamples = 3\nvalue = [1, 0, 2]"] ;
309 -> 310 ;
311 [label="gini = 0.0\nsamples = 1\nvalue = [1, 0, 0]"] ;
310 -> 311 ;
312 [label="gini = 0.0\nsamples = 2\nvalue = [0, 0, 2]"] ;
310 -> 312 ;
313 [label="gini = 0.0\nsamples = 8\nvalue = [0, 0, 8]"] ;
309 -> 313 ;
314 [label="X[0] <= 32.5\ngini = 0.568\nsamples = 295\nvalue = [86, 40, 169]"] ;
274 -> 314 ;
315 [label="X[2] <= 1.5\ngini = 0.507\nsamples = 190\nvalue = [54, 15, 121]"] ;
314 -> 315 ;
316 [label="X[1] <= 1.5\ngini = 0.593\nsamples = 9\nvalue = [5, 2, 2]"] ;
315 -> 316 ;
317 [label="X[6] <= 3.5\ngini = 0.278\nsamples = 6\nvalue = [5, 0, 1]"] ;
316 -> 317 ;
318 [label="gini = 0.0\nsamples = 5\nvalue = [5, 0, 0]"] ;
317 -> 318 ;
319 [label="gini = 0.0\nsamples = 1\nvalue = [0, 0, 1]"] ;
317 -> 319 ;
320 [label="X[3] <= 3.5\ngini = 0.444\nsamples = 3\nvalue = [0, 2, 1]"] ;
316 -> 320 ;
321 [label="gini = 0.0\nsamples = 1\nvalue = [0, 0, 1]"] ;
320 -> 321 ;
322 [label="gini = 0.0\nsamples = 2\nvalue = [0, 2, 0]"] ;
320 -> 322 ;
323 [label="X[0] <= 21.5\ngini = 0.489\nsamples = 181\nvalue = [49, 13, 119]"] ;
315 -> 323 ;
324 [label="X[1] <= 2.5\ngini = 0.408\nsamples = 7\nvalue = [5, 0, 2]"] ;
323 -> 324 ;
325 [label="gini = 0.0\nsamples = 5\nvalue = [5, 0, 0]"] ;
324 -> 325 ;
326 [label="gini = 0.0\nsamples = 2\nvalue = [0, 0, 2]"] ;
324 -> 326 ;
327 [label="X[7] <= 2.5\ngini = 0.478\nsamples = 174\nvalue = [44, 13, 117]"] ;
323 -> 327 ;
328 [label="X[8] <= 0.5\ngini = 0.478\nsamples = 62\nvalue = [22, 1, 39]"] ;
327 -> 328 ;
329 [label="X[6] <= 3.5\ngini = 0.435\nsamples = 50\nvalue = [16, 0, 34]"] ;
328 -> 329 ;
330 [label="X[3] <= 3.5\ngini = 0.425\nsamples = 49\nvalue = [15, 0, 34]"] ;
329 -> 330 ;
331 [label="X[1] <= 1.5\ngini = 0.486\nsamples = 24\nvalue = [10, 0, 14]"] ;
330 -> 331 ;
332 [label="gini = 0.0\nsamples = 3\nvalue = [0, 0, 3]"] ;
331 -> 332 ;
333 [label="X[2] <= 2.5\ngini = 0.499\nsamples = 21\nvalue = [10, 0, 11]"] ;
331 -> 333 ;
334 [label="gini = 0.0\nsamples = 4\nvalue = [4, 0, 0]"] ;
333 -> 334 ;
335 [label="X[0] <= 25.5\ngini = 0.457\nsamples = 17\nvalue = [6, 0, 11]"] ;
333 -> 335 ;
336 [label="gini = 0.0\nsamples = 4\nvalue = [0, 0, 4]"] ;
335 -> 336 ;
337 [label="X[1] <= 2.5\ngini = 0.497\nsamples = 13\nvalue = [6, 0, 7]"] ;
335 -> 337 ;
338 [label="X[5] <= 0.5\ngini = 0.375\nsamples = 4\nvalue = [3, 0, 1]"] ;
337 -> 338 ;
339 [label="X[2] <= 3.5\ngini = 0.5\nsamples = 2\nvalue = [1, 0, 1]"] ;
338 -> 339 ;
340 [label="gini = 0.0\nsamples = 1\nvalue = [0, 0, 1]"] ;
339 -> 340 ;
341 [label="gini = 0.0\nsamples = 1\nvalue = [1, 0, 0]"] ;
339 -> 341 ;
342 [label="gini = 0.0\nsamples = 2\nvalue = [2, 0, 0]"] ;
338 -> 342 ;
343 [label="X[2] <= 3.5\ngini = 0.444\nsamples = 9\nvalue = [3, 0, 6]"] ;
337 -> 343 ;
344 [label="gini = 0.0\nsamples = 4\nvalue = [0, 0, 4]"] ;
343 -> 344 ;
345 [label="X[0] <= 30.0\ngini = 0.48\nsamples = 5\nvalue = [3, 0, 2]"] ;
343 -> 345 ;
346 [label="X[6] <= 2.5\ngini = 0.5\nsamples = 4\nvalue = [2, 0, 2]"] ;
345 -> 346 ;
347 [label="gini = 0.0\nsamples = 1\nvalue = [1, 0, 0]"] ;
346 -> 347 ;
348 [label="X[0] <= 27.5\ngini = 0.444\nsamples = 3\nvalue = [1, 0, 2]"] ;
346 -> 348 ;
349 [label="gini = 0.5\nsamples = 2\nvalue = [1, 0, 1]"] ;
348 -> 349 ;
350 [label="gini = 0.0\nsamples = 1\nvalue = [0, 0, 1]"] ;
348 -> 350 ;
351 [label="gini = 0.0\nsamples = 1\nvalue = [1, 0, 0]"] ;
345 -> 351 ;
352 [label="X[2] <= 2.5\ngini = 0.32\nsamples = 25\nvalue = [5, 0, 20]"] ;
330 -> 352 ;
353 [label="gini = 0.0\nsamples = 5\nvalue = [0, 0, 5]"] ;
352 -> 353 ;
354 [label="X[3] <= 4.5\ngini = 0.375\nsamples = 20\nvalue = [5, 0, 15]"] ;
352 -> 354 ;
355 [label="X[6] <= 2.5\ngini = 0.305\nsamples = 16\nvalue = [3, 0, 13]"] ;
354 -> 355 ;
356 [label="gini = 0.0\nsamples = 5\nvalue = [0, 0, 5]"] ;
355 -> 356 ;
357 [label="X[7] <= 1.5\ngini = 0.397\nsamples = 11\nvalue = [3, 0, 8]"] ;
355 -> 357 ;
358 [label="gini = 0.0\nsamples = 1\nvalue = [0, 0, 1]"] ;
357 -> 358 ;
359 [label="X[1] <= 1.5\ngini = 0.42\nsamples = 10\nvalue = [3, 0, 7]"] ;
357 -> 359 ;
360 [label="gini = 0.0\nsamples = 1\nvalue = [0, 0, 1]"] ;
359 -> 360 ;
361 [label="X[0] <= 27.0\ngini = 0.444\nsamples = 9\nvalue = [3, 0, 6]"] ;
359 -> 361 ;
362 [label="X[5] <= 0.5\ngini = 0.5\nsamples = 2\nvalue = [1, 0, 1]"] ;
361 -> 362 ;
363 [label="gini = 0.0\nsamples = 1\nvalue = [0, 0, 1]"] ;
362 -> 363 ;
364 [label="gini = 0.0\nsamples = 1\nvalue = [1, 0, 0]"] ;
362 -> 364 ;
365 [label="X[1] <= 2.5\ngini = 0.408\nsamples = 7\nvalue = [2, 0, 5]"] ;
361 -> 365 ;
366 [label="X[0] <= 29.5\ngini = 0.48\nsamples = 5\nvalue = [2, 0, 3]"] ;
365 -> 366 ;
367 [label="gini = 0.0\nsamples = 2\nvalue = [0, 0, 2]"] ;
366 -> 367 ;
368 [label="X[5] <= 0.5\ngini = 0.444\nsamples = 3\nvalue = [2, 0, 1]"] ;
366 -> 368 ;
369 [label="gini = 0.0\nsamples = 1\nvalue = [1, 0, 0]"] ;
368 -> 369 ;
370 [label="X[2] <= 3.5\ngini = 0.5\nsamples = 2\nvalue = [1, 0, 1]"] ;
368 -> 370 ;
371 [label="gini = 0.0\nsamples = 1\nvalue = [0, 0, 1]"] ;
370 -> 371 ;
372 [label="gini = 0.0\nsamples = 1\nvalue = [1, 0, 0]"] ;
370 -> 372 ;
373 [label="gini = 0.0\nsamples = 2\nvalue = [0, 0, 2]"] ;
365 -> 373 ;
374 [label="X[1] <= 2.5\ngini = 0.5\nsamples = 4\nvalue = [2, 0, 2]"] ;
354 -> 374 ;
375 [label="gini = 0.0\nsamples = 2\nvalue = [2, 0, 0]"] ;
374 -> 375 ;
376 [label="gini = 0.0\nsamples = 2\nvalue = [0, 0, 2]"] ;
374 -> 376 ;
377 [label="gini = 0.0\nsamples = 1\nvalue = [1, 0, 0]"] ;
329 -> 377 ;
378 [label="X[3] <= 3.5\ngini = 0.569\nsamples = 12\nvalue = [6, 1, 5]"] ;
328 -> 378 ;
379 [label="gini = 0.0\nsamples = 5\nvalue = [0, 0, 5]"] ;
378 -> 379 ;
380 [label="X[3] <= 4.5\ngini = 0.245\nsamples = 7\nvalue = [6, 1, 0]"] ;
378 -> 380 ;
381 [label="gini = 0.0\nsamples = 5\nvalue = [5, 0, 0]"] ;
380 -> 381 ;
382 [label="X[2] <= 2.5\ngini = 0.5\nsamples = 2\nvalue = [1, 1, 0]"] ;
380 -> 382 ;
383 [label="gini = 0.0\nsamples = 1\nvalue = [1, 0, 0]"] ;
382 -> 383 ;
384 [label="gini = 0.0\nsamples = 1\nvalue = [0, 1, 0]"] ;
382 -> 384 ;
385 [label="X[0] <= 24.5\ngini = 0.465\nsamples = 112\nvalue = [22, 12, 78]"] ;
327 -> 385 ;
386 [label="X[7] <= 3.5\ngini = 0.49\nsamples = 14\nvalue = [6, 0, 8]"] ;
385 -> 386 ;
387 [label="X[3] <= 5.5\ngini = 0.397\nsamples = 11\nvalue = [3, 0, 8]"] ;
386 -> 387 ;
388 [label="X[0] <= 22.5\ngini = 0.32\nsamples = 10\nvalue = [2, 0, 8]"] ;
387 -> 388 ;
389 [label="gini = 0.0\nsamples = 3\nvalue = [0, 0, 3]"] ;
388 -> 389 ;
390 [label="X[0] <= 23.5\ngini = 0.408\nsamples = 7\nvalue = [2, 0, 5]"] ;
388 -> 390 ;
391 [label="X[6] <= 2.5\ngini = 0.5\nsamples = 2\nvalue = [1, 0, 1]"] ;
390 -> 391 ;
392 [label="gini = 0.0\nsamples = 1\nvalue = [0, 0, 1]"] ;
391 -> 392 ;
393 [label="gini = 0.0\nsamples = 1\nvalue = [1, 0, 0]"] ;
391 -> 393 ;
394 [label="X[6] <= 2.5\ngini = 0.32\nsamples = 5\nvalue = [1, 0, 4]"] ;
390 -> 394 ;
395 [label="X[2] <= 3.5\ngini = 0.5\nsamples = 2\nvalue = [1, 0, 1]"] ;
394 -> 395 ;
396 [label="gini = 0.0\nsamples = 1\nvalue = [1, 0, 0]"] ;
395 -> 396 ;
397 [label="gini = 0.0\nsamples = 1\nvalue = [0, 0, 1]"] ;
395 -> 397 ;
398 [label="gini = 0.0\nsamples = 3\nvalue = [0, 0, 3]"] ;
394 -> 398 ;
399 [label="gini = 0.0\nsamples = 1\nvalue = [1, 0, 0]"] ;
387 -> 399 ;
400 [label="gini = 0.0\nsamples = 3\nvalue = [3, 0, 0]"] ;
386 -> 400 ;
401 [label="X[4] <= 0.5\ngini = 0.448\nsamples = 98\nvalue = [16, 12, 70]"] ;
385 -> 401 ;
402 [label="X[3] <= 4.5\ngini = 0.5\nsamples = 6\nvalue = [3, 0, 3]"] ;
401 -> 402 ;
403 [label="X[6] <= 2.5\ngini = 0.375\nsamples = 4\nvalue = [3, 0, 1]"] ;
402 -> 403 ;
404 [label="gini = 0.0\nsamples = 3\nvalue = [3, 0, 0]"] ;
403 -> 404 ;
405 [label="gini = 0.0\nsamples = 1\nvalue = [0, 0, 1]"] ;
403 -> 405 ;
406 [label="gini = 0.0\nsamples = 2\nvalue = [0, 0, 2]"] ;
402 -> 406 ;
407 [label="X[3] <= 5.5\ngini = 0.433\nsamples = 92\nvalue = [13, 12, 67]"] ;
401 -> 407 ;
408 [label="X[1] <= 1.5\ngini = 0.397\nsamples = 78\nvalue = [11, 8, 59]"] ;
407 -> 408 ;
409 [label="gini = 0.0\nsamples = 8\nvalue = [0, 0, 8]"] ;
408 -> 409 ;
410 [label="X[8] <= 0.5\ngini = 0.431\nsamples = 70\nvalue = [11, 8, 51]"] ;
408 -> 410 ;
411 [label="X[2] <= 3.5\ngini = 0.418\nsamples = 69\nvalue = [11, 7, 51]"] ;
410 -> 411 ;
412 [label="X[7] <= 3.5\ngini = 0.478\nsamples = 37\nvalue = [9, 3, 25]"] ;
411 -> 412 ;
413 [label="X[5] <= 0.5\ngini = 0.364\nsamples = 18\nvalue = [3, 1, 14]"] ;
412 -> 413 ;
414 [label="X[1] <= 2.5\ngini = 0.5\nsamples = 2\nvalue = [0, 1, 1]"] ;
413 -> 414 ;
415 [label="gini = 0.0\nsamples = 1\nvalue = [0, 0, 1]"] ;
414 -> 415 ;
416 [label="gini = 0.0\nsamples = 1\nvalue = [0, 1, 0]"] ;
414 -> 416 ;
417 [label="X[2] <= 2.5\ngini = 0.305\nsamples = 16\nvalue = [3, 0, 13]"] ;
413 -> 417 ;
418 [label="X[0] <= 26.0\ngini = 0.444\nsamples = 6\nvalue = [2, 0, 4]"] ;
417 -> 418 ;
419 [label="gini = 0.0\nsamples = 1\nvalue = [1, 0, 0]"] ;
418 -> 419 ;
420 [label="X[3] <= 4.5\ngini = 0.32\nsamples = 5\nvalue = [1, 0, 4]"] ;
418 -> 420 ;
421 [label="X[0] <= 30.5\ngini = 0.444\nsamples = 3\nvalue = [1, 0, 2]"] ;
420 -> 421 ;
422 [label="gini = 0.0\nsamples = 1\nvalue = [0, 0, 1]"] ;
421 -> 422 ;
423 [label="gini = 0.5\nsamples = 2\nvalue = [1, 0, 1]"] ;
421 -> 423 ;
424 [label="gini = 0.0\nsamples = 2\nvalue = [0, 0, 2]"] ;
420 -> 424 ;
425 [label="X[3] <= 4.5\ngini = 0.18\nsamples = 10\nvalue = [1, 0, 9]"] ;
417 -> 425 ;
426 [label="gini = 0.0\nsamples = 8\nvalue = [0, 0, 8]"] ;
425 -> 426 ;
427 [label="X[6] <= 2.5\ngini = 0.5\nsamples = 2\nvalue = [1, 0, 1]"] ;
425 -> 427 ;
428 [label="gini = 0.0\nsamples = 1\nvalue = [0, 0, 1]"] ;
427 -> 428 ;
429 [label="gini = 0.0\nsamples = 1\nvalue = [1, 0, 0]"] ;
427 -> 429 ;
430 [label="X[0] <= 27.5\ngini = 0.554\nsamples = 19\nvalue = [6, 2, 11]"] ;
412 -> 430 ;
431 [label="X[2] <= 2.5\ngini = 0.625\nsamples = 8\nvalue = [4, 2, 2]"] ;
430 -> 431 ;
432 [label="X[3] <= 4.5\ngini = 0.444\nsamples = 3\nvalue = [0, 2, 1]"] ;
431 -> 432 ;
433 [label="X[1] <= 2.5\ngini = 0.5\nsamples = 2\nvalue = [0, 1, 1]"] ;
432 -> 433 ;
434 [label="gini = 0.0\nsamples = 1\nvalue = [0, 1, 0]"] ;
433 -> 434 ;
435 [label="gini = 0.0\nsamples = 1\nvalue = [0, 0, 1]"] ;
433 -> 435 ;
436 [label="gini = 0.0\nsamples = 1\nvalue = [0, 1, 0]"] ;
432 -> 436 ;
437 [label="X[3] <= 4.5\ngini = 0.32\nsamples = 5\nvalue = [4, 0, 1]"] ;
431 -> 437 ;
438 [label="gini = 0.0\nsamples = 4\nvalue = [4, 0, 0]"] ;
437 -> 438 ;
439 [label="gini = 0.0\nsamples = 1\nvalue = [0, 0, 1]"] ;
437 -> 439 ;
440 [label="X[5] <= 0.5\ngini = 0.298\nsamples = 11\nvalue = [2, 0, 9]"] ;
430 -> 440 ;
441 [label="X[1] <= 2.5\ngini = 0.48\nsamples = 5\nvalue = [2, 0, 3]"] ;
440 -> 441 ;
442 [label="gini = 0.0\nsamples = 2\nvalue = [0, 0, 2]"] ;
441 -> 442 ;
443 [label="X[0] <= 28.5\ngini = 0.444\nsamples = 3\nvalue = [2, 0, 1]"] ;
441 -> 443 ;
444 [label="gini = 0.0\nsamples = 1\nvalue = [0, 0, 1]"] ;
443 -> 444 ;
445 [label="gini = 0.0\nsamples = 2\nvalue = [2, 0, 0]"] ;
443 -> 445 ;
446 [label="gini = 0.0\nsamples = 6\nvalue = [0, 0, 6]"] ;
440 -> 446 ;
447 [label="X[3] <= 3.5\ngini = 0.32\nsamples = 32\nvalue = [2, 4, 26]"] ;
411 -> 447 ;
448 [label="X[6] <= 2.5\ngini = 0.41\nsamples = 19\nvalue = [1, 4, 14]"] ;
447 -> 448 ;
449 [label="X[7] <= 3.5\ngini = 0.5\nsamples = 4\nvalue = [0, 2, 2]"] ;
448 -> 449 ;
450 [label="X[0] <= 28.0\ngini = 0.444\nsamples = 3\nvalue = [0, 2, 1]"] ;
449 -> 450 ;
451 [label="gini = 0.0\nsamples = 2\nvalue = [0, 2, 0]"] ;
450 -> 451 ;
452 [label="gini = 0.0\nsamples = 1\nvalue = [0, 0, 1]"] ;
450 -> 452 ;
453 [label="gini = 0.0\nsamples = 1\nvalue = [0, 0, 1]"] ;
449 -> 453 ;
454 [label="X[7] <= 3.5\ngini = 0.338\nsamples = 15\nvalue = [1, 2, 12]"] ;
448 -> 454 ;
455 [label="gini = 0.0\nsamples = 5\nvalue = [0, 0, 5]"] ;
454 -> 455 ;
456 [label="X[0] <= 25.5\ngini = 0.46\nsamples = 10\nvalue = [1, 2, 7]"] ;
454 -> 456 ;
457 [label="gini = 0.0\nsamples = 2\nvalue = [0, 0, 2]"] ;
456 -> 457 ;
458 [label="X[0] <= 26.5\ngini = 0.531\nsamples = 8\nvalue = [1, 2, 5]"] ;
456 -> 458 ;
459 [label="X[1] <= 2.5\ngini = 0.625\nsamples = 4\nvalue = [1, 1, 2]"] ;
458 -> 459 ;
460 [label="gini = 0.444\nsamples = 3\nvalue = [1, 0, 2]"] ;
459 -> 460 ;
461 [label="gini = 0.0\nsamples = 1\nvalue = [0, 1, 0]"] ;
459 -> 461 ;
462 [label="X[1] <= 2.5\ngini = 0.375\nsamples = 4\nvalue = [0, 1, 3]"] ;
458 -> 462 ;
463 [label="X[6] <= 3.5\ngini = 0.444\nsamples = 3\nvalue = [0, 1, 2]"] ;
462 -> 463 ;
464 [label="X[0] <= 31.0\ngini = 0.5\nsamples = 2\nvalue = [0, 1, 1]"] ;
463 -> 464 ;
465 [label="gini = 0.0\nsamples = 1\nvalue = [0, 1, 0]"] ;
464 -> 465 ;
466 [label="gini = 0.0\nsamples = 1\nvalue = [0, 0, 1]"] ;
464 -> 466 ;
467 [label="gini = 0.0\nsamples = 1\nvalue = [0, 0, 1]"] ;
463 -> 467 ;
468 [label="gini = 0.0\nsamples = 1\nvalue = [0, 0, 1]"] ;
462 -> 468 ;
469 [label="X[0] <= 31.5\ngini = 0.142\nsamples = 13\nvalue = [1, 0, 12]"] ;
447 -> 469 ;
470 [label="gini = 0.0\nsamples = 11\nvalue = [0, 0, 11]"] ;
469 -> 470 ;
471 [label="X[6] <= 2.5\ngini = 0.5\nsamples = 2\nvalue = [1, 0, 1]"] ;
469 -> 471 ;
472 [label="gini = 0.0\nsamples = 1\nvalue = [1, 0, 0]"] ;
471 -> 472 ;
473 [label="gini = 0.0\nsamples = 1\nvalue = [0, 0, 1]"] ;
471 -> 473 ;
474 [label="gini = 0.0\nsamples = 1\nvalue = [0, 1, 0]"] ;
410 -> 474 ;
475 [label="X[1] <= 1.5\ngini = 0.571\nsamples = 14\nvalue = [2, 4, 8]"] ;
407 -> 475 ;
476 [label="gini = 0.0\nsamples = 1\nvalue = [1, 0, 0]"] ;
475 -> 476 ;
477 [label="X[7] <= 3.5\ngini = 0.521\nsamples = 13\nvalue = [1, 4, 8]"] ;
475 -> 477 ;
478 [label="X[0] <= 31.5\ngini = 0.406\nsamples = 8\nvalue = [1, 1, 6]"] ;
477 -> 478 ;
479 [label="gini = 0.0\nsamples = 5\nvalue = [0, 0, 5]"] ;
478 -> 479 ;
480 [label="X[6] <= 2.5\ngini = 0.667\nsamples = 3\nvalue = [1, 1, 1]"] ;
478 -> 480 ;
481 [label="X[1] <= 2.5\ngini = 0.5\nsamples = 2\nvalue = [1, 0, 1]"] ;
480 -> 481 ;
482 [label="gini = 0.0\nsamples = 1\nvalue = [0, 0, 1]"] ;
481 -> 482 ;
483 [label="gini = 0.0\nsamples = 1\nvalue = [1, 0, 0]"] ;
481 -> 483 ;
484 [label="gini = 0.0\nsamples = 1\nvalue = [0, 1, 0]"] ;
480 -> 484 ;
485 [label="X[2] <= 3.5\ngini = 0.48\nsamples = 5\nvalue = [0, 3, 2]"] ;
477 -> 485 ;
486 [label="X[2] <= 2.5\ngini = 0.444\nsamples = 3\nvalue = [0, 1, 2]"] ;
485 -> 486 ;
487 [label="gini = 0.0\nsamples = 1\nvalue = [0, 1, 0]"] ;
486 -> 487 ;
488 [label="gini = 0.0\nsamples = 2\nvalue = [0, 0, 2]"] ;
486 -> 488 ;
489 [label="gini = 0.0\nsamples = 2\nvalue = [0, 2, 0]"] ;
485 -> 489 ;
490 [label="X[0] <= 33.5\ngini = 0.641\nsamples = 105\nvalue = [32, 25, 48]"] ;
314 -> 490 ;
491 [label="X[4] <= 0.5\ngini = 0.571\nsamples = 23\nvalue = [3, 7, 13]"] ;
490 -> 491 ;
492 [label="X[2] <= 3.0\ngini = 0.444\nsamples = 3\nvalue = [1, 2, 0]"] ;
491 -> 492 ;
493 [label="gini = 0.0\nsamples = 1\nvalue = [1, 0, 0]"] ;
492 -> 493 ;
494 [label="gini = 0.0\nsamples = 2\nvalue = [0, 2, 0]"] ;
492 -> 494 ;
495 [label="X[2] <= 3.5\ngini = 0.505\nsamples = 20\nvalue = [2, 5, 13]"] ;
491 -> 495 ;
496 [label="X[3] <= 6.5\ngini = 0.602\nsamples = 14\nvalue = [2, 5, 7]"] ;
495 -> 496 ;
497 [label="X[3] <= 4.5\ngini = 0.628\nsamples = 11\nvalue = [2, 5, 4]"] ;
496 -> 497 ;
498 [label="X[7] <= 3.5\ngini = 0.5\nsamples = 6\nvalue = [1, 1, 4]"] ;
497 -> 498 ;
499 [label="X[2] <= 2.5\ngini = 0.32\nsamples = 5\nvalue = [0, 1, 4]"] ;
498 -> 499 ;
500 [label="gini = 0.0\nsamples = 1\nvalue = [0, 1, 0]"] ;
499 -> 500 ;
501 [label="gini = 0.0\nsamples = 4\nvalue = [0, 0, 4]"] ;
499 -> 501 ;
502 [label="gini = 0.0\nsamples = 1\nvalue = [1, 0, 0]"] ;
498 -> 502 ;
503 [label="X[1] <= 1.5\ngini = 0.32\nsamples = 5\nvalue = [1, 4, 0]"] ;
497 -> 503 ;
504 [label="gini = 0.0\nsamples = 1\nvalue = [1, 0, 0]"] ;
503 -> 504 ;
505 [label="gini = 0.0\nsamples = 4\nvalue = [0, 4, 0]"] ;
503 -> 505 ;
506 [label="gini = 0.0\nsamples = 3\nvalue = [0, 0, 3]"] ;
496 -> 506 ;
507 [label="gini = 0.0\nsamples = 6\nvalue = [0, 0, 6]"] ;
495 -> 507 ;
508 [label="X[1] <= 2.5\ngini = 0.645\nsamples = 82\nvalue = [29, 18, 35]"] ;
490 -> 508 ;
509 [label="X[3] <= 7.5\ngini = 0.604\nsamples = 54\nvalue = [17, 9, 28]"] ;
508 -> 509 ;
510 [label="X[5] <= 0.5\ngini = 0.571\nsamples = 47\nvalue = [13, 7, 27]"] ;
509 -> 510 ;
511 [label="X[0] <= 34.5\ngini = 0.604\nsamples = 15\nvalue = [7, 2, 6]"] ;
510 -> 511 ;
512 [label="gini = 0.0\nsamples = 4\nvalue = [4, 0, 0]"] ;
511 -> 512 ;
513 [label="X[3] <= 3.5\ngini = 0.595\nsamples = 11\nvalue = [3, 2, 6]"] ;
511 -> 513 ;
514 [label="gini = 0.0\nsamples = 1\nvalue = [0, 1, 0]"] ;
513 -> 514 ;
515 [label="X[7] <= 1.5\ngini = 0.54\nsamples = 10\nvalue = [3, 1, 6]"] ;
513 -> 515 ;
516 [label="gini = 0.0\nsamples = 1\nvalue = [1, 0, 0]"] ;
515 -> 516 ;
517 [label="X[0] <= 36.5\ngini = 0.494\nsamples = 9\nvalue = [2, 1, 6]"] ;
515 -> 517 ;
518 [label="X[1] <= 1.5\ngini = 0.278\nsamples = 6\nvalue = [0, 1, 5]"] ;
517 -> 518 ;
519 [label="X[8] <= 0.5\ngini = 0.5\nsamples = 2\nvalue = [0, 1, 1]"] ;
518 -> 519 ;
520 [label="gini = 0.0\nsamples = 1\nvalue = [0, 0, 1]"] ;
519 -> 520 ;
521 [label="gini = 0.0\nsamples = 1\nvalue = [0, 1, 0]"] ;
519 -> 521 ;
522 [label="gini = 0.0\nsamples = 4\nvalue = [0, 0, 4]"] ;
518 -> 522 ;
523 [label="X[2] <= 3.5\ngini = 0.444\nsamples = 3\nvalue = [2, 0, 1]"] ;
517 -> 523 ;
524 [label="gini = 0.0\nsamples = 2\nvalue = [2, 0, 0]"] ;
523 -> 524 ;
525 [label="gini = 0.0\nsamples = 1\nvalue = [0, 0, 1]"] ;
523 -> 525 ;
526 [label="X[0] <= 35.5\ngini = 0.51\nsamples = 32\nvalue = [6, 5, 21]"] ;
510 -> 526 ;
527 [label="X[7] <= 3.5\ngini = 0.32\nsamples = 15\nvalue = [0, 3, 12]"] ;
526 -> 527 ;
528 [label="X[4] <= 0.5\ngini = 0.165\nsamples = 11\nvalue = [0, 1, 10]"] ;
527 -> 528 ;
529 [label="X[2] <= 3.5\ngini = 0.444\nsamples = 3\nvalue = [0, 1, 2]"] ;
528 -> 529 ;
530 [label="gini = 0.0\nsamples = 2\nvalue = [0, 0, 2]"] ;
529 -> 530 ;
531 [label="gini = 0.0\nsamples = 1\nvalue = [0, 1, 0]"] ;
529 -> 531 ;
532 [label="gini = 0.0\nsamples = 8\nvalue = [0, 0, 8]"] ;
528 -> 532 ;
533 [label="X[2] <= 3.0\ngini = 0.5\nsamples = 4\nvalue = [0, 2, 2]"] ;
527 -> 533 ;
534 [label="gini = 0.0\nsamples = 2\nvalue = [0, 2, 0]"] ;
533 -> 534 ;
535 [label="gini = 0.0\nsamples = 2\nvalue = [0, 0, 2]"] ;
533 -> 535 ;
536 [label="X[6] <= 2.5\ngini = 0.581\nsamples = 17\nvalue = [6, 2, 9]"] ;
526 -> 536 ;
537 [label="X[7] <= 2.0\ngini = 0.531\nsamples = 8\nvalue = [5, 1, 2]"] ;
536 -> 537 ;
538 [label="gini = 0.0\nsamples = 1\nvalue = [0, 1, 0]"] ;
537 -> 538 ;
539 [label="X[7] <= 3.5\ngini = 0.408\nsamples = 7\nvalue = [5, 0, 2]"] ;
537 -> 539 ;
540 [label="X[3] <= 3.5\ngini = 0.278\nsamples = 6\nvalue = [5, 0, 1]"] ;
539 -> 540 ;
541 [label="gini = 0.0\nsamples = 1\nvalue = [0, 0, 1]"] ;
540 -> 541 ;
542 [label="gini = 0.0\nsamples = 5\nvalue = [5, 0, 0]"] ;
540 -> 542 ;
543 [label="gini = 0.0\nsamples = 1\nvalue = [0, 0, 1]"] ;
539 -> 543 ;
544 [label="X[8] <= 0.5\ngini = 0.37\nsamples = 9\nvalue = [1, 1, 7]"] ;
536 -> 544 ;
545 [label="X[3] <= 6.5\ngini = 0.245\nsamples = 7\nvalue = [0, 1, 6]"] ;
544 -> 545 ;
546 [label="gini = 0.0\nsamples = 5\nvalue = [0, 0, 5]"] ;
545 -> 546 ;
547 [label="X[0] <= 36.5\ngini = 0.5\nsamples = 2\nvalue = [0, 1, 1]"] ;
545 -> 547 ;
548 [label="gini = 0.0\nsamples = 1\nvalue = [0, 0, 1]"] ;
547 -> 548 ;
549 [label="gini = 0.0\nsamples = 1\nvalue = [0, 1, 0]"] ;
547 -> 549 ;
550 [label="X[2] <= 2.5\ngini = 0.5\nsamples = 2\nvalue = [1, 0, 1]"] ;
544 -> 550 ;
551 [label="gini = 0.0\nsamples = 1\nvalue = [0, 0, 1]"] ;
550 -> 551 ;
552 [label="gini = 0.0\nsamples = 1\nvalue = [1, 0, 0]"] ;
550 -> 552 ;
553 [label="X[7] <= 2.5\ngini = 0.571\nsamples = 7\nvalue = [4, 2, 1]"] ;
509 -> 553 ;
554 [label="X[2] <= 2.5\ngini = 0.444\nsamples = 3\nvalue = [1, 2, 0]"] ;
553 -> 554 ;
555 [label="gini = 0.0\nsamples = 2\nvalue = [0, 2, 0]"] ;
554 -> 555 ;
556 [label="gini = 0.0\nsamples = 1\nvalue = [1, 0, 0]"] ;
554 -> 556 ;
557 [label="X[2] <= 2.5\ngini = 0.375\nsamples = 4\nvalue = [3, 0, 1]"] ;
553 -> 557 ;
558 [label="gini = 0.0\nsamples = 2\nvalue = [2, 0, 0]"] ;
557 -> 558 ;
559 [label="X[8] <= 0.5\ngini = 0.5\nsamples = 2\nvalue = [1, 0, 1]"] ;
557 -> 559 ;
560 [label="gini = 0.0\nsamples = 1\nvalue = [0, 0, 1]"] ;
559 -> 560 ;
561 [label="gini = 0.0\nsamples = 1\nvalue = [1, 0, 0]"] ;
559 -> 561 ;
562 [label="X[7] <= 3.5\ngini = 0.651\nsamples = 28\nvalue = [12, 9, 7]"] ;
508 -> 562 ;
563 [label="X[5] <= 0.5\ngini = 0.539\nsamples = 16\nvalue = [9, 6, 1]"] ;
562 -> 563 ;
564 [label="gini = 0.0\nsamples = 4\nvalue = [4, 0, 0]"] ;
563 -> 564 ;
565 [label="X[0] <= 36.5\ngini = 0.569\nsamples = 12\nvalue = [5, 6, 1]"] ;
563 -> 565 ;
566 [label="X[4] <= 0.5\ngini = 0.444\nsamples = 9\nvalue = [3, 6, 0]"] ;
565 -> 566 ;
567 [label="gini = 0.0\nsamples = 1\nvalue = [1, 0, 0]"] ;
566 -> 567 ;
568 [label="X[3] <= 7.5\ngini = 0.375\nsamples = 8\nvalue = [2, 6, 0]"] ;
566 -> 568 ;
569 [label="X[0] <= 34.5\ngini = 0.245\nsamples = 7\nvalue = [1, 6, 0]"] ;
568 -> 569 ;
570 [label="X[6] <= 2.5\ngini = 0.5\nsamples = 2\nvalue = [1, 1, 0]"] ;
569 -> 570 ;
571 [label="gini = 0.0\nsamples = 1\nvalue = [1, 0, 0]"] ;
570 -> 571 ;
572 [label="gini = 0.0\nsamples = 1\nvalue = [0, 1, 0]"] ;
570 -> 572 ;
573 [label="gini = 0.0\nsamples = 5\nvalue = [0, 5, 0]"] ;
569 -> 573 ;
574 [label="gini = 0.0\nsamples = 1\nvalue = [1, 0, 0]"] ;
568 -> 574 ;
575 [label="X[7] <= 2.5\ngini = 0.444\nsamples = 3\nvalue = [2, 0, 1]"] ;
565 -> 575 ;
576 [label="gini = 0.0\nsamples = 2\nvalue = [2, 0, 0]"] ;
575 -> 576 ;
577 [label="gini = 0.0\nsamples = 1\nvalue = [0, 0, 1]"] ;
575 -> 577 ;
578 [label="X[3] <= 8.0\ngini = 0.625\nsamples = 12\nvalue = [3, 3, 6]"] ;
562 -> 578 ;
579 [label="X[0] <= 36.5\ngini = 0.66\nsamples = 10\nvalue = [3, 3, 4]"] ;
578 -> 579 ;
580 [label="X[3] <= 3.5\ngini = 0.56\nsamples = 5\nvalue = [1, 3, 1]"] ;
579 -> 580 ;
581 [label="X[0] <= 35.0\ngini = 0.5\nsamples = 2\nvalue = [0, 1, 1]"] ;
580 -> 581 ;
582 [label="gini = 0.0\nsamples = 1\nvalue = [0, 0, 1]"] ;
581 -> 582 ;
583 [label="gini = 0.0\nsamples = 1\nvalue = [0, 1, 0]"] ;
581 -> 583 ;
584 [label="X[0] <= 35.0\ngini = 0.444\nsamples = 3\nvalue = [1, 2, 0]"] ;
580 -> 584 ;
585 [label="gini = 0.0\nsamples = 1\nvalue = [0, 1, 0]"] ;
584 -> 585 ;
586 [label="X[3] <= 5.0\ngini = 0.5\nsamples = 2\nvalue = [1, 1, 0]"] ;
584 -> 586 ;
587 [label="gini = 0.0\nsamples = 1\nvalue = [0, 1, 0]"] ;
586 -> 587 ;
588 [label="gini = 0.0\nsamples = 1\nvalue = [1, 0, 0]"] ;
586 -> 588 ;
589 [label="X[4] <= 0.5\ngini = 0.48\nsamples = 5\nvalue = [2, 0, 3]"] ;
579 -> 589 ;
590 [label="gini = 0.0\nsamples = 2\nvalue = [0, 0, 2]"] ;
589 -> 590 ;
591 [label="X[5] <= 0.5\ngini = 0.444\nsamples = 3\nvalue = [2, 0, 1]"] ;
589 -> 591 ;
592 [label="X[3] <= 4.5\ngini = 0.5\nsamples = 2\nvalue = [1, 0, 1]"] ;
591 -> 592 ;
593 [label="gini = 0.0\nsamples = 1\nvalue = [1, 0, 0]"] ;
592 -> 593 ;
594 [label="gini = 0.0\nsamples = 1\nvalue = [0, 0, 1]"] ;
592 -> 594 ;
595 [label="gini = 0.0\nsamples = 1\nvalue = [1, 0, 0]"] ;
591 -> 595 ;
596 [label="gini = 0.0\nsamples = 2\nvalue = [0, 0, 2]"] ;
578 -> 596 ;
597 [label="X[3] <= 2.5\ngini = 0.652\nsamples = 369\nvalue = [90, 126, 153]"] ;
9 -> 597 ;
598 [label="X[6] <= 1.5\ngini = 0.657\nsamples = 211\nvalue = [63, 61, 87]"] ;
597 -> 598 ;
599 [label="X[0] <= 32.5\ngini = 0.666\nsamples = 107\nvalue = [37, 37, 33]"] ;
598 -> 599 ;
600 [label="X[0] <= 20.5\ngini = 0.661\nsamples = 86\nvalue = [27, 34, 25]"] ;
599 -> 600 ;
601 [label="X[3] <= 1.5\ngini = 0.48\nsamples = 5\nvalue = [2, 0, 3]"] ;
600 -> 601 ;
602 [label="X[7] <= 3.5\ngini = 0.444\nsamples = 3\nvalue = [2, 0, 1]"] ;
601 -> 602 ;
603 [label="gini = 0.5\nsamples = 2\nvalue = [1, 0, 1]"] ;
602 -> 603 ;
604 [label="gini = 0.0\nsamples = 1\nvalue = [1, 0, 0]"] ;
602 -> 604 ;
605 [label="gini = 0.0\nsamples = 2\nvalue = [0, 0, 2]"] ;
601 -> 605 ;
606 [label="X[0] <= 23.5\ngini = 0.655\nsamples = 81\nvalue = [25, 34, 22]"] ;
600 -> 606 ;
607 [label="X[3] <= 1.5\ngini = 0.397\nsamples = 11\nvalue = [3, 8, 0]"] ;
606 -> 607 ;
608 [label="X[0] <= 21.5\ngini = 0.198\nsamples = 9\nvalue = [1, 8, 0]"] ;
607 -> 608 ;
609 [label="X[7] <= 3.5\ngini = 0.375\nsamples = 4\nvalue = [1, 3, 0]"] ;
608 -> 609 ;
610 [label="gini = 0.0\nsamples = 1\nvalue = [0, 1, 0]"] ;
609 -> 610 ;
611 [label="gini = 0.444\nsamples = 3\nvalue = [1, 2, 0]"] ;
609 -> 611 ;
612 [label="gini = 0.0\nsamples = 5\nvalue = [0, 5, 0]"] ;
608 -> 612 ;
613 [label="gini = 0.0\nsamples = 2\nvalue = [2, 0, 0]"] ;
607 -> 613 ;
614 [label="X[3] <= 1.5\ngini = 0.664\nsamples = 70\nvalue = [22, 26, 22]"] ;
606 -> 614 ;
615 [label="X[0] <= 25.5\ngini = 0.649\nsamples = 37\nvalue = [16, 9, 12]"] ;
614 -> 615 ;
616 [label="X[7] <= 3.5\ngini = 0.631\nsamples = 15\nvalue = [3, 5, 7]"] ;
615 -> 616 ;
617 [label="X[5] <= 0.5\ngini = 0.5\nsamples = 4\nvalue = [2, 0, 2]"] ;
616 -> 617 ;
618 [label="gini = 0.0\nsamples = 1\nvalue = [1, 0, 0]"] ;
617 -> 618 ;
619 [label="X[0] <= 24.5\ngini = 0.444\nsamples = 3\nvalue = [1, 0, 2]"] ;
617 -> 619 ;
620 [label="gini = 0.0\nsamples = 2\nvalue = [0, 0, 2]"] ;
619 -> 620 ;
621 [label="gini = 0.0\nsamples = 1\nvalue = [1, 0, 0]"] ;
619 -> 621 ;
622 [label="X[4] <= 0.5\ngini = 0.579\nsamples = 11\nvalue = [1, 5, 5]"] ;
616 -> 622 ;
623 [label="gini = 0.0\nsamples = 1\nvalue = [0, 0, 1]"] ;
622 -> 623 ;
624 [label="X[0] <= 24.5\ngini = 0.58\nsamples = 10\nvalue = [1, 5, 4]"] ;
622 -> 624 ;
625 [label="X[5] <= 0.5\ngini = 0.48\nsamples = 5\nvalue = [0, 3, 2]"] ;
624 -> 625 ;
626 [label="gini = 0.5\nsamples = 2\nvalue = [0, 1, 1]"] ;
625 -> 626 ;
627 [label="gini = 0.444\nsamples = 3\nvalue = [0, 2, 1]"] ;
625 -> 627 ;
628 [label="X[5] <= 0.5\ngini = 0.64\nsamples = 5\nvalue = [1, 2, 2]"] ;
624 -> 628 ;
629 [label="gini = 0.0\nsamples = 1\nvalue = [0, 1, 0]"] ;
628 -> 629 ;
630 [label="gini = 0.625\nsamples = 4\nvalue = [1, 1, 2]"] ;
628 -> 630 ;
631 [label="X[0] <= 26.5\ngini = 0.566\nsamples = 22\nvalue = [13, 4, 5]"] ;
615 -> 631 ;
632 [label="X[7] <= 3.5\ngini = 0.278\nsamples = 6\nvalue = [5, 1, 0]"] ;
631 -> 632 ;
633 [label="X[5] <= 0.5\ngini = 0.5\nsamples = 2\nvalue = [1, 1, 0]"] ;
632 -> 633 ;
634 [label="gini = 0.0\nsamples = 1\nvalue = [0, 1, 0]"] ;
633 -> 634 ;
635 [label="gini = 0.0\nsamples = 1\nvalue = [1, 0, 0]"] ;
633 -> 635 ;
636 [label="gini = 0.0\nsamples = 4\nvalue = [4, 0, 0]"] ;
632 -> 636 ;
637 [label="X[0] <= 31.5\ngini = 0.617\nsamples = 16\nvalue = [8, 3, 5]"] ;
631 -> 637 ;
638 [label="X[7] <= 3.5\ngini = 0.651\nsamples = 13\nvalue = [5, 3, 5]"] ;
637 -> 638 ;
639 [label="X[0] <= 28.5\ngini = 0.444\nsamples = 6\nvalue = [4, 0, 2]"] ;
638 -> 639 ;
640 [label="X[7] <= 2.5\ngini = 0.48\nsamples = 5\nvalue = [3, 0, 2]"] ;
639 -> 640 ;
641 [label="gini = 0.0\nsamples = 1\nvalue = [1, 0, 0]"] ;
640 -> 641 ;
642 [label="X[0] <= 27.5\ngini = 0.5\nsamples = 4\nvalue = [2, 0, 2]"] ;
640 -> 642 ;
643 [label="gini = 0.0\nsamples = 1\nvalue = [0, 0, 1]"] ;
642 -> 643 ;
644 [label="X[4] <= 0.5\ngini = 0.444\nsamples = 3\nvalue = [2, 0, 1]"] ;
642 -> 644 ;
645 [label="gini = 0.0\nsamples = 1\nvalue = [1, 0, 0]"] ;
644 -> 645 ;
646 [label="X[5] <= 0.5\ngini = 0.5\nsamples = 2\nvalue = [1, 0, 1]"] ;
644 -> 646 ;
647 [label="gini = 0.0\nsamples = 1\nvalue = [1, 0, 0]"] ;
646 -> 647 ;
648 [label="gini = 0.0\nsamples = 1\nvalue = [0, 0, 1]"] ;
646 -> 648 ;
649 [label="gini = 0.0\nsamples = 1\nvalue = [1, 0, 0]"] ;
639 -> 649 ;
650 [label="X[5] <= 0.5\ngini = 0.612\nsamples = 7\nvalue = [1, 3, 3]"] ;
638 -> 650 ;
651 [label="X[4] <= 0.5\ngini = 0.5\nsamples = 2\nvalue = [1, 1, 0]"] ;
650 -> 651 ;
652 [label="gini = 0.0\nsamples = 1\nvalue = [0, 1, 0]"] ;
651 -> 652 ;
653 [label="gini = 0.0\nsamples = 1\nvalue = [1, 0, 0]"] ;
651 -> 653 ;
654 [label="X[0] <= 28.5\ngini = 0.48\nsamples = 5\nvalue = [0, 2, 3]"] ;
650 -> 654 ;
655 [label="gini = 0.5\nsamples = 2\nvalue = [0, 1, 1]"] ;
654 -> 655 ;
656 [label="X[0] <= 30.5\ngini = 0.444\nsamples = 3\nvalue = [0, 1, 2]"] ;
654 -> 656 ;
657 [label="gini = 0.0\nsamples = 1\nvalue = [0, 0, 1]"] ;
656 -> 657 ;
658 [label="gini = 0.5\nsamples = 2\nvalue = [0, 1, 1]"] ;
656 -> 658 ;
659 [label="gini = 0.0\nsamples = 3\nvalue = [3, 0, 0]"] ;
637 -> 659 ;
660 [label="X[5] <= 0.5\ngini = 0.61\nsamples = 33\nvalue = [6, 17, 10]"] ;
614 -> 660 ;
661 [label="X[0] <= 31.0\ngini = 0.462\nsamples = 13\nvalue = [1, 9, 3]"] ;
660 -> 661 ;
662 [label="X[7] <= 3.5\ngini = 0.37\nsamples = 9\nvalue = [1, 7, 1]"] ;
661 -> 662 ;
663 [label="gini = 0.0\nsamples = 5\nvalue = [0, 5, 0]"] ;
662 -> 663 ;
664 [label="X[4] <= 0.5\ngini = 0.625\nsamples = 4\nvalue = [1, 2, 1]"] ;
662 -> 664 ;
665 [label="gini = 0.0\nsamples = 1\nvalue = [0, 1, 0]"] ;
664 -> 665 ;
666 [label="X[0] <= 26.5\ngini = 0.667\nsamples = 3\nvalue = [1, 1, 1]"] ;
664 -> 666 ;
667 [label="gini = 0.5\nsamples = 2\nvalue = [0, 1, 1]"] ;
666 -> 667 ;
668 [label="gini = 0.0\nsamples = 1\nvalue = [1, 0, 0]"] ;
666 -> 668 ;
669 [label="X[7] <= 3.5\ngini = 0.5\nsamples = 4\nvalue = [0, 2, 2]"] ;
661 -> 669 ;
670 [label="gini = 0.0\nsamples = 1\nvalue = [0, 0, 1]"] ;
669 -> 670 ;
671 [label="X[4] <= 0.5\ngini = 0.444\nsamples = 3\nvalue = [0, 2, 1]"] ;
669 -> 671 ;
672 [label="gini = 0.5\nsamples = 2\nvalue = [0, 1, 1]"] ;
671 -> 672 ;
673 [label="gini = 0.0\nsamples = 1\nvalue = [0, 1, 0]"] ;
671 -> 673 ;
674 [label="X[4] <= 0.5\ngini = 0.655\nsamples = 20\nvalue = [5, 8, 7]"] ;
660 -> 674 ;
675 [label="X[0] <= 29.5\ngini = 0.32\nsamples = 5\nvalue = [0, 4, 1]"] ;
674 -> 675 ;
676 [label="gini = 0.0\nsamples = 3\nvalue = [0, 3, 0]"] ;
675 -> 676 ;
677 [label="X[2] <= 3.0\ngini = 0.5\nsamples = 2\nvalue = [0, 1, 1]"] ;
675 -> 677 ;
678 [label="gini = 0.0\nsamples = 1\nvalue = [0, 1, 0]"] ;
677 -> 678 ;
679 [label="gini = 0.0\nsamples = 1\nvalue = [0, 0, 1]"] ;
677 -> 679 ;
680 [label="X[0] <= 25.5\ngini = 0.658\nsamples = 15\nvalue = [5, 4, 6]"] ;
674 -> 680 ;
681 [label="gini = 0.0\nsamples = 3\nvalue = [0, 0, 3]"] ;
680 -> 681 ;
682 [label="X[7] <= 3.5\ngini = 0.653\nsamples = 12\nvalue = [5, 4, 3]"] ;
680 -> 682 ;
683 [label="X[0] <= 26.5\ngini = 0.48\nsamples = 5\nvalue = [3, 2, 0]"] ;
682 -> 683 ;
684 [label="gini = 0.0\nsamples = 1\nvalue = [1, 0, 0]"] ;
683 -> 684 ;
685 [label="X[0] <= 27.5\ngini = 0.5\nsamples = 4\nvalue = [2, 2, 0]"] ;
683 -> 685 ;
686 [label="gini = 0.0\nsamples = 1\nvalue = [0, 1, 0]"] ;
685 -> 686 ;
687 [label="X[7] <= 2.5\ngini = 0.444\nsamples = 3\nvalue = [2, 1, 0]"] ;
685 -> 687 ;
688 [label="gini = 0.0\nsamples = 1\nvalue = [1, 0, 0]"] ;
687 -> 688 ;
689 [label="gini = 0.5\nsamples = 2\nvalue = [1, 1, 0]"] ;
687 -> 689 ;
690 [label="X[0] <= 28.5\ngini = 0.653\nsamples = 7\nvalue = [2, 2, 3]"] ;
682 -> 690 ;
691 [label="gini = 0.0\nsamples = 2\nvalue = [0, 0, 2]"] ;
690 -> 691 ;
692 [label="X[0] <= 29.5\ngini = 0.64\nsamples = 5\nvalue = [2, 2, 1]"] ;
690 -> 692 ;
693 [label="gini = 0.0\nsamples = 1\nvalue = [0, 1, 0]"] ;
692 -> 693 ;
694 [label="X[0] <= 31.0\ngini = 0.625\nsamples = 4\nvalue = [2, 1, 1]"] ;
692 -> 694 ;
695 [label="gini = 0.444\nsamples = 3\nvalue = [2, 0, 1]"] ;
694 -> 695 ;
696 [label="gini = 0.0\nsamples = 1\nvalue = [0, 1, 0]"] ;
694 -> 696 ;
697 [label="X[5] <= 0.5\ngini = 0.608\nsamples = 21\nvalue = [10, 3, 8]"] ;
599 -> 697 ;
698 [label="X[0] <= 33.5\ngini = 0.625\nsamples = 8\nvalue = [2, 2, 4]"] ;
697 -> 698 ;
699 [label="X[7] <= 3.5\ngini = 0.444\nsamples = 3\nvalue = [0, 1, 2]"] ;
698 -> 699 ;
700 [label="gini = 0.5\nsamples = 2\nvalue = [0, 1, 1]"] ;
699 -> 700 ;
701 [label="gini = 0.0\nsamples = 1\nvalue = [0, 0, 1]"] ;
699 -> 701 ;
702 [label="X[0] <= 34.5\ngini = 0.64\nsamples = 5\nvalue = [2, 1, 2]"] ;
698 -> 702 ;
703 [label="gini = 0.0\nsamples = 2\nvalue = [2, 0, 0]"] ;
702 -> 703 ;
704 [label="X[0] <= 35.5\ngini = 0.444\nsamples = 3\nvalue = [0, 1, 2]"] ;
702 -> 704 ;
705 [label="gini = 0.5\nsamples = 2\nvalue = [0, 1, 1]"] ;
704 -> 705 ;
706 [label="gini = 0.0\nsamples = 1\nvalue = [0, 0, 1]"] ;
704 -> 706 ;
707 [label="X[0] <= 33.5\ngini = 0.521\nsamples = 13\nvalue = [8, 1, 4]"] ;
697 -> 707 ;
708 [label="gini = 0.0\nsamples = 3\nvalue = [3, 0, 0]"] ;
707 -> 708 ;
709 [label="X[0] <= 34.5\ngini = 0.58\nsamples = 10\nvalue = [5, 1, 4]"] ;
707 -> 709 ;
710 [label="X[4] <= 0.5\ngini = 0.625\nsamples = 4\nvalue = [1, 1, 2]"] ;
709 -> 710 ;
711 [label="gini = 0.5\nsamples = 2\nvalue = [1, 0, 1]"] ;
710 -> 711 ;
712 [label="gini = 0.5\nsamples = 2\nvalue = [0, 1, 1]"] ;
710 -> 712 ;
713 [label="X[4] <= 0.5\ngini = 0.444\nsamples = 6\nvalue = [4, 0, 2]"] ;
709 -> 713 ;
714 [label="X[3] <= 1.5\ngini = 0.444\nsamples = 3\nvalue = [1, 0, 2]"] ;
713 -> 714 ;
715 [label="gini = 0.0\nsamples = 2\nvalue = [0, 0, 2]"] ;
714 -> 715 ;
716 [label="gini = 0.0\nsamples = 1\nvalue = [1, 0, 0]"] ;
714 -> 716 ;
717 [label="gini = 0.0\nsamples = 3\nvalue = [3, 0, 0]"] ;
713 -> 717 ;
718 [label="X[2] <= 3.5\ngini = 0.615\nsamples = 104\nvalue = [26, 24, 54]"] ;
598 -> 718 ;
719 [label="gini = 0.0\nsamples = 7\nvalue = [0, 0, 7]"] ;
718 -> 719 ;
720 [label="X[0] <= 22.5\ngini = 0.632\nsamples = 97\nvalue = [26, 24, 47]"] ;
718 -> 720 ;
721 [label="X[0] <= 18.0\ngini = 0.46\nsamples = 20\nvalue = [2, 4, 14]"] ;
720 -> 721 ;
722 [label="gini = 0.0\nsamples = 1\nvalue = [0, 1, 0]"] ;
721 -> 722 ;
723 [label="X[6] <= 2.5\ngini = 0.421\nsamples = 19\nvalue = [2, 3, 14]"] ;
721 -> 723 ;
724 [label="X[7] <= 2.5\ngini = 0.397\nsamples = 11\nvalue = [0, 3, 8]"] ;
723 -> 724 ;
725 [label="gini = 0.0\nsamples = 2\nvalue = [0, 2, 0]"] ;
724 -> 725 ;
726 [label="X[0] <= 20.0\ngini = 0.198\nsamples = 9\nvalue = [0, 1, 8]"] ;
724 -> 726 ;
727 [label="X[7] <= 3.5\ngini = 0.444\nsamples = 3\nvalue = [0, 1, 2]"] ;
726 -> 727 ;
728 [label="gini = 0.5\nsamples = 2\nvalue = [0, 1, 1]"] ;
727 -> 728 ;
729 [label="gini = 0.0\nsamples = 1\nvalue = [0, 0, 1]"] ;
727 -> 729 ;
730 [label="gini = 0.0\nsamples = 6\nvalue = [0, 0, 6]"] ;
726 -> 730 ;
731 [label="X[7] <= 2.5\ngini = 0.375\nsamples = 8\nvalue = [2, 0, 6]"] ;
723 -> 731 ;
732 [label="gini = 0.0\nsamples = 3\nvalue = [0, 0, 3]"] ;
731 -> 732 ;
733 [label="X[0] <= 21.5\ngini = 0.48\nsamples = 5\nvalue = [2, 0, 3]"] ;
731 -> 733 ;
734 [label="X[3] <= 1.5\ngini = 0.444\nsamples = 3\nvalue = [2, 0, 1]"] ;
733 -> 734 ;
735 [label="gini = 0.0\nsamples = 2\nvalue = [2, 0, 0]"] ;
734 -> 735 ;
736 [label="gini = 0.0\nsamples = 1\nvalue = [0, 0, 1]"] ;
734 -> 736 ;
737 [label="gini = 0.0\nsamples = 2\nvalue = [0, 0, 2]"] ;
733 -> 737 ;
738 [label="X[3] <= 1.5\ngini = 0.652\nsamples = 77\nvalue = [24, 20, 33]"] ;
720 -> 738 ;
739 [label="X[0] <= 31.5\ngini = 0.665\nsamples = 36\nvalue = [13, 12, 11]"] ;
738 -> 739 ;
740 [label="X[0] <= 25.5\ngini = 0.666\nsamples = 34\nvalue = [11, 12, 11]"] ;
739 -> 740 ;
741 [label="X[0] <= 24.5\ngini = 0.623\nsamples = 18\nvalue = [8, 7, 3]"] ;
740 -> 741 ;
742 [label="X[7] <= 3.5\ngini = 0.602\nsamples = 14\nvalue = [5, 7, 2]"] ;
741 -> 742 ;
743 [label="X[4] <= 0.5\ngini = 0.642\nsamples = 9\nvalue = [4, 3, 2]"] ;
742 -> 743 ;
744 [label="gini = 0.0\nsamples = 1\nvalue = [0, 1, 0]"] ;
743 -> 744 ;
745 [label="X[6] <= 2.5\ngini = 0.625\nsamples = 8\nvalue = [4, 2, 2]"] ;
743 -> 745 ;
746 [label="X[0] <= 23.5\ngini = 0.444\nsamples = 3\nvalue = [2, 0, 1]"] ;
745 -> 746 ;
747 [label="gini = 0.0\nsamples = 1\nvalue = [1, 0, 0]"] ;
746 -> 747 ;
748 [label="X[7] <= 2.5\ngini = 0.5\nsamples = 2\nvalue = [1, 0, 1]"] ;
746 -> 748 ;
749 [label="gini = 0.0\nsamples = 1\nvalue = [1, 0, 0]"] ;
748 -> 749 ;
750 [label="gini = 0.0\nsamples = 1\nvalue = [0, 0, 1]"] ;
748 -> 750 ;
751 [label="X[7] <= 2.5\ngini = 0.64\nsamples = 5\nvalue = [2, 2, 1]"] ;
745 -> 751 ;
752 [label="gini = 0.0\nsamples = 1\nvalue = [0, 1, 0]"] ;
751 -> 752 ;
753 [label="X[5] <= 0.5\ngini = 0.625\nsamples = 4\nvalue = [2, 1, 1]"] ;
751 -> 753 ;
754 [label="gini = 0.0\nsamples = 1\nvalue = [1, 0, 0]"] ;
753 -> 754 ;
755 [label="X[0] <= 23.5\ngini = 0.667\nsamples = 3\nvalue = [1, 1, 1]"] ;
753 -> 755 ;
756 [label="gini = 0.5\nsamples = 2\nvalue = [0, 1, 1]"] ;
755 -> 756 ;
757 [label="gini = 0.0\nsamples = 1\nvalue = [1, 0, 0]"] ;
755 -> 757 ;
758 [label="X[6] <= 2.5\ngini = 0.32\nsamples = 5\nvalue = [1, 4, 0]"] ;
742 -> 758 ;
759 [label="X[0] <= 23.5\ngini = 0.5\nsamples = 2\nvalue = [1, 1, 0]"] ;
758 -> 759 ;
760 [label="gini = 0.0\nsamples = 1\nvalue = [1, 0, 0]"] ;
759 -> 760 ;
761 [label="gini = 0.0\nsamples = 1\nvalue = [0, 1, 0]"] ;
759 -> 761 ;
762 [label="gini = 0.0\nsamples = 3\nvalue = [0, 3, 0]"] ;
758 -> 762 ;
763 [label="X[4] <= 0.5\ngini = 0.375\nsamples = 4\nvalue = [3, 0, 1]"] ;
741 -> 763 ;
764 [label="X[6] <= 2.5\ngini = 0.5\nsamples = 2\nvalue = [1, 0, 1]"] ;
763 -> 764 ;
765 [label="gini = 0.0\nsamples = 1\nvalue = [1, 0, 0]"] ;
764 -> 765 ;
766 [label="gini = 0.0\nsamples = 1\nvalue = [0, 0, 1]"] ;
764 -> 766 ;
767 [label="gini = 0.0\nsamples = 2\nvalue = [2, 0, 0]"] ;
763 -> 767 ;
768 [label="X[7] <= 2.5\ngini = 0.617\nsamples = 16\nvalue = [3, 5, 8]"] ;
740 -> 768 ;
769 [label="gini = 0.0\nsamples = 2\nvalue = [0, 0, 2]"] ;
768 -> 769 ;
770 [label="X[0] <= 28.5\ngini = 0.643\nsamples = 14\nvalue = [3, 5, 6]"] ;
768 -> 770 ;
771 [label="X[7] <= 3.5\ngini = 0.625\nsamples = 12\nvalue = [3, 3, 6]"] ;
770 -> 771 ;
772 [label="X[5] <= 0.5\ngini = 0.444\nsamples = 3\nvalue = [0, 2, 1]"] ;
771 -> 772 ;
773 [label="gini = 0.0\nsamples = 2\nvalue = [0, 2, 0]"] ;
772 -> 773 ;
774 [label="gini = 0.0\nsamples = 1\nvalue = [0, 0, 1]"] ;
772 -> 774 ;
775 [label="X[4] <= 0.5\ngini = 0.568\nsamples = 9\nvalue = [3, 1, 5]"] ;
771 -> 775 ;
776 [label="X[0] <= 26.5\ngini = 0.612\nsamples = 7\nvalue = [3, 1, 3]"] ;
775 -> 776 ;
777 [label="X[5] <= 0.5\ngini = 0.5\nsamples = 2\nvalue = [0, 1, 1]"] ;
776 -> 777 ;
778 [label="gini = 0.0\nsamples = 1\nvalue = [0, 0, 1]"] ;
777 -> 778 ;
779 [label="gini = 0.0\nsamples = 1\nvalue = [0, 1, 0]"] ;
777 -> 779 ;
780 [label="X[6] <= 2.5\ngini = 0.48\nsamples = 5\nvalue = [3, 0, 2]"] ;
776 -> 780 ;
781 [label="X[0] <= 27.5\ngini = 0.444\nsamples = 3\nvalue = [2, 0, 1]"] ;
780 -> 781 ;
782 [label="gini = 0.0\nsamples = 1\nvalue = [1, 0, 0]"] ;
781 -> 782 ;
783 [label="X[5] <= 0.5\ngini = 0.5\nsamples = 2\nvalue = [1, 0, 1]"] ;
781 -> 783 ;
784 [label="gini = 0.0\nsamples = 1\nvalue = [0, 0, 1]"] ;
783 -> 784 ;
785 [label="gini = 0.0\nsamples = 1\nvalue = [1, 0, 0]"] ;
783 -> 785 ;
786 [label="gini = 0.5\nsamples = 2\nvalue = [1, 0, 1]"] ;
780 -> 786 ;
787 [label="gini = 0.0\nsamples = 2\nvalue = [0, 0, 2]"] ;
775 -> 787 ;
788 [label="gini = 0.0\nsamples = 2\nvalue = [0, 2, 0]"] ;
770 -> 788 ;
789 [label="gini = 0.0\nsamples = 2\nvalue = [2, 0, 0]"] ;
739 -> 789 ;
790 [label="X[0] <= 34.5\ngini = 0.602\nsamples = 41\nvalue = [11, 8, 22]"] ;
738 -> 790 ;
791 [label="X[7] <= 2.5\ngini = 0.545\nsamples = 34\nvalue = [7, 6, 21]"] ;
790 -> 791 ;
792 [label="X[5] <= 0.5\ngini = 0.56\nsamples = 5\nvalue = [3, 1, 1]"] ;
791 -> 792 ;
793 [label="X[6] <= 2.5\ngini = 0.5\nsamples = 2\nvalue = [0, 1, 1]"] ;
792 -> 793 ;
794 [label="gini = 0.0\nsamples = 1\nvalue = [0, 0, 1]"] ;
793 -> 794 ;
795 [label="gini = 0.0\nsamples = 1\nvalue = [0, 1, 0]"] ;
793 -> 795 ;
796 [label="gini = 0.0\nsamples = 3\nvalue = [3, 0, 0]"] ;
792 -> 796 ;
797 [label="X[0] <= 24.5\ngini = 0.476\nsamples = 29\nvalue = [4, 5, 20]"] ;
791 -> 797 ;
798 [label="X[6] <= 2.5\ngini = 0.594\nsamples = 8\nvalue = [3, 1, 4]"] ;
797 -> 798 ;
799 [label="X[0] <= 23.5\ngini = 0.667\nsamples = 3\nvalue = [1, 1, 1]"] ;
798 -> 799 ;
800 [label="X[5] <= 0.5\ngini = 0.5\nsamples = 2\nvalue = [1, 0, 1]"] ;
799 -> 800 ;
801 [label="gini = 0.0\nsamples = 1\nvalue = [0, 0, 1]"] ;
800 -> 801 ;
802 [label="gini = 0.0\nsamples = 1\nvalue = [1, 0, 0]"] ;
800 -> 802 ;
803 [label="gini = 0.0\nsamples = 1\nvalue = [0, 1, 0]"] ;
799 -> 803 ;
804 [label="X[7] <= 3.5\ngini = 0.48\nsamples = 5\nvalue = [2, 0, 3]"] ;
798 -> 804 ;
805 [label="X[0] <= 23.5\ngini = 0.5\nsamples = 4\nvalue = [2, 0, 2]"] ;
804 -> 805 ;
806 [label="gini = 0.0\nsamples = 1\nvalue = [1, 0, 0]"] ;
805 -> 806 ;
807 [label="X[5] <= 0.5\ngini = 0.444\nsamples = 3\nvalue = [1, 0, 2]"] ;
805 -> 807 ;
808 [label="gini = 0.0\nsamples = 1\nvalue = [0, 0, 1]"] ;
807 -> 808 ;
809 [label="gini = 0.5\nsamples = 2\nvalue = [1, 0, 1]"] ;
807 -> 809 ;
810 [label="gini = 0.0\nsamples = 1\nvalue = [0, 0, 1]"] ;
804 -> 810 ;
811 [label="X[7] <= 3.5\ngini = 0.381\nsamples = 21\nvalue = [1, 4, 16]"] ;
797 -> 811 ;
812 [label="X[6] <= 2.5\ngini = 0.219\nsamples = 8\nvalue = [1, 0, 7]"] ;
811 -> 812 ;
813 [label="X[0] <= 28.5\ngini = 0.5\nsamples = 2\nvalue = [1, 0, 1]"] ;
812 -> 813 ;
814 [label="gini = 0.0\nsamples = 1\nvalue = [0, 0, 1]"] ;
813 -> 814 ;
815 [label="gini = 0.0\nsamples = 1\nvalue = [1, 0, 0]"] ;
813 -> 815 ;
816 [label="gini = 0.0\nsamples = 6\nvalue = [0, 0, 6]"] ;
812 -> 816 ;
817 [label="X[0] <= 32.5\ngini = 0.426\nsamples = 13\nvalue = [0, 4, 9]"] ;
811 -> 817 ;
818 [label="X[0] <= 28.5\ngini = 0.48\nsamples = 10\nvalue = [0, 4, 6]"] ;
817 -> 818 ;
819 [label="X[0] <= 26.0\ngini = 0.32\nsamples = 5\nvalue = [0, 1, 4]"] ;
818 -> 819 ;
820 [label="gini = 0.5\nsamples = 2\nvalue = [0, 1, 1]"] ;
819 -> 820 ;
821 [label="gini = 0.0\nsamples = 3\nvalue = [0, 0, 3]"] ;
819 -> 821 ;
822 [label="X[6] <= 2.5\ngini = 0.48\nsamples = 5\nvalue = [0, 3, 2]"] ;
818 -> 822 ;
823 [label="gini = 0.0\nsamples = 1\nvalue = [0, 1, 0]"] ;
822 -> 823 ;
824 [label="X[5] <= 0.5\ngini = 0.5\nsamples = 4\nvalue = [0, 2, 2]"] ;
822 -> 824 ;
825 [label="gini = 0.5\nsamples = 2\nvalue = [0, 1, 1]"] ;
824 -> 825 ;
826 [label="gini = 0.5\nsamples = 2\nvalue = [0, 1, 1]"] ;
824 -> 826 ;
827 [label="gini = 0.0\nsamples = 3\nvalue = [0, 0, 3]"] ;
817 -> 827 ;
828 [label="X[0] <= 35.5\ngini = 0.571\nsamples = 7\nvalue = [4, 2, 1]"] ;
790 -> 828 ;
829 [label="X[6] <= 2.5\ngini = 0.375\nsamples = 4\nvalue = [3, 0, 1]"] ;
828 -> 829 ;
830 [label="X[5] <= 0.5\ngini = 0.5\nsamples = 2\nvalue = [1, 0, 1]"] ;
829 -> 830 ;
831 [label="gini = 0.0\nsamples = 1\nvalue = [1, 0, 0]"] ;
830 -> 831 ;
832 [label="gini = 0.0\nsamples = 1\nvalue = [0, 0, 1]"] ;
830 -> 832 ;
833 [label="gini = 0.0\nsamples = 2\nvalue = [2, 0, 0]"] ;
829 -> 833 ;
834 [label="X[7] <= 3.5\ngini = 0.444\nsamples = 3\nvalue = [1, 2, 0]"] ;
828 -> 834 ;
835 [label="X[0] <= 36.5\ngini = 0.5\nsamples = 2\nvalue = [1, 1, 0]"] ;
834 -> 835 ;
836 [label="gini = 0.0\nsamples = 1\nvalue = [1, 0, 0]"] ;
835 -> 836 ;
837 [label="gini = 0.0\nsamples = 1\nvalue = [0, 1, 0]"] ;
835 -> 837 ;
838 [label="gini = 0.0\nsamples = 1\nvalue = [0, 1, 0]"] ;
834 -> 838 ;
839 [label="X[0] <= 28.5\ngini = 0.627\nsamples = 158\nvalue = [27, 65, 66]"] ;
597 -> 839 ;
840 [label="X[6] <= 2.5\ngini = 0.595\nsamples = 29\nvalue = [10, 4, 15]"] ;
839 -> 840 ;
841 [label="X[8] <= 0.5\ngini = 0.586\nsamples = 16\nvalue = [9, 3, 4]"] ;
840 -> 841 ;
842 [label="X[6] <= 1.5\ngini = 0.56\nsamples = 15\nvalue = [9, 3, 3]"] ;
841 -> 842 ;
843 [label="X[7] <= 3.5\ngini = 0.512\nsamples = 11\nvalue = [7, 3, 1]"] ;
842 -> 843 ;
844 [label="X[0] <= 26.0\ngini = 0.444\nsamples = 3\nvalue = [1, 2, 0]"] ;
843 -> 844 ;
845 [label="gini = 0.0\nsamples = 1\nvalue = [1, 0, 0]"] ;
844 -> 845 ;
846 [label="gini = 0.0\nsamples = 2\nvalue = [0, 2, 0]"] ;
844 -> 846 ;
847 [label="X[0] <= 25.5\ngini = 0.406\nsamples = 8\nvalue = [6, 1, 1]"] ;
843 -> 847 ;
848 [label="X[0] <= 24.5\ngini = 0.5\nsamples = 2\nvalue = [1, 0, 1]"] ;
847 -> 848 ;
849 [label="gini = 0.0\nsamples = 1\nvalue = [1, 0, 0]"] ;
848 -> 849 ;
850 [label="gini = 0.0\nsamples = 1\nvalue = [0, 0, 1]"] ;
848 -> 850 ;
851 [label="X[0] <= 27.5\ngini = 0.278\nsamples = 6\nvalue = [5, 1, 0]"] ;
847 -> 851 ;
852 [label="X[0] <= 26.5\ngini = 0.444\nsamples = 3\nvalue = [2, 1, 0]"] ;
851 -> 852 ;
853 [label="gini = 0.0\nsamples = 1\nvalue = [1, 0, 0]"] ;
852 -> 853 ;
854 [label="gini = 0.5\nsamples = 2\nvalue = [1, 1, 0]"] ;
852 -> 854 ;
855 [label="gini = 0.0\nsamples = 3\nvalue = [3, 0, 0]"] ;
851 -> 855 ;
856 [label="X[0] <= 27.0\ngini = 0.5\nsamples = 4\nvalue = [2, 0, 2]"] ;
842 -> 856 ;
857 [label="gini = 0.0\nsamples = 1\nvalue = [1, 0, 0]"] ;
856 -> 857 ;
858 [label="X[7] <= 2.0\ngini = 0.444\nsamples = 3\nvalue = [1, 0, 2]"] ;
856 -> 858 ;
859 [label="gini = 0.0\nsamples = 1\nvalue = [1, 0, 0]"] ;
858 -> 859 ;
860 [label="gini = 0.0\nsamples = 2\nvalue = [0, 0, 2]"] ;
858 -> 860 ;
861 [label="gini = 0.0\nsamples = 1\nvalue = [0, 0, 1]"] ;
841 -> 861 ;
862 [label="X[3] <= 4.5\ngini = 0.272\nsamples = 13\nvalue = [1, 1, 11]"] ;
840 -> 862 ;
863 [label="X[2] <= 3.5\ngini = 0.153\nsamples = 12\nvalue = [0, 1, 11]"] ;
862 -> 863 ;
864 [label="X[0] <= 23.5\ngini = 0.5\nsamples = 2\nvalue = [0, 1, 1]"] ;
863 -> 864 ;
865 [label="gini = 0.0\nsamples = 1\nvalue = [0, 1, 0]"] ;
864 -> 865 ;
866 [label="gini = 0.0\nsamples = 1\nvalue = [0, 0, 1]"] ;
864 -> 866 ;
867 [label="gini = 0.0\nsamples = 10\nvalue = [0, 0, 10]"] ;
863 -> 867 ;
868 [label="gini = 0.0\nsamples = 1\nvalue = [1, 0, 0]"] ;
862 -> 868 ;
869 [label="X[7] <= 3.5\ngini = 0.603\nsamples = 129\nvalue = [17, 61, 51]"] ;
839 -> 869 ;
870 [label="X[5] <= 0.5\ngini = 0.617\nsamples = 33\nvalue = [8, 17, 8]"] ;
869 -> 870 ;
871 [label="X[0] <= 30.0\ngini = 0.494\nsamples = 9\nvalue = [5, 4, 0]"] ;
870 -> 871 ;
872 [label="gini = 0.0\nsamples = 2\nvalue = [0, 2, 0]"] ;
871 -> 872 ;
873 [label="X[3] <= 3.5\ngini = 0.408\nsamples = 7\nvalue = [5, 2, 0]"] ;
871 -> 873 ;
874 [label="gini = 0.0\nsamples = 4\nvalue = [4, 0, 0]"] ;
873 -> 874 ;
875 [label="X[0] <= 33.0\ngini = 0.444\nsamples = 3\nvalue = [1, 2, 0]"] ;
873 -> 875 ;
876 [label="gini = 0.0\nsamples = 1\nvalue = [1, 0, 0]"] ;
875 -> 876 ;
877 [label="gini = 0.0\nsamples = 2\nvalue = [0, 2, 0]"] ;
875 -> 877 ;
878 [label="X[3] <= 3.5\ngini = 0.58\nsamples = 24\nvalue = [3, 13, 8]"] ;
870 -> 878 ;
879 [label="X[6] <= 1.5\ngini = 0.219\nsamples = 8\nvalue = [1, 7, 0]"] ;
878 -> 879 ;
880 [label="X[0] <= 35.0\ngini = 0.5\nsamples = 2\nvalue = [1, 1, 0]"] ;
879 -> 880 ;
881 [label="gini = 0.0\nsamples = 1\nvalue = [1, 0, 0]"] ;
880 -> 881 ;
882 [label="gini = 0.0\nsamples = 1\nvalue = [0, 1, 0]"] ;
880 -> 882 ;
883 [label="gini = 0.0\nsamples = 6\nvalue = [0, 6, 0]"] ;
879 -> 883 ;
884 [label="X[0] <= 35.5\ngini = 0.594\nsamples = 16\nvalue = [2, 6, 8]"] ;
878 -> 884 ;
885 [label="X[3] <= 4.5\ngini = 0.615\nsamples = 13\nvalue = [2, 6, 5]"] ;
884 -> 885 ;
886 [label="X[0] <= 33.5\ngini = 0.54\nsamples = 10\nvalue = [1, 6, 3]"] ;
885 -> 886 ;
887 [label="X[0] <= 32.5\ngini = 0.49\nsamples = 7\nvalue = [0, 4, 3]"] ;
886 -> 887 ;
888 [label="X[2] <= 2.0\ngini = 0.444\nsamples = 6\nvalue = [0, 4, 2]"] ;
887 -> 888 ;
889 [label="gini = 0.0\nsamples = 1\nvalue = [0, 1, 0]"] ;
888 -> 889 ;
890 [label="X[0] <= 30.5\ngini = 0.48\nsamples = 5\nvalue = [0, 3, 2]"] ;
888 -> 890 ;
891 [label="gini = 0.0\nsamples = 1\nvalue = [0, 0, 1]"] ;
890 -> 891 ;
892 [label="X[6] <= 1.5\ngini = 0.375\nsamples = 4\nvalue = [0, 3, 1]"] ;
890 -> 892 ;
893 [label="X[7] <= 2.5\ngini = 0.5\nsamples = 2\nvalue = [0, 1, 1]"] ;
892 -> 893 ;
894 [label="gini = 0.0\nsamples = 1\nvalue = [0, 1, 0]"] ;
893 -> 894 ;
895 [label="gini = 0.0\nsamples = 1\nvalue = [0, 0, 1]"] ;
893 -> 895 ;
896 [label="gini = 0.0\nsamples = 2\nvalue = [0, 2, 0]"] ;
892 -> 896 ;
897 [label="gini = 0.0\nsamples = 1\nvalue = [0, 0, 1]"] ;
887 -> 897 ;
898 [label="X[6] <= 2.5\ngini = 0.444\nsamples = 3\nvalue = [1, 2, 0]"] ;
886 -> 898 ;
899 [label="gini = 0.0\nsamples = 1\nvalue = [1, 0, 0]"] ;
898 -> 899 ;
900 [label="gini = 0.0\nsamples = 2\nvalue = [0, 2, 0]"] ;
898 -> 900 ;
901 [label="X[6] <= 2.5\ngini = 0.444\nsamples = 3\nvalue = [1, 0, 2]"] ;
885 -> 901 ;
902 [label="gini = 0.0\nsamples = 1\nvalue = [0, 0, 1]"] ;
901 -> 902 ;
903 [label="gini = 0.5\nsamples = 2\nvalue = [1, 0, 1]"] ;
901 -> 903 ;
904 [label="gini = 0.0\nsamples = 3\nvalue = [0, 0, 3]"] ;
884 -> 904 ;
905 [label="X[0] <= 32.5\ngini = 0.581\nsamples = 96\nvalue = [9, 44, 43]"] ;
869 -> 905 ;
906 [label="X[6] <= 1.5\ngini = 0.506\nsamples = 26\nvalue = [3, 6, 17]"] ;
905 -> 906 ;
907 [label="X[5] <= 0.5\ngini = 0.338\nsamples = 15\nvalue = [1, 2, 12]"] ;
906 -> 907 ;
908 [label="gini = 0.0\nsamples = 7\nvalue = [0, 0, 7]"] ;
907 -> 908 ;
909 [label="X[0] <= 31.5\ngini = 0.531\nsamples = 8\nvalue = [1, 2, 5]"] ;
907 -> 909 ;
910 [label="X[0] <= 30.0\ngini = 0.5\nsamples = 4\nvalue = [0, 2, 2]"] ;
909 -> 910 ;
911 [label="gini = 0.5\nsamples = 2\nvalue = [0, 1, 1]"] ;
910 -> 911 ;
912 [label="gini = 0.5\nsamples = 2\nvalue = [0, 1, 1]"] ;
910 -> 912 ;
913 [label="X[4] <= 0.5\ngini = 0.375\nsamples = 4\nvalue = [1, 0, 3]"] ;
909 -> 913 ;
914 [label="gini = 0.0\nsamples = 2\nvalue = [0, 0, 2]"] ;
913 -> 914 ;
915 [label="gini = 0.5\nsamples = 2\nvalue = [1, 0, 1]"] ;
913 -> 915 ;
916 [label="X[0] <= 30.5\ngini = 0.628\nsamples = 11\nvalue = [2, 4, 5]"] ;
906 -> 916 ;
917 [label="X[3] <= 3.5\ngini = 0.5\nsamples = 4\nvalue = [2, 0, 2]"] ;
916 -> 917 ;
918 [label="X[0] <= 29.5\ngini = 0.444\nsamples = 3\nvalue = [1, 0, 2]"] ;
917 -> 918 ;
919 [label="gini = 0.0\nsamples = 1\nvalue = [0, 0, 1]"] ;
918 -> 919 ;
920 [label="X[4] <= 0.5\ngini = 0.5\nsamples = 2\nvalue = [1, 0, 1]"] ;
918 -> 920 ;
921 [label="gini = 0.0\nsamples = 1\nvalue = [0, 0, 1]"] ;
920 -> 921 ;
922 [label="gini = 0.0\nsamples = 1\nvalue = [1, 0, 0]"] ;
920 -> 922 ;
923 [label="gini = 0.0\nsamples = 1\nvalue = [1, 0, 0]"] ;
917 -> 923 ;
924 [label="X[4] <= 0.5\ngini = 0.49\nsamples = 7\nvalue = [0, 4, 3]"] ;
916 -> 924 ;
925 [label="gini = 0.0\nsamples = 3\nvalue = [0, 3, 0]"] ;
924 -> 925 ;
926 [label="X[0] <= 31.5\ngini = 0.375\nsamples = 4\nvalue = [0, 1, 3]"] ;
924 -> 926 ;
927 [label="gini = 0.0\nsamples = 2\nvalue = [0, 0, 2]"] ;
926 -> 927 ;
928 [label="X[2] <= 3.5\ngini = 0.5\nsamples = 2\nvalue = [0, 1, 1]"] ;
926 -> 928 ;
929 [label="gini = 0.0\nsamples = 1\nvalue = [0, 0, 1]"] ;
928 -> 929 ;
930 [label="gini = 0.0\nsamples = 1\nvalue = [0, 1, 0]"] ;
928 -> 930 ;
931 [label="X[4] <= 0.5\ngini = 0.56\nsamples = 70\nvalue = [6, 38, 26]"] ;
905 -> 931 ;
932 [label="X[3] <= 3.5\ngini = 0.541\nsamples = 22\nvalue = [1, 10, 11]"] ;
931 -> 932 ;
933 [label="X[6] <= 1.5\ngini = 0.521\nsamples = 13\nvalue = [1, 4, 8]"] ;
932 -> 933 ;
934 [label="gini = 0.0\nsamples = 1\nvalue = [1, 0, 0]"] ;
933 -> 934 ;
935 [label="X[2] <= 3.5\ngini = 0.444\nsamples = 12\nvalue = [0, 4, 8]"] ;
933 -> 935 ;
936 [label="gini = 0.0\nsamples = 1\nvalue = [0, 0, 1]"] ;
935 -> 936 ;
937 [label="X[0] <= 35.5\ngini = 0.463\nsamples = 11\nvalue = [0, 4, 7]"] ;
935 -> 937 ;
938 [label="X[0] <= 34.0\ngini = 0.5\nsamples = 4\nvalue = [0, 2, 2]"] ;
937 -> 938 ;
939 [label="X[5] <= 0.5\ngini = 0.5\nsamples = 2\nvalue = [0, 1, 1]"] ;
938 -> 939 ;
940 [label="gini = 0.0\nsamples = 1\nvalue = [0, 0, 1]"] ;
939 -> 940 ;
941 [label="gini = 0.0\nsamples = 1\nvalue = [0, 1, 0]"] ;
939 -> 941 ;
942 [label="X[5] <= 0.5\ngini = 0.5\nsamples = 2\nvalue = [0, 1, 1]"] ;
938 -> 942 ;
943 [label="gini = 0.0\nsamples = 1\nvalue = [0, 1, 0]"] ;
942 -> 943 ;
944 [label="gini = 0.0\nsamples = 1\nvalue = [0, 0, 1]"] ;
942 -> 944 ;
945 [label="X[0] <= 36.5\ngini = 0.408\nsamples = 7\nvalue = [0, 2, 5]"] ;
937 -> 945 ;
946 [label="X[6] <= 2.5\ngini = 0.32\nsamples = 5\nvalue = [0, 1, 4]"] ;
945 -> 946 ;
947 [label="X[5] <= 0.5\ngini = 0.444\nsamples = 3\nvalue = [0, 1, 2]"] ;
946 -> 947 ;
948 [label="gini = 0.0\nsamples = 1\nvalue = [0, 0, 1]"] ;
947 -> 948 ;
949 [label="gini = 0.5\nsamples = 2\nvalue = [0, 1, 1]"] ;
947 -> 949 ;
950 [label="gini = 0.0\nsamples = 2\nvalue = [0, 0, 2]"] ;
946 -> 950 ;
951 [label="gini = 0.5\nsamples = 2\nvalue = [0, 1, 1]"] ;
945 -> 951 ;
952 [label="X[0] <= 35.5\ngini = 0.444\nsamples = 9\nvalue = [0, 6, 3]"] ;
932 -> 952 ;
953 [label="X[3] <= 4.5\ngini = 0.5\nsamples = 2\nvalue = [0, 1, 1]"] ;
952 -> 953 ;
954 [label="gini = 0.0\nsamples = 1\nvalue = [0, 0, 1]"] ;
953 -> 954 ;
955 [label="gini = 0.0\nsamples = 1\nvalue = [0, 1, 0]"] ;
953 -> 955 ;
956 [label="X[3] <= 4.5\ngini = 0.408\nsamples = 7\nvalue = [0, 5, 2]"] ;
952 -> 956 ;
957 [label="X[6] <= 1.5\ngini = 0.278\nsamples = 6\nvalue = [0, 5, 1]"] ;
956 -> 957 ;
958 [label="X[5] <= 0.5\ngini = 0.444\nsamples = 3\nvalue = [0, 2, 1]"] ;
957 -> 958 ;
959 [label="gini = 0.0\nsamples = 1\nvalue = [0, 1, 0]"] ;
958 -> 959 ;
960 [label="gini = 0.5\nsamples = 2\nvalue = [0, 1, 1]"] ;
958 -> 960 ;
961 [label="gini = 0.0\nsamples = 3\nvalue = [0, 3, 0]"] ;
957 -> 961 ;
962 [label="gini = 0.0\nsamples = 1\nvalue = [0, 0, 1]"] ;
956 -> 962 ;
963 [label="X[6] <= 2.5\ngini = 0.551\nsamples = 48\nvalue = [5, 28, 15]"] ;
931 -> 963 ;
964 [label="X[2] <= 3.5\ngini = 0.565\nsamples = 40\nvalue = [4, 22, 14]"] ;
963 -> 964 ;
965 [label="gini = 0.0\nsamples = 2\nvalue = [0, 2, 0]"] ;
964 -> 965 ;
966 [label="X[3] <= 5.5\ngini = 0.576\nsamples = 38\nvalue = [4, 20, 14]"] ;
964 -> 966 ;
967 [label="X[3] <= 4.5\ngini = 0.575\nsamples = 35\nvalue = [4, 19, 12]"] ;
966 -> 967 ;
968 [label="X[6] <= 1.5\ngini = 0.578\nsamples = 29\nvalue = [3, 15, 11]"] ;
967 -> 968 ;
969 [label="X[0] <= 36.5\ngini = 0.58\nsamples = 24\nvalue = [3, 13, 8]"] ;
968 -> 969 ;
970 [label="X[5] <= 0.5\ngini = 0.615\nsamples = 19\nvalue = [3, 9, 7]"] ;
969 -> 970 ;
971 [label="gini = 0.0\nsamples = 1\nvalue = [0, 1, 0]"] ;
970 -> 971 ;
972 [label="X[3] <= 3.5\ngini = 0.623\nsamples = 18\nvalue = [3, 8, 7]"] ;
970 -> 972 ;
973 [label="X[0] <= 35.5\ngini = 0.611\nsamples = 12\nvalue = [2, 6, 4]"] ;
972 -> 973 ;
974 [label="X[0] <= 33.5\ngini = 0.656\nsamples = 8\nvalue = [2, 3, 3]"] ;
973 -> 974 ;
975 [label="gini = 0.667\nsamples = 3\nvalue = [1, 1, 1]"] ;
974 -> 975 ;
976 [label="X[0] <= 34.5\ngini = 0.64\nsamples = 5\nvalue = [1, 2, 2]"] ;
974 -> 976 ;
977 [label="gini = 0.5\nsamples = 2\nvalue = [0, 1, 1]"] ;
976 -> 977 ;
978 [label="gini = 0.667\nsamples = 3\nvalue = [1, 1, 1]"] ;
976 -> 978 ;
979 [label="gini = 0.375\nsamples = 4\nvalue = [0, 3, 1]"] ;
973 -> 979 ;
980 [label="X[0] <= 34.0\ngini = 0.611\nsamples = 6\nvalue = [1, 2, 3]"] ;
972 -> 980 ;
981 [label="gini = 0.0\nsamples = 1\nvalue = [0, 1, 0]"] ;
980 -> 981 ;
982 [label="X[0] <= 35.5\ngini = 0.56\nsamples = 5\nvalue = [1, 1, 3]"] ;
980 -> 982 ;
983 [label="gini = 0.444\nsamples = 3\nvalue = [0, 1, 2]"] ;
982 -> 983 ;
984 [label="gini = 0.5\nsamples = 2\nvalue = [1, 0, 1]"] ;
982 -> 984 ;
985 [label="X[5] <= 0.5\ngini = 0.32\nsamples = 5\nvalue = [0, 4, 1]"] ;
969 -> 985 ;
986 [label="gini = 0.0\nsamples = 1\nvalue = [0, 0, 1]"] ;
985 -> 986 ;
987 [label="gini = 0.0\nsamples = 4\nvalue = [0, 4, 0]"] ;
985 -> 987 ;
988 [label="X[0] <= 36.5\ngini = 0.48\nsamples = 5\nvalue = [0, 2, 3]"] ;
968 -> 988 ;
989 [label="X[0] <= 35.0\ngini = 0.444\nsamples = 3\nvalue = [0, 2, 1]"] ;
988 -> 989 ;
990 [label="gini = 0.0\nsamples = 1\nvalue = [0, 1, 0]"] ;
989 -> 990 ;
991 [label="X[5] <= 0.5\ngini = 0.5\nsamples = 2\nvalue = [0, 1, 1]"] ;
989 -> 991 ;
992 [label="gini = 0.0\nsamples = 1\nvalue = [0, 1, 0]"] ;
991 -> 992 ;
993 [label="gini = 0.0\nsamples = 1\nvalue = [0, 0, 1]"] ;
991 -> 993 ;
994 [label="gini = 0.0\nsamples = 2\nvalue = [0, 0, 2]"] ;
988 -> 994 ;
995 [label="X[6] <= 1.5\ngini = 0.5\nsamples = 6\nvalue = [1, 4, 1]"] ;
967 -> 995 ;
996 [label="X[0] <= 34.0\ngini = 0.625\nsamples = 4\nvalue = [1, 2, 1]"] ;
995 -> 996 ;
997 [label="gini = 0.0\nsamples = 1\nvalue = [0, 0, 1]"] ;
996 -> 997 ;
998 [label="X[5] <= 0.5\ngini = 0.444\nsamples = 3\nvalue = [1, 2, 0]"] ;
996 -> 998 ;
999 [label="gini = 0.0\nsamples = 1\nvalue = [0, 1, 0]"] ;
998 -> 999 ;
1000 [label="gini = 0.5\nsamples = 2\nvalue = [1, 1, 0]"] ;
998 -> 1000 ;
1001 [label="gini = 0.0\nsamples = 2\nvalue = [0, 2, 0]"] ;
995 -> 1001 ;
1002 [label="X[3] <= 6.5\ngini = 0.444\nsamples = 3\nvalue = [0, 1, 2]"] ;
966 -> 1002 ;
1003 [label="gini = 0.0\nsamples = 2\nvalue = [0, 0, 2]"] ;
1002 -> 1003 ;
1004 [label="gini = 0.0\nsamples = 1\nvalue = [0, 1, 0]"] ;
1002 -> 1004 ;
1005 [label="X[5] <= 0.5\ngini = 0.406\nsamples = 8\nvalue = [1, 6, 1]"] ;
963 -> 1005 ;
1006 [label="X[3] <= 4.5\ngini = 0.5\nsamples = 2\nvalue = [0, 1, 1]"] ;
1005 -> 1006 ;
1007 [label="gini = 0.0\nsamples = 1\nvalue = [0, 1, 0]"] ;
1006 -> 1007 ;
1008 [label="gini = 0.0\nsamples = 1\nvalue = [0, 0, 1]"] ;
1006 -> 1008 ;
1009 [label="X[0] <= 33.5\ngini = 0.278\nsamples = 6\nvalue = [1, 5, 0]"] ;
1005 -> 1009 ;
1010 [label="X[3] <= 4.0\ngini = 0.5\nsamples = 2\nvalue = [1, 1, 0]"] ;
1009 -> 1010 ;
1011 [label="gini = 0.0\nsamples = 1\nvalue = [0, 1, 0]"] ;
1010 -> 1011 ;
1012 [label="gini = 0.0\nsamples = 1\nvalue = [1, 0, 0]"] ;
1010 -> 1012 ;
1013 [label="gini = 0.0\nsamples = 4\nvalue = [0, 4, 0]"] ;
1009 -> 1013 ;
1014 [label="X[1] <= 3.5\ngini = 0.602\nsamples = 408\nvalue = [217, 116, 75]"] ;
8 -> 1014 ;
1015 [label="X[2] <= 2.5\ngini = 0.452\nsamples = 236\nvalue = [168, 35, 33]"] ;
1014 -> 1015 ;
1016 [label="X[7] <= 3.5\ngini = 0.232\nsamples = 78\nvalue = [68, 5, 5]"] ;
1015 -> 1016 ;
1017 [label="X[3] <= 8.5\ngini = 0.135\nsamples = 56\nvalue = [52, 3, 1]"] ;
1016 -> 1017 ;
1018 [label="X[0] <= 38.5\ngini = 0.081\nsamples = 48\nvalue = [46, 1, 1]"] ;
1017 -> 1018 ;
1019 [label="X[8] <= 0.5\ngini = 0.375\nsamples = 4\nvalue = [3, 1, 0]"] ;
1018 -> 1019 ;
1020 [label="X[3] <= 4.5\ngini = 0.5\nsamples = 2\nvalue = [1, 1, 0]"] ;
1019 -> 1020 ;
1021 [label="gini = 0.0\nsamples = 1\nvalue = [1, 0, 0]"] ;
1020 -> 1021 ;
1022 [label="gini = 0.0\nsamples = 1\nvalue = [0, 1, 0]"] ;
1020 -> 1022 ;
1023 [label="gini = 0.0\nsamples = 2\nvalue = [2, 0, 0]"] ;
1019 -> 1023 ;
1024 [label="X[0] <= 41.5\ngini = 0.044\nsamples = 44\nvalue = [43, 0, 1]"] ;
1018 -> 1024 ;
1025 [label="X[0] <= 40.5\ngini = 0.165\nsamples = 11\nvalue = [10, 0, 1]"] ;
1024 -> 1025 ;
1026 [label="gini = 0.0\nsamples = 9\nvalue = [9, 0, 0]"] ;
1025 -> 1026 ;
1027 [label="X[3] <= 5.5\ngini = 0.5\nsamples = 2\nvalue = [1, 0, 1]"] ;
1025 -> 1027 ;
1028 [label="gini = 0.0\nsamples = 1\nvalue = [1, 0, 0]"] ;
1027 -> 1028 ;
1029 [label="gini = 0.0\nsamples = 1\nvalue = [0, 0, 1]"] ;
1027 -> 1029 ;
1030 [label="gini = 0.0\nsamples = 33\nvalue = [33, 0, 0]"] ;
1024 -> 1030 ;
1031 [label="X[0] <= 44.5\ngini = 0.375\nsamples = 8\nvalue = [6, 2, 0]"] ;
1017 -> 1031 ;
1032 [label="gini = 0.0\nsamples = 5\nvalue = [5, 0, 0]"] ;
1031 -> 1032 ;
1033 [label="X[7] <= 2.5\ngini = 0.444\nsamples = 3\nvalue = [1, 2, 0]"] ;
1031 -> 1033 ;
1034 [label="gini = 0.0\nsamples = 1\nvalue = [1, 0, 0]"] ;
1033 -> 1034 ;
1035 [label="gini = 0.0\nsamples = 2\nvalue = [0, 2, 0]"] ;
1033 -> 1035 ;
1036 [label="X[5] <= 0.5\ngini = 0.43\nsamples = 22\nvalue = [16, 2, 4]"] ;
1016 -> 1036 ;
1037 [label="X[2] <= 1.5\ngini = 0.48\nsamples = 5\nvalue = [2, 0, 3]"] ;
1036 -> 1037 ;
1038 [label="gini = 0.0\nsamples = 2\nvalue = [2, 0, 0]"] ;
1037 -> 1038 ;
1039 [label="gini = 0.0\nsamples = 3\nvalue = [0, 0, 3]"] ;
1037 -> 1039 ;
1040 [label="X[3] <= 6.5\ngini = 0.304\nsamples = 17\nvalue = [14, 2, 1]"] ;
1036 -> 1040 ;
1041 [label="X[3] <= 4.0\ngini = 0.153\nsamples = 12\nvalue = [11, 0, 1]"] ;
1040 -> 1041 ;
1042 [label="gini = 0.0\nsamples = 7\nvalue = [7, 0, 0]"] ;
1041 -> 1042 ;
1043 [label="X[6] <= 2.5\ngini = 0.32\nsamples = 5\nvalue = [4, 0, 1]"] ;
1041 -> 1043 ;
1044 [label="X[3] <= 5.5\ngini = 0.444\nsamples = 3\nvalue = [2, 0, 1]"] ;
1043 -> 1044 ;
1045 [label="X[4] <= 0.5\ngini = 0.5\nsamples = 2\nvalue = [1, 0, 1]"] ;
1044 -> 1045 ;
1046 [label="gini = 0.0\nsamples = 1\nvalue = [1, 0, 0]"] ;
1045 -> 1046 ;
1047 [label="gini = 0.0\nsamples = 1\nvalue = [0, 0, 1]"] ;
1045 -> 1047 ;
1048 [label="gini = 0.0\nsamples = 1\nvalue = [1, 0, 0]"] ;
1044 -> 1048 ;
1049 [label="gini = 0.0\nsamples = 2\nvalue = [2, 0, 0]"] ;
1043 -> 1049 ;
1050 [label="X[0] <= 45.5\ngini = 0.48\nsamples = 5\nvalue = [3, 2, 0]"] ;
1040 -> 1050 ;
1051 [label="gini = 0.0\nsamples = 2\nvalue = [2, 0, 0]"] ;
1050 -> 1051 ;
1052 [label="X[0] <= 47.5\ngini = 0.444\nsamples = 3\nvalue = [1, 2, 0]"] ;
1050 -> 1052 ;
1053 [label="gini = 0.0\nsamples = 2\nvalue = [0, 2, 0]"] ;
1052 -> 1053 ;
1054 [label="gini = 0.0\nsamples = 1\nvalue = [1, 0, 0]"] ;
1052 -> 1054 ;
1055 [label="X[8] <= 0.5\ngini = 0.532\nsamples = 158\nvalue = [100, 30, 28]"] ;
1015 -> 1055 ;
1056 [label="X[5] <= 0.5\ngini = 0.563\nsamples = 141\nvalue = [84, 29, 28]"] ;
1055 -> 1056 ;
1057 [label="X[7] <= 3.5\ngini = 0.59\nsamples = 27\nvalue = [13, 3, 11]"] ;
1056 -> 1057 ;
1058 [label="X[0] <= 46.0\ngini = 0.473\nsamples = 13\nvalue = [9, 2, 2]"] ;
1057 -> 1058 ;
1059 [label="X[1] <= 2.5\ngini = 0.314\nsamples = 11\nvalue = [9, 1, 1]"] ;
1058 -> 1059 ;
1060 [label="gini = 0.0\nsamples = 6\nvalue = [6, 0, 0]"] ;
1059 -> 1060 ;
1061 [label="X[2] <= 3.5\ngini = 0.56\nsamples = 5\nvalue = [3, 1, 1]"] ;
1059 -> 1061 ;
1062 [label="X[0] <= 41.5\ngini = 0.667\nsamples = 3\nvalue = [1, 1, 1]"] ;
1061 -> 1062 ;
1063 [label="gini = 0.0\nsamples = 1\nvalue = [1, 0, 0]"] ;
1062 -> 1063 ;
1064 [label="X[3] <= 5.5\ngini = 0.5\nsamples = 2\nvalue = [0, 1, 1]"] ;
1062 -> 1064 ;
1065 [label="gini = 0.0\nsamples = 1\nvalue = [0, 0, 1]"] ;
1064 -> 1065 ;
1066 [label="gini = 0.0\nsamples = 1\nvalue = [0, 1, 0]"] ;
1064 -> 1066 ;
1067 [label="gini = 0.0\nsamples = 2\nvalue = [2, 0, 0]"] ;
1061 -> 1067 ;
1068 [label="X[3] <= 10.0\ngini = 0.5\nsamples = 2\nvalue = [0, 1, 1]"] ;
1058 -> 1068 ;
1069 [label="gini = 0.0\nsamples = 1\nvalue = [0, 0, 1]"] ;
1068 -> 1069 ;
1070 [label="gini = 0.0\nsamples = 1\nvalue = [0, 1, 0]"] ;
1068 -> 1070 ;
1071 [label="X[3] <= 4.5\ngini = 0.5\nsamples = 14\nvalue = [4, 1, 9]"] ;
1057 -> 1071 ;
1072 [label="X[6] <= 2.5\ngini = 0.593\nsamples = 9\nvalue = [4, 1, 4]"] ;
1071 -> 1072 ;
1073 [label="X[4] <= 0.5\ngini = 0.571\nsamples = 7\nvalue = [4, 1, 2]"] ;
1072 -> 1073 ;
1074 [label="gini = 0.0\nsamples = 1\nvalue = [0, 0, 1]"] ;
1073 -> 1074 ;
1075 [label="X[0] <= 40.5\ngini = 0.5\nsamples = 6\nvalue = [4, 1, 1]"] ;
1073 -> 1075 ;
1076 [label="gini = 0.0\nsamples = 1\nvalue = [0, 0, 1]"] ;
1075 -> 1076 ;
1077 [label="X[3] <= 2.5\ngini = 0.32\nsamples = 5\nvalue = [4, 1, 0]"] ;
1075 -> 1077 ;
1078 [label="X[0] <= 44.0\ngini = 0.5\nsamples = 2\nvalue = [1, 1, 0]"] ;
1077 -> 1078 ;
1079 [label="gini = 0.0\nsamples = 1\nvalue = [0, 1, 0]"] ;
1078 -> 1079 ;
1080 [label="gini = 0.0\nsamples = 1\nvalue = [1, 0, 0]"] ;
1078 -> 1080 ;
1081 [label="gini = 0.0\nsamples = 3\nvalue = [3, 0, 0]"] ;
1077 -> 1081 ;
1082 [label="gini = 0.0\nsamples = 2\nvalue = [0, 0, 2]"] ;
1072 -> 1082 ;
1083 [label="gini = 0.0\nsamples = 5\nvalue = [0, 0, 5]"] ;
1071 -> 1083 ;
1084 [label="X[0] <= 46.5\ngini = 0.538\nsamples = 114\nvalue = [71, 26, 17]"] ;
1056 -> 1084 ;
1085 [label="X[3] <= 9.5\ngini = 0.592\nsamples = 89\nvalue = [49, 24, 16]"] ;
1084 -> 1085 ;
1086 [label="X[3] <= 3.5\ngini = 0.611\nsamples = 81\nvalue = [42, 23, 16]"] ;
1085 -> 1086 ;
1087 [label="X[1] <= 1.5\ngini = 0.527\nsamples = 30\nvalue = [19, 4, 7]"] ;
1086 -> 1087 ;
1088 [label="X[2] <= 3.5\ngini = 0.5\nsamples = 2\nvalue = [0, 1, 1]"] ;
1087 -> 1088 ;
1089 [label="gini = 0.0\nsamples = 1\nvalue = [0, 0, 1]"] ;
1088 -> 1089 ;
1090 [label="gini = 0.0\nsamples = 1\nvalue = [0, 1, 0]"] ;
1088 -> 1090 ;
1091 [label="X[0] <= 38.5\ngini = 0.482\nsamples = 28\nvalue = [19, 3, 6]"] ;
1087 -> 1091 ;
1092 [label="X[2] <= 3.5\ngini = 0.5\nsamples = 6\nvalue = [3, 0, 3]"] ;
1091 -> 1092 ;
1093 [label="gini = 0.0\nsamples = 2\nvalue = [0, 0, 2]"] ;
1092 -> 1093 ;
1094 [label="X[6] <= 2.5\ngini = 0.375\nsamples = 4\nvalue = [3, 0, 1]"] ;
1092 -> 1094 ;
1095 [label="gini = 0.0\nsamples = 3\nvalue = [3, 0, 0]"] ;
1094 -> 1095 ;
1096 [label="gini = 0.0\nsamples = 1\nvalue = [0, 0, 1]"] ;
1094 -> 1096 ;
1097 [label="X[4] <= 0.5\ngini = 0.434\nsamples = 22\nvalue = [16, 3, 3]"] ;
1091 -> 1097 ;
1098 [label="X[0] <= 39.5\ngini = 0.544\nsamples = 13\nvalue = [8, 3, 2]"] ;
1097 -> 1098 ;
1099 [label="gini = 0.0\nsamples = 2\nvalue = [2, 0, 0]"] ;
1098 -> 1099 ;
1100 [label="X[6] <= 2.5\ngini = 0.595\nsamples = 11\nvalue = [6, 3, 2]"] ;
1098 -> 1100 ;
1101 [label="X[3] <= 1.5\ngini = 0.48\nsamples = 5\nvalue = [3, 2, 0]"] ;
1100 -> 1101 ;
1102 [label="gini = 0.0\nsamples = 1\nvalue = [0, 1, 0]"] ;
1101 -> 1102 ;
1103 [label="X[0] <= 42.0\ngini = 0.375\nsamples = 4\nvalue = [3, 1, 0]"] ;
1101 -> 1103 ;
1104 [label="gini = 0.5\nsamples = 2\nvalue = [1, 1, 0]"] ;
1103 -> 1104 ;
1105 [label="gini = 0.0\nsamples = 2\nvalue = [2, 0, 0]"] ;
1103 -> 1105 ;
1106 [label="X[1] <= 2.5\ngini = 0.611\nsamples = 6\nvalue = [3, 1, 2]"] ;
1100 -> 1106 ;
1107 [label="gini = 0.0\nsamples = 1\nvalue = [0, 0, 1]"] ;
1106 -> 1107 ;
1108 [label="X[7] <= 3.5\ngini = 0.56\nsamples = 5\nvalue = [3, 1, 1]"] ;
1106 -> 1108 ;
1109 [label="gini = 0.0\nsamples = 1\nvalue = [0, 0, 1]"] ;
1108 -> 1109 ;
1110 [label="X[0] <= 41.5\ngini = 0.375\nsamples = 4\nvalue = [3, 1, 0]"] ;
1108 -> 1110 ;
1111 [label="X[2] <= 3.5\ngini = 0.5\nsamples = 2\nvalue = [1, 1, 0]"] ;
1110 -> 1111 ;
1112 [label="gini = 0.0\nsamples = 1\nvalue = [1, 0, 0]"] ;
1111 -> 1112 ;
1113 [label="gini = 0.0\nsamples = 1\nvalue = [0, 1, 0]"] ;
1111 -> 1113 ;
1114 [label="gini = 0.0\nsamples = 2\nvalue = [2, 0, 0]"] ;
1110 -> 1114 ;
1115 [label="X[0] <= 39.5\ngini = 0.198\nsamples = 9\nvalue = [8, 0, 1]"] ;
1097 -> 1115 ;
1116 [label="X[7] <= 3.5\ngini = 0.5\nsamples = 2\nvalue = [1, 0, 1]"] ;
1115 -> 1116 ;
1117 [label="gini = 0.0\nsamples = 1\nvalue = [0, 0, 1]"] ;
1116 -> 1117 ;
1118 [label="gini = 0.0\nsamples = 1\nvalue = [1, 0, 0]"] ;
1116 -> 1118 ;
1119 [label="gini = 0.0\nsamples = 7\nvalue = [7, 0, 0]"] ;
1115 -> 1119 ;
1120 [label="X[4] <= 0.5\ngini = 0.627\nsamples = 51\nvalue = [23, 19, 9]"] ;
1086 -> 1120 ;
1121 [label="X[7] <= 2.5\ngini = 0.449\nsamples = 7\nvalue = [1, 5, 1]"] ;
1120 -> 1121 ;
1122 [label="gini = 0.0\nsamples = 1\nvalue = [1, 0, 0]"] ;
1121 -> 1122 ;
1123 [label="X[3] <= 6.5\ngini = 0.278\nsamples = 6\nvalue = [0, 5, 1]"] ;
1121 -> 1123 ;
1124 [label="gini = 0.0\nsamples = 4\nvalue = [0, 4, 0]"] ;
1123 -> 1124 ;
1125 [label="X[2] <= 3.5\ngini = 0.5\nsamples = 2\nvalue = [0, 1, 1]"] ;
1123 -> 1125 ;
1126 [label="gini = 0.0\nsamples = 1\nvalue = [0, 0, 1]"] ;
1125 -> 1126 ;
1127 [label="gini = 0.0\nsamples = 1\nvalue = [0, 1, 0]"] ;
1125 -> 1127 ;
1128 [label="X[6] <= 1.5\ngini = 0.616\nsamples = 44\nvalue = [22, 14, 8]"] ;
1120 -> 1128 ;
1129 [label="X[2] <= 3.5\ngini = 0.631\nsamples = 15\nvalue = [5, 7, 3]"] ;
1128 -> 1129 ;
1130 [label="X[7] <= 2.5\ngini = 0.449\nsamples = 7\nvalue = [1, 5, 1]"] ;
1129 -> 1130 ;
1131 [label="gini = 0.0\nsamples = 3\nvalue = [0, 3, 0]"] ;
1130 -> 1131 ;
1132 [label="X[0] <= 39.5\ngini = 0.625\nsamples = 4\nvalue = [1, 2, 1]"] ;
1130 -> 1132 ;
1133 [label="gini = 0.0\nsamples = 1\nvalue = [1, 0, 0]"] ;
1132 -> 1133 ;
1134 [label="X[7] <= 3.5\ngini = 0.444\nsamples = 3\nvalue = [0, 2, 1]"] ;
1132 -> 1134 ;
1135 [label="gini = 0.0\nsamples = 1\nvalue = [0, 0, 1]"] ;
1134 -> 1135 ;
1136 [label="gini = 0.0\nsamples = 2\nvalue = [0, 2, 0]"] ;
1134 -> 1136 ;
1137 [label="X[0] <= 40.5\ngini = 0.625\nsamples = 8\nvalue = [4, 2, 2]"] ;
1129 -> 1137 ;
1138 [label="X[7] <= 3.5\ngini = 0.444\nsamples = 3\nvalue = [1, 0, 2]"] ;
1137 -> 1138 ;
1139 [label="gini = 0.0\nsamples = 2\nvalue = [0, 0, 2]"] ;
1138 -> 1139 ;
1140 [label="gini = 0.0\nsamples = 1\nvalue = [1, 0, 0]"] ;
1138 -> 1140 ;
1141 [label="X[0] <= 43.0\ngini = 0.48\nsamples = 5\nvalue = [3, 2, 0]"] ;
1137 -> 1141 ;
1142 [label="X[3] <= 4.5\ngini = 0.444\nsamples = 3\nvalue = [1, 2, 0]"] ;
1141 -> 1142 ;
1143 [label="gini = 0.0\nsamples = 1\nvalue = [1, 0, 0]"] ;
1142 -> 1143 ;
1144 [label="gini = 0.0\nsamples = 2\nvalue = [0, 2, 0]"] ;
1142 -> 1144 ;
1145 [label="gini = 0.0\nsamples = 2\nvalue = [2, 0, 0]"] ;
1141 -> 1145 ;
1146 [label="X[3] <= 8.5\ngini = 0.568\nsamples = 29\nvalue = [17, 7, 5]"] ;
1128 -> 1146 ;
1147 [label="X[0] <= 43.5\ngini = 0.524\nsamples = 27\nvalue = [17, 7, 3]"] ;
1146 -> 1147 ;
1148 [label="X[7] <= 3.5\ngini = 0.465\nsamples = 20\nvalue = [14, 3, 3]"] ;
1147 -> 1148 ;
1149 [label="X[3] <= 7.5\ngini = 0.26\nsamples = 13\nvalue = [11, 0, 2]"] ;
1148 -> 1149 ;
1150 [label="X[3] <= 6.5\ngini = 0.346\nsamples = 9\nvalue = [7, 0, 2]"] ;
1149 -> 1150 ;
1151 [label="X[1] <= 2.5\ngini = 0.245\nsamples = 7\nvalue = [6, 0, 1]"] ;
1150 -> 1151 ;
1152 [label="X[2] <= 3.5\ngini = 0.375\nsamples = 4\nvalue = [3, 0, 1]"] ;
1151 -> 1152 ;
1153 [label="X[0] <= 39.0\ngini = 0.5\nsamples = 2\nvalue = [1, 0, 1]"] ;
1152 -> 1153 ;
1154 [label="gini = 0.0\nsamples = 1\nvalue = [1, 0, 0]"] ;
1153 -> 1154 ;
1155 [label="gini = 0.0\nsamples = 1\nvalue = [0, 0, 1]"] ;
1153 -> 1155 ;
1156 [label="gini = 0.0\nsamples = 2\nvalue = [2, 0, 0]"] ;
1152 -> 1156 ;
1157 [label="gini = 0.0\nsamples = 3\nvalue = [3, 0, 0]"] ;
1151 -> 1157 ;
1158 [label="X[7] <= 1.5\ngini = 0.5\nsamples = 2\nvalue = [1, 0, 1]"] ;
1150 -> 1158 ;
1159 [label="gini = 0.0\nsamples = 1\nvalue = [1, 0, 0]"] ;
1158 -> 1159 ;
1160 [label="gini = 0.0\nsamples = 1\nvalue = [0, 0, 1]"] ;
1158 -> 1160 ;
1161 [label="gini = 0.0\nsamples = 4\nvalue = [4, 0, 0]"] ;
1149 -> 1161 ;
1162 [label="X[0] <= 42.5\ngini = 0.612\nsamples = 7\nvalue = [3, 3, 1]"] ;
1148 -> 1162 ;
1163 [label="X[6] <= 2.5\ngini = 0.56\nsamples = 5\nvalue = [1, 3, 1]"] ;
1162 -> 1163 ;
1164 [label="X[1] <= 2.5\ngini = 0.5\nsamples = 2\nvalue = [0, 1, 1]"] ;
1163 -> 1164 ;
1165 [label="gini = 0.0\nsamples = 1\nvalue = [0, 0, 1]"] ;
1164 -> 1165 ;
1166 [label="gini = 0.0\nsamples = 1\nvalue = [0, 1, 0]"] ;
1164 -> 1166 ;
1167 [label="X[2] <= 3.5\ngini = 0.444\nsamples = 3\nvalue = [1, 2, 0]"] ;
1163 -> 1167 ;
1168 [label="X[0] <= 41.5\ngini = 0.5\nsamples = 2\nvalue = [1, 1, 0]"] ;
1167 -> 1168 ;
1169 [label="gini = 0.0\nsamples = 1\nvalue = [1, 0, 0]"] ;
1168 -> 1169 ;
1170 [label="gini = 0.0\nsamples = 1\nvalue = [0, 1, 0]"] ;
1168 -> 1170 ;
1171 [label="gini = 0.0\nsamples = 1\nvalue = [0, 1, 0]"] ;
1167 -> 1171 ;
1172 [label="gini = 0.0\nsamples = 2\nvalue = [2, 0, 0]"] ;
1162 -> 1172 ;
1173 [label="X[2] <= 3.5\ngini = 0.49\nsamples = 7\nvalue = [3, 4, 0]"] ;
1147 -> 1173 ;
1174 [label="gini = 0.0\nsamples = 2\nvalue = [0, 2, 0]"] ;
1173 -> 1174 ;
1175 [label="X[6] <= 2.5\ngini = 0.48\nsamples = 5\nvalue = [3, 2, 0]"] ;
1173 -> 1175 ;
1176 [label="gini = 0.0\nsamples = 2\nvalue = [2, 0, 0]"] ;
1175 -> 1176 ;
1177 [label="X[7] <= 3.5\ngini = 0.444\nsamples = 3\nvalue = [1, 2, 0]"] ;
1175 -> 1177 ;
1178 [label="gini = 0.0\nsamples = 2\nvalue = [0, 2, 0]"] ;
1177 -> 1178 ;
1179 [label="gini = 0.0\nsamples = 1\nvalue = [1, 0, 0]"] ;
1177 -> 1179 ;
1180 [label="gini = 0.0\nsamples = 2\nvalue = [0, 0, 2]"] ;
1146 -> 1180 ;
1181 [label="X[3] <= 12.5\ngini = 0.219\nsamples = 8\nvalue = [7, 1, 0]"] ;
1085 -> 1181 ;
1182 [label="gini = 0.0\nsamples = 7\nvalue = [7, 0, 0]"] ;
1181 -> 1182 ;
1183 [label="gini = 0.0\nsamples = 1\nvalue = [0, 1, 0]"] ;
1181 -> 1183 ;
1184 [label="X[0] <= 48.5\ngini = 0.218\nsamples = 25\nvalue = [22, 2, 1]"] ;
1084 -> 1184 ;
1185 [label="X[3] <= 3.5\ngini = 0.111\nsamples = 17\nvalue = [16, 0, 1]"] ;
1184 -> 1185 ;
1186 [label="X[3] <= 2.5\ngini = 0.32\nsamples = 5\nvalue = [4, 0, 1]"] ;
1185 -> 1186 ;
1187 [label="gini = 0.0\nsamples = 2\nvalue = [2, 0, 0]"] ;
1186 -> 1187 ;
1188 [label="X[6] <= 2.5\ngini = 0.444\nsamples = 3\nvalue = [2, 0, 1]"] ;
1186 -> 1188 ;
1189 [label="X[0] <= 47.5\ngini = 0.5\nsamples = 2\nvalue = [1, 0, 1]"] ;
1188 -> 1189 ;
1190 [label="gini = 0.0\nsamples = 1\nvalue = [1, 0, 0]"] ;
1189 -> 1190 ;
1191 [label="gini = 0.0\nsamples = 1\nvalue = [0, 0, 1]"] ;
1189 -> 1191 ;
1192 [label="gini = 0.0\nsamples = 1\nvalue = [1, 0, 0]"] ;
1188 -> 1192 ;
1193 [label="gini = 0.0\nsamples = 12\nvalue = [12, 0, 0]"] ;
1185 -> 1193 ;
1194 [label="X[6] <= 2.5\ngini = 0.375\nsamples = 8\nvalue = [6, 2, 0]"] ;
1184 -> 1194 ;
1195 [label="X[3] <= 10.0\ngini = 0.245\nsamples = 7\nvalue = [6, 1, 0]"] ;
1194 -> 1195 ;
1196 [label="gini = 0.0\nsamples = 6\nvalue = [6, 0, 0]"] ;
1195 -> 1196 ;
1197 [label="gini = 0.0\nsamples = 1\nvalue = [0, 1, 0]"] ;
1195 -> 1197 ;
1198 [label="gini = 0.0\nsamples = 1\nvalue = [0, 1, 0]"] ;
1194 -> 1198 ;
1199 [label="X[1] <= 2.5\ngini = 0.111\nsamples = 17\nvalue = [16, 1, 0]"] ;
1055 -> 1199 ;
1200 [label="gini = 0.0\nsamples = 13\nvalue = [13, 0, 0]"] ;
1199 -> 1200 ;
1201 [label="X[3] <= 4.5\ngini = 0.375\nsamples = 4\nvalue = [3, 1, 0]"] ;
1199 -> 1201 ;
1202 [label="gini = 0.0\nsamples = 3\nvalue = [3, 0, 0]"] ;
1201 -> 1202 ;
1203 [label="gini = 0.0\nsamples = 1\nvalue = [0, 1, 0]"] ;
1201 -> 1203 ;
1204 [label="X[3] <= 1.5\ngini = 0.637\nsamples = 172\nvalue = [49, 81, 42]"] ;
1014 -> 1204 ;
1205 [label="X[2] <= 3.5\ngini = 0.188\nsamples = 19\nvalue = [17, 0, 2]"] ;
1204 -> 1205 ;
1206 [label="gini = 0.0\nsamples = 1\nvalue = [0, 0, 1]"] ;
1205 -> 1206 ;
1207 [label="X[6] <= 2.5\ngini = 0.105\nsamples = 18\nvalue = [17, 0, 1]"] ;
1205 -> 1207 ;
1208 [label="gini = 0.0\nsamples = 15\nvalue = [15, 0, 0]"] ;
1207 -> 1208 ;
1209 [label="X[0] <= 43.0\ngini = 0.444\nsamples = 3\nvalue = [2, 0, 1]"] ;
1207 -> 1209 ;
1210 [label="gini = 0.0\nsamples = 1\nvalue = [0, 0, 1]"] ;
1209 -> 1210 ;
1211 [label="gini = 0.0\nsamples = 2\nvalue = [2, 0, 0]"] ;
1209 -> 1211 ;
1212 [label="X[0] <= 48.5\ngini = 0.608\nsamples = 153\nvalue = [32, 81, 40]"] ;
1204 -> 1212 ;
1213 [label="X[3] <= 2.5\ngini = 0.591\nsamples = 145\nvalue = [26, 80, 39]"] ;
1212 -> 1213 ;
1214 [label="X[0] <= 39.5\ngini = 0.615\nsamples = 13\nvalue = [5, 2, 6]"] ;
1213 -> 1214 ;
1215 [label="X[5] <= 0.5\ngini = 0.5\nsamples = 6\nvalue = [1, 1, 4]"] ;
1214 -> 1215 ;
1216 [label="X[0] <= 38.5\ngini = 0.5\nsamples = 2\nvalue = [1, 0, 1]"] ;
1215 -> 1216 ;
1217 [label="gini = 0.0\nsamples = 1\nvalue = [0, 0, 1]"] ;
1216 -> 1217 ;
1218 [label="gini = 0.0\nsamples = 1\nvalue = [1, 0, 0]"] ;
1216 -> 1218 ;
1219 [label="X[4] <= 0.5\ngini = 0.375\nsamples = 4\nvalue = [0, 1, 3]"] ;
1215 -> 1219 ;
1220 [label="gini = 0.0\nsamples = 2\nvalue = [0, 0, 2]"] ;
1219 -> 1220 ;
1221 [label="X[6] <= 2.0\ngini = 0.5\nsamples = 2\nvalue = [0, 1, 1]"] ;
1219 -> 1221 ;
1222 [label="gini = 0.0\nsamples = 1\nvalue = [0, 1, 0]"] ;
1221 -> 1222 ;
1223 [label="gini = 0.0\nsamples = 1\nvalue = [0, 0, 1]"] ;
1221 -> 1223 ;
1224 [label="X[5] <= 0.5\ngini = 0.571\nsamples = 7\nvalue = [4, 1, 2]"] ;
1214 -> 1224 ;
1225 [label="X[0] <= 43.0\ngini = 0.5\nsamples = 2\nvalue = [0, 1, 1]"] ;
1224 -> 1225 ;
1226 [label="gini = 0.0\nsamples = 1\nvalue = [0, 0, 1]"] ;
1225 -> 1226 ;
1227 [label="gini = 0.0\nsamples = 1\nvalue = [0, 1, 0]"] ;
1225 -> 1227 ;
1228 [label="X[0] <= 42.0\ngini = 0.32\nsamples = 5\nvalue = [4, 0, 1]"] ;
1224 -> 1228 ;
1229 [label="gini = 0.0\nsamples = 3\nvalue = [3, 0, 0]"] ;
1228 -> 1229 ;
1230 [label="X[0] <= 45.0\ngini = 0.5\nsamples = 2\nvalue = [1, 0, 1]"] ;
1228 -> 1230 ;
1231 [label="gini = 0.0\nsamples = 1\nvalue = [0, 0, 1]"] ;
1230 -> 1231 ;
1232 [label="gini = 0.0\nsamples = 1\nvalue = [1, 0, 0]"] ;
1230 -> 1232 ;
1233 [label="X[0] <= 42.5\ngini = 0.563\nsamples = 132\nvalue = [21, 78, 33]"] ;
1213 -> 1233 ;
1234 [label="X[2] <= 3.5\ngini = 0.461\nsamples = 67\nvalue = [4, 46, 17]"] ;
1233 -> 1234 ;
1235 [label="X[0] <= 41.5\ngini = 0.375\nsamples = 4\nvalue = [0, 1, 3]"] ;
1234 -> 1235 ;
1236 [label="gini = 0.0\nsamples = 3\nvalue = [0, 0, 3]"] ;
1235 -> 1236 ;
1237 [label="gini = 0.0\nsamples = 1\nvalue = [0, 1, 0]"] ;
1235 -> 1237 ;
1238 [label="X[8] <= 0.5\ngini = 0.436\nsamples = 63\nvalue = [4, 45, 14]"] ;
1234 -> 1238 ;
1239 [label="X[3] <= 3.5\ngini = 0.425\nsamples = 62\nvalue = [4, 45, 13]"] ;
1238 -> 1239 ;
1240 [label="X[6] <= 2.5\ngini = 0.549\nsamples = 18\nvalue = [4, 11, 3]"] ;
1239 -> 1240 ;
1241 [label="X[0] <= 41.5\ngini = 0.477\nsamples = 16\nvalue = [2, 11, 3]"] ;
1240 -> 1241 ;
1242 [label="X[4] <= 0.5\ngini = 0.298\nsamples = 11\nvalue = [0, 9, 2]"] ;
1241 -> 1242 ;
1243 [label="gini = 0.0\nsamples = 4\nvalue = [0, 4, 0]"] ;
1242 -> 1243 ;
